<?xml version="1.0"?>
<opencv_storage>
<cascade>
  <stageType>BOOST</stageType>
  <featureType>HAAR</featureType>
  <height>18</height>
  <width>18</width>
  <stageParams>
    <boostType>GAB</boostType>
    <minHitRate>9.9500000476837158e-01</minHitRate>
    <maxFalseAlarm>5.0000000000000000e-01</maxFalseAlarm>
    <weightTrimRate>9.4999999999999996e-01</weightTrimRate>
    <maxDepth>1</maxDepth>
    <maxWeakCount>100</maxWeakCount></stageParams>
  <featureParams>
    <maxCatCount>0</maxCatCount>
    <featSize>1</featSize>
    <mode>BASIC</mode></featureParams>
  <stageNum>8</stageNum>
  <stages>
    <!-- stage 0 -->
    <_>
      <maxWeakCount>3</maxWeakCount>
      <stageThreshold>-6.5919137001037598e-01</stageThreshold>
      <weakClassifiers>
        <_>
          <internalNodes>
            0 -1 26 -2.6676572859287262e-02</internalNodes>
          <leafValues>
            7.8725892305374146e-01 -7.9390418529510498e-01</leafValues></_>
        <_>
          <internalNodes>
            0 -1 12 1.0287350974977016e-02</internalNodes>
          <leafValues>
            -6.4024651050567627e-01 7.8718966245651245e-01</leafValues></_>
        <_>
          <internalNodes>
            0 -1 52 4.8541845753788948e-03</internalNodes>
          <leafValues>
            -5.8363544940948486e-01 7.7495932579040527e-01</leafValues></_></weakClassifiers></_>
    <!-- stage 1 -->
    <_>
      <maxWeakCount>4</maxWeakCount>
      <stageThreshold>-2.6642945408821106e-01</stageThreshold>
      <weakClassifiers>
        <_>
          <internalNodes>
            0 -1 47 -3.4475456923246384e-03</internalNodes>
          <leafValues>
            7.9892277717590332e-01 -7.3388200998306274e-01</leafValues></_>
        <_>
          <internalNodes>
            0 -1 2 -2.1579373627901077e-02</internalNodes>
          <leafValues>
            8.7306511402130127e-01 -5.8274358510971069e-01</leafValues></_>
        <_>
          <internalNodes>
            0 -1 14 4.3123848736286163e-03</internalNodes>
          <leafValues>
            -7.6052069664001465e-01 6.2342673540115356e-01</leafValues></_>
        <_>
          <internalNodes>
            0 -1 10 -1.9747416675090790e-01</internalNodes>
          <leafValues>
            -9.3952965736389160e-01 4.2676940560340881e-01</leafValues></_></weakClassifiers></_>
    <!-- stage 2 -->
    <_>
      <maxWeakCount>5</maxWeakCount>
      <stageThreshold>-6.6282528638839722e-01</stageThreshold>
      <weakClassifiers>
        <_>
          <internalNodes>
            0 -1 6 -4.9190826714038849e-02</internalNodes>
          <leafValues>
            7.9862415790557861e-01 -5.9550559520721436e-01</leafValues></_>
        <_>
          <internalNodes>
            0 -1 5 6.4546182751655579e-02</internalNodes>
          <leafValues>
            -3.5727038979530334e-01 8.0834871530532837e-01</leafValues></_>
        <_>
          <internalNodes>
            0 -1 20 -3.5604060394689441e-04</internalNodes>
          <leafValues>
            4.0432149171829224e-01 -7.1111863851547241e-01</leafValues></_>
        <_>
          <internalNodes>
            0 -1 50 1.5098894014954567e-02</internalNodes>
          <leafValues>
            -4.2844465374946594e-01 6.4856153726577759e-01</leafValues></_>
        <_>
          <internalNodes>
            0 -1 48 -1.2057849671691656e-03</internalNodes>
          <leafValues>
            3.5250779986381531e-01 -7.2263145446777344e-01</leafValues></_></weakClassifiers></_>
    <!-- stage 3 -->
    <_>
      <maxWeakCount>7</maxWeakCount>
      <stageThreshold>-7.7786856889724731e-01</stageThreshold>
      <weakClassifiers>
        <_>
          <internalNodes>
            0 -1 8 -2.6137584447860718e-01</internalNodes>
          <leafValues>
            -7.1339565515518188e-01 7.1558588743209839e-01</leafValues></_>
        <_>
          <internalNodes>
            0 -1 18 -6.6168263554573059e-02</internalNodes>
          <leafValues>
            6.0015094280242920e-01 -4.8037958145141602e-01</leafValues></_>
        <_>
          <internalNodes>
            0 -1 24 4.3679319322109222e-02</internalNodes>
          <leafValues>
            -3.0402931571006775e-01 7.7748340368270874e-01</leafValues></_>
        <_>
          <internalNodes>
            0 -1 17 -1.0141196846961975e-01</internalNodes>
          <leafValues>
            -8.5576027631759644e-01 2.9628798365592957e-01</leafValues></_>
        <_>
          <internalNodes>
            0 -1 32 8.4329890087246895e-03</internalNodes>
          <leafValues>
            -3.0956161022186279e-01 7.0009934902191162e-01</leafValues></_>
        <_>
          <internalNodes>
            0 -1 51 1.1852696537971497e-02</internalNodes>
          <leafValues>
            -3.9348408579826355e-01 5.4700613021850586e-01</leafValues></_>
        <_>
          <internalNodes>
            0 -1 41 -1.4726745896041393e-02</internalNodes>
          <leafValues>
            -9.9413192272186279e-01 1.8620344996452332e-01</leafValues></_></weakClassifiers></_>
    <!-- stage 4 -->
    <_>
      <maxWeakCount>8</maxWeakCount>
      <stageThreshold>-1.0181572437286377e+00</stageThreshold>
      <weakClassifiers>
        <_>
          <internalNodes>
            0 -1 7 -1.6477645933628082e-01</internalNodes>
          <leafValues>
            -3.7214612960815430e-01 7.3884516954421997e-01</leafValues></_>
        <_>
          <internalNodes>
            0 -1 46 -1.4787718653678894e-02</internalNodes>
          <leafValues>
            6.3378953933715820e-01 -4.7117069363594055e-01</leafValues></_>
        <_>
          <internalNodes>
            0 -1 0 -4.1625671088695526e-02</internalNodes>
          <leafValues>
            5.8913451433181763e-01 -3.8301882147789001e-01</leafValues></_>
        <_>
          <internalNodes>
            0 -1 28 -1.2991542462259531e-03</internalNodes>
          <leafValues>
            3.9444339275360107e-01 -6.5489172935485840e-01</leafValues></_>
        <_>
          <internalNodes>
            0 -1 13 1.6213051276281476e-03</internalNodes>
          <leafValues>
            -7.0173019170761108e-01 2.7440544962882996e-01</leafValues></_>
        <_>
          <internalNodes>
            0 -1 9 8.3404608070850372e-02</internalNodes>
          <leafValues>
            -2.7407121658325195e-01 7.0609617233276367e-01</leafValues></_>
        <_>
          <internalNodes>
            0 -1 31 -2.7040778659284115e-03</internalNodes>
          <leafValues>
            5.6403398513793945e-01 -3.2452270388603210e-01</leafValues></_>
        <_>
          <internalNodes>
            0 -1 39 6.2186311697587371e-04</internalNodes>
          <leafValues>
            2.0709125697612762e-01 -8.9988064765930176e-01</leafValues></_></weakClassifiers></_>
    <!-- stage 5 -->
    <_>
      <maxWeakCount>8</maxWeakCount>
      <stageThreshold>-9.3511438369750977e-01</stageThreshold>
      <weakClassifiers>
        <_>
          <internalNodes>
            0 -1 44 -1.6794772818684578e-03</internalNodes>
          <leafValues>
            6.0546445846557617e-01 -5.4035085439682007e-01</leafValues></_>
        <_>
          <internalNodes>
            0 -1 1 -3.9623878896236420e-02</internalNodes>
          <leafValues>
            6.4586865901947021e-01 -3.7000909447669983e-01</leafValues></_>
        <_>
          <internalNodes>
            0 -1 34 -9.7197992727160454e-04</internalNodes>
          <leafValues>
            -8.7199300527572632e-01 2.3815612494945526e-01</leafValues></_>
        <_>
          <internalNodes>
            0 -1 30 -1.2417769758030772e-03</internalNodes>
          <leafValues>
            4.3349999189376831e-01 -4.5083016157150269e-01</leafValues></_>
        <_>
          <internalNodes>
            0 -1 15 1.7990767955780029e-01</internalNodes>
          <leafValues>
            -2.6515579223632813e-01 6.7742455005645752e-01</leafValues></_>
        <_>
          <internalNodes>
            0 -1 29 -1.7830211436375976e-04</internalNodes>
          <leafValues>
            -7.4021953344345093e-01 1.9904400408267975e-01</leafValues></_>
        <_>
          <internalNodes>
            0 -1 33 -1.0095439851284027e-02</internalNodes>
          <leafValues>
            2.4351342022418976e-01 -7.4752330780029297e-01</leafValues></_>
        <_>
          <internalNodes>
            0 -1 43 -6.2220081686973572e-02</internalNodes>
          <leafValues>
            -6.2580937147140503e-01 2.3302015662193298e-01</leafValues></_></weakClassifiers></_>
    <!-- stage 6 -->
    <_>
      <maxWeakCount>10</maxWeakCount>
      <stageThreshold>-1.0571154356002808e+00</stageThreshold>
      <weakClassifiers>
        <_>
          <internalNodes>
            0 -1 52 1.4143824577331543e-02</internalNodes>
          <leafValues>
            -9.7706034779548645e-02 7.4816024303436279e-01</leafValues></_>
        <_>
          <internalNodes>
            0 -1 16 5.8716502040624619e-02</internalNodes>
          <leafValues>
            -2.4656729400157928e-01 6.8561947345733643e-01</leafValues></_>
        <_>
          <internalNodes>
            0 -1 14 3.1181136146187782e-03</internalNodes>
          <leafValues>
            -7.9167842864990234e-01 2.6354295015335083e-01</leafValues></_>
        <_>
          <internalNodes>
            0 -1 45 -8.3875795826315880e-03</internalNodes>
          <leafValues>
            3.7780553102493286e-01 -4.4334164261817932e-01</leafValues></_>
        <_>
          <internalNodes>
            0 -1 49 -1.4840036164969206e-03</internalNodes>
          <leafValues>
            3.6147284507751465e-01 -4.1433450579643250e-01</leafValues></_>
        <_>
          <internalNodes>
            0 -1 3 -2.3760247975587845e-02</internalNodes>
          <leafValues>
            4.1163015365600586e-01 -4.5822453498840332e-01</leafValues></_>
        <_>
          <internalNodes>
            0 -1 38 -2.2544328123331070e-02</internalNodes>
          <leafValues>
            -8.1723386049270630e-01 1.5390942990779877e-01</leafValues></_>
        <_>
          <internalNodes>
            0 -1 37 2.1777071058750153e-02</internalNodes>
          <leafValues>
            1.4540739357471466e-01 -9.0355157852172852e-01</leafValues></_>
        <_>
          <internalNodes>
            0 -1 23 -5.9040734777227044e-04</internalNodes>
          <leafValues>
            3.5054048895835876e-01 -4.0480604767799377e-01</leafValues></_>
        <_>
          <internalNodes>
            0 -1 11 4.6922177076339722e-02</internalNodes>
          <leafValues>
            -1.8080642819404602e-01 7.4089723825454712e-01</leafValues></_></weakClassifiers></_>
    <!-- stage 7 -->
    <_>
      <maxWeakCount>12</maxWeakCount>
      <stageThreshold>-8.7302064895629883e-01</stageThreshold>
      <weakClassifiers>
        <_>
          <internalNodes>
            0 -1 47 -5.7147927582263947e-03</internalNodes>
          <leafValues>
            5.5095541477203369e-01 -4.6124032139778137e-01</leafValues></_>
        <_>
          <internalNodes>
            0 -1 53 1.0127767920494080e-02</internalNodes>
          <leafValues>
            -4.2036321759223938e-01 4.2691001296043396e-01</leafValues></_>
        <_>
          <internalNodes>
            0 -1 22 -6.5433203417342156e-05</internalNodes>
          <leafValues>
            2.7134034037590027e-01 -6.5062236785888672e-01</leafValues></_>
        <_>
          <internalNodes>
            0 -1 19 -2.0914363631163724e-05</internalNodes>
          <leafValues>
            1.8951463699340820e-01 -7.5064653158187866e-01</leafValues></_>
        <_>
          <internalNodes>
            0 -1 4 -2.0072050392627716e-02</internalNodes>
          <leafValues>
            4.6641948819160461e-01 -3.2423615455627441e-01</leafValues></_>
        <_>
          <internalNodes>
            0 -1 36 -4.5302058570086956e-03</internalNodes>
          <leafValues>
            5.5449026823043823e-01 -2.9984250664710999e-01</leafValues></_>
        <_>
          <internalNodes>
            0 -1 40 -3.0085939913988113e-02</internalNodes>
          <leafValues>
            -6.4241820573806763e-01 2.4433369934558868e-01</leafValues></_>
        <_>
          <internalNodes>
            0 -1 21 -1.6041082562878728e-04</internalNodes>
          <leafValues>
            1.6048434376716614e-01 -6.4620232582092285e-01</leafValues></_>
        <_>
          <internalNodes>
            0 -1 27 1.2769687455147505e-03</internalNodes>
          <leafValues>
            -5.2248036861419678e-01 2.9911470413208008e-01</leafValues></_>
        <_>
          <internalNodes>
            0 -1 35 1.0266070254147053e-02</internalNodes>
          <leafValues>
            1.4694359898567200e-01 -8.0137664079666138e-01</leafValues></_>
        <_>
          <internalNodes>
            0 -1 25 -1.6816008836030960e-02</internalNodes>
          <leafValues>
            -7.6832026243209839e-01 1.6808949410915375e-01</leafValues></_>
        <_>
          <internalNodes>
            0 -1 42 -1.1506535112857819e-01</internalNodes>
          <leafValues>
            -7.9478740692138672e-01 1.2018995732069016e-01</leafValues></_></weakClassifiers></_></stages>
  <features>
    <_>
      <rects>
        <_>
          0 2 4 11 -1.</_>
        <_>
          2 2 2 11 2.</_></rects>
      <tilted>0</tilted></_>
    <_>
      <rects>
        <_>
          0 4 4 8 -1.</_>
        <_>
          2 4 2 8 2.</_></rects>
      <tilted>0</tilted></_>
    <_>
      <rects>
        <_>
          0 4 4 12 -1.</_>
        <_>
          2 4 2 12 2.</_></rects>
      <tilted>0</tilted></_>
    <_>
      <rects>
        <_>
          0 5 4 12 -1.</_>
        <_>
          2 5 2 12 2.</_></rects>
      <tilted>0</tilted></_>
    <_>
      <rects>
        <_>
          0 6 4 3 -1.</_>
        <_>
          2 6 2 3 2.</_></rects>
      <tilted>0</tilted></_>
    <_>
      <rects>
        <_>
          0 12 17 6 -1.</_>
        <_>
          0 15 17 3 2.</_></rects>
      <tilted>0</tilted></_>
    <_>
      <rects>
        <_>
          2 7 12 6 -1.</_>
        <_>
          2 10 12 3 2.</_></rects>
      <tilted>0</tilted></_>
    <_>
      <rects>
        <_>
          2 8 15 5 -1.</_>
        <_>
          7 8 5 5 2.</_></rects>
      <tilted>0</tilted></_>
    <_>
      <rects>
        <_>
          2 8 15 6 -1.</_>
        <_>
          7 8 5 6 2.</_></rects>
      <tilted>0</tilted></_>
    <_>
      <rects>
        <_>
          2 9 8 8 -1.</_>
        <_>
          2 13 8 4 2.</_></rects>
      <tilted>0</tilted></_>
    <_>
      <rects>
        <_>
          2 11 15 3 -1.</_>
        <_>
          7 11 5 3 2.</_></rects>
      <tilted>0</tilted></_>
    <_>
      <rects>
        <_>
          2 11 8 4 -1.</_>
        <_>
          2 13 8 2 2.</_></rects>
      <tilted>0</tilted></_>
    <_>
      <rects>
        <_>
          3 6 4 6 -1.</_>
        <_>
          5 6 2 6 2.</_></rects>
      <tilted>0</tilted></_>
    <_>
      <rects>
        <_>
          3 8 4 1 -1.</_>
        <_>
          5 8 2 1 2.</_></rects>
      <tilted>0</tilted></_>
    <_>
      <rects>
        <_>
          3 8 4 3 -1.</_>
        <_>
          5 8 2 3 2.</_></rects>
      <tilted>0</tilted></_>
    <_>
      <rects>
        <_>
          3 10 14 8 -1.</_>
        <_>
          3 14 14 4 2.</_></rects>
      <tilted>0</tilted></_>
    <_>
      <rects>
        <_>
          3 14 14 4 -1.</_>
        <_>
          3 16 14 2 2.</_></rects>
      <tilted>0</tilted></_>
    <_>
      <rects>
        <_>
          4 5 12 9 -1.</_>
        <_>
          10 5 6 9 2.</_></rects>
      <tilted>0</tilted></_>
    <_>
      <rects>
        <_>
          4 7 10 6 -1.</_>
        <_>
          4 10 10 3 2.</_></rects>
      <tilted>0</tilted></_>
    <_>
      <rects>
        <_>
          4 8 1 2 -1.</_>
        <_>
          4 9 1 1 2.</_></rects>
      <tilted>0</tilted></_>
    <_>
      <rects>
        <_>
          4 8 2 2 -1.</_>
        <_>
          4 9 2 1 2.</_></rects>
      <tilted>0</tilted></_>
    <_>
      <rects>
        <_>
          4 9 1 2 -1.</_>
        <_>
          4 10 1 1 2.</_></rects>
      <tilted>0</tilted></_>
    <_>
      <rects>
        <_>
          4 10 1 2 -1.</_>
        <_>
          4 11 1 1 2.</_></rects>
      <tilted>0</tilted></_>
    <_>
      <rects>
        <_>
          4 11 1 2 -1.</_>
        <_>
          4 12 1 1 2.</_></rects>
      <tilted>0</tilted></_>
    <_>
      <rects>
        <_>
          4 14 10 4 -1.</_>
        <_>
          4 16 10 2 2.</_></rects>
      <tilted>0</tilted></_>
    <_>
      <rects>
        <_>
          5 3 6 12 -1.</_>
        <_>
          8 3 3 12 2.</_></rects>
      <tilted>0</tilted></_>
    <_>
      <rects>
        <_>
          5 7 10 6 -1.</_>
        <_>
          5 10 10 3 2.</_></rects>
      <tilted>0</tilted></_>
    <_>
      <rects>
        <_>
          5 8 2 2 -1.</_>
        <_>
          6 8 1 2 2.</_></rects>
      <tilted>0</tilted></_>
    <_>
      <rects>
        <_>
          5 9 1 4 -1.</_>
        <_>
          5 11 1 2 2.</_></rects>
      <tilted>0</tilted></_>
    <_>
      <rects>
        <_>
          5 10 2 1 -1.</_>
        <_>
          6 10 1 1 2.</_></rects>
      <tilted>0</tilted></_>
    <_>
      <rects>
        <_>
          5 12 2 2 -1.</_>
        <_>
          5 13 2 1 2.</_></rects>
      <tilted>0</tilted></_>
    <_>
      <rects>
        <_>
          5 13 4 2 -1.</_>
        <_>
          5 14 4 1 2.</_></rects>
      <tilted>0</tilted></_>
    <_>
      <rects>
        <_>
          6 3 8 2 -1.</_>
        <_>
          6 4 8 1 2.</_></rects>
      <tilted>0</tilted></_>
    <_>
      <rects>
        <_>
          6 8 8 4 -1.</_>
        <_>
          6 10 8 2 2.</_></rects>
      <tilted>0</tilted></_>
    <_>
      <rects>
        <_>
          6 10 2 2 -1.</_>
        <_>
          7 10 1 2 2.</_></rects>
      <tilted>0</tilted></_>
    <_>
      <rects>
        <_>
          6 10 4 3 -1.</_>
        <_>
          8 10 2 3 2.</_></rects>
      <tilted>0</tilted></_>
    <_>
      <rects>
        <_>
          6 13 5 2 -1.</_>
        <_>
          6 14 5 1 2.</_></rects>
      <tilted>0</tilted></_>
    <_>
      <rects>
        <_>
          8 8 6 6 -1.</_>
        <_>
          11 8 3 6 2.</_></rects>
      <tilted>0</tilted></_>
    <_>
      <rects>
        <_>
          8 9 6 4 -1.</_>
        <_>
          11 9 3 4 2.</_></rects>
      <tilted>0</tilted></_>
    <_>
      <rects>
        <_>
          8 10 3 2 -1.</_>
        <_>
          8 11 3 1 2.</_></rects>
      <tilted>0</tilted></_>
    <_>
      <rects>
        <_>
          8 11 3 3 -1.</_>
        <_>
          9 11 1 3 2.</_></rects>
      <tilted>0</tilted></_>
    <_>
      <rects>
        <_>
          8 12 3 1 -1.</_>
        <_>
          9 12 1 1 2.</_></rects>
      <tilted>0</tilted></_>
    <_>
      <rects>
        <_>
          9 2 3 16 -1.</_>
        <_>
          9 10 3 8 2.</_></rects>
      <tilted>0</tilted></_>
    <_>
      <rects>
        <_>
          10 7 6 3 -1.</_>
        <_>
          12 7 2 3 2.</_></rects>
      <tilted>0</tilted></_>
    <_>
      <rects>
        <_>
          11 10 4 2 -1.</_>
        <_>
          13 10 2 2 2.</_></rects>
      <tilted>0</tilted></_>
    <_>
      <rects>
        <_>
          12 7 4 2 -1.</_>
        <_>
          14 7 2 2 2.</_></rects>
      <tilted>0</tilted></_>
    <_>
      <rects>
        <_>
          12 7 4 4 -1.</_>
        <_>
          14 7 2 4 2.</_></rects>
      <tilted>0</tilted></_>
    <_>
      <rects>
        <_>
          12 8 4 3 -1.</_>
        <_>
          14 8 2 3 2.</_></rects>
      <tilted>0</tilted></_>
    <_>
      <rects>
        <_>
          13 6 1 6 -1.</_>
        <_>
          13 9 1 3 2.</_></rects>
      <tilted>0</tilted></_>
    <_>
      <rects>
        <_>
          15 9 2 2 -1.</_>
        <_>
          15 10 2 1 2.</_></rects>
      <tilted>0</tilted></_>
    <_>
      <rects>
        <_>
          16 0 2 18 -1.</_>
        <_>
          17 0 1 18 2.</_></rects>
      <tilted>0</tilted></_>
    <_>
      <rects>
        <_>
          16 3 2 10 -1.</_>
        <_>
          17 3 1 10 2.</_></rects>
      <tilted>0</tilted></_>
    <_>
      <rects>
        <_>
          16 4 2 9 -1.</_>
        <_>
          17 4 1 9 2.</_></rects>
      <tilted>0</tilted></_>
    <_>
      <rects>
        <_>
          16 4 2 11 -1.</_>
        <_>
          17 4 1 11 2.</_></rects>
      <tilted>0</tilted></_></features></cascade>
</opencv_storage>
