<?xml version="1.0"?>
<opencv_storage>
<stage4>
  <maxWeakCount>8</maxWeakCount>
  <stageThreshold>-1.0181572437286377e+00</stageThreshold>
  <weakClassifiers>
    <_>
      <internalNodes>
        0 -1 14366 -1.6477645933628082e-01</internalNodes>
      <leafValues>
        -3.7214612960815430e-01 7.3884516954421997e-01</leafValues></_>
    <_>
      <internalNodes>
        0 -1 47042 -1.4787718653678894e-02</internalNodes>
      <leafValues>
        6.3378953933715820e-01 -4.7117069363594055e-01</leafValues></_>
    <_>
      <internalNodes>
        0 -1 1276 -4.1625671088695526e-02</internalNodes>
      <leafValues>
        5.8913451433181763e-01 -3.8301882147789001e-01</leafValues></_>
    <_>
      <internalNodes>
        0 -1 27595 -1.2991542462259531e-03</internalNodes>
      <leafValues>
        3.9444339275360107e-01 -6.5489172935485840e-01</leafValues></_>
    <_>
      <internalNodes>
        0 -1 18965 1.6213051276281476e-03</internalNodes>
      <leafValues>
        -7.0173019170761108e-01 2.7440544962882996e-01</leafValues></_>
    <_>
      <internalNodes>
        0 -1 14709 8.3404608070850372e-02</internalNodes>
      <leafValues>
        -2.7407121658325195e-01 7.0609617233276367e-01</leafValues></_>
    <_>
      <internalNodes>
        0 -1 28318 -2.7040778659284115e-03</internalNodes>
      <leafValues>
        5.6403398513793945e-01 -3.2452270388603210e-01</leafValues></_>
    <_>
      <internalNodes>
        0 -1 38108 6.2186311697587371e-04</internalNodes>
      <leafValues>
        2.0709125697612762e-01 -8.9988064765930176e-01</leafValues></_></weakClassifiers></stage4>
</opencv_storage>
