<?xml version="1.0"?>
<opencv_storage>
<stage3>
  <maxWeakCount>7</maxWeakCount>
  <stageThreshold>-7.7786856889724731e-01</stageThreshold>
  <weakClassifiers>
    <_>
      <internalNodes>
        0 -1 14369 -2.6137584447860718e-01</internalNodes>
      <leafValues>
        -7.1339565515518188e-01 7.1558588743209839e-01</leafValues></_>
    <_>
      <internalNodes>
        0 -1 23287 -6.6168263554573059e-02</internalNodes>
      <leafValues>
        6.0015094280242920e-01 -4.8037958145141602e-01</leafValues></_>
    <_>
      <internalNodes>
        0 -1 24528 4.3679319322109222e-02</internalNodes>
      <leafValues>
        -3.0402931571006775e-01 7.7748340368270874e-01</leafValues></_>
    <_>
      <internalNodes>
        0 -1 22637 -1.0141196846961975e-01</internalNodes>
      <leafValues>
        -8.5576027631759644e-01 2.9628798365592957e-01</leafValues></_>
    <_>
      <internalNodes>
        0 -1 30003 8.4329890087246895e-03</internalNodes>
      <leafValues>
        -3.0956161022186279e-01 7.0009934902191162e-01</leafValues></_>
    <_>
      <internalNodes>
        0 -1 51243 1.1852696537971497e-02</internalNodes>
      <leafValues>
        -3.9348408579826355e-01 5.4700613021850586e-01</leafValues></_>
    <_>
      <internalNodes>
        0 -1 38322 -1.4726745896041393e-02</internalNodes>
      <leafValues>
        -9.9413192272186279e-01 1.8620344996452332e-01</leafValues></_></weakClassifiers></stage3>
</opencv_storage>
