<?xml version="1.0"?>
<opencv_storage>
<stage2>
  <maxWeakCount>5</maxWeakCount>
  <stageThreshold>-6.6282528638839722e-01</stageThreshold>
  <weakClassifiers>
    <_>
      <internalNodes>
        0 -1 14177 -4.9190826714038849e-02</internalNodes>
      <leafValues>
        7.9862415790557861e-01 -5.9550559520721436e-01</leafValues></_>
    <_>
      <internalNodes>
        0 -1 5223 6.4546182751655579e-02</internalNodes>
      <leafValues>
        -3.5727038979530334e-01 8.0834871530532837e-01</leafValues></_>
    <_>
      <internalNodes>
        0 -1 23357 -3.5604060394689441e-04</internalNodes>
      <leafValues>
        4.0432149171829224e-01 -7.1111863851547241e-01</leafValues></_>
    <_>
      <internalNodes>
        0 -1 51098 1.5098894014954567e-02</internalNodes>
      <leafValues>
        -4.2844465374946594e-01 6.4856153726577759e-01</leafValues></_>
    <_>
      <internalNodes>
        0 -1 48450 -1.2057849671691656e-03</internalNodes>
      <leafValues>
        3.5250779986381531e-01 -7.2263145446777344e-01</leafValues></_></weakClassifiers></stage2>
</opencv_storage>
