<?xml version="1.0"?>
<opencv_storage>
<stage5>
  <maxWeakCount>7</maxWeakCount>
  <stageThreshold>-9.2417412996292114e-01</stageThreshold>
  <weakClassifiers>
    <_>
      <internalNodes>
        0 -1 22366 -1.9016054272651672e-01</internalNodes>
      <leafValues>
        -3.8947367668151855e-01 7.3333334922790527e-01</leafValues></_>
    <_>
      <internalNodes>
        0 -1 23765 -3.8396231830120087e-02</internalNodes>
      <leafValues>
        5.7457351684570313e-01 -4.6364542841911316e-01</leafValues></_>
    <_>
      <internalNodes>
        0 -1 19649 1.4594370126724243e-01</internalNodes>
      <leafValues>
        -3.8940027356147766e-01 7.1430754661560059e-01</leafValues></_>
    <_>
      <internalNodes>
        0 -1 23361 6.1425436288118362e-03</internalNodes>
      <leafValues>
        -8.7012380361557007e-01 3.0361548066139221e-01</leafValues></_>
    <_>
      <internalNodes>
        0 -1 8512 -3.7987306714057922e-03</internalNodes>
      <leafValues>
        3.1209489703178406e-01 -6.1962246894836426e-01</leafValues></_>
    <_>
      <internalNodes>
        0 -1 45094 -7.2671435773372650e-03</internalNodes>
      <leafValues>
        2.3691314458847046e-01 -6.8787133693695068e-01</leafValues></_>
    <_>
      <internalNodes>
        0 -1 51144 7.7731506898999214e-03</internalNodes>
      <leafValues>
        -4.6198323369026184e-01 3.9743909239768982e-01</leafValues></_></weakClassifiers></stage5>
</opencv_storage>
