<?xml version="1.0"?>
<opencv_storage>
<cascade>
  <stageType>BOOST</stageType>
  <featureType>HAAR</featureType>
  <height>18</height>
  <width>18</width>
  <stageParams>
    <boostType>GAB</boostType>
    <minHitRate>9.9500000476837158e-01</minHitRate>
    <maxFalseAlarm>5.0000000000000000e-01</maxFalseAlarm>
    <weightTrimRate>9.4999999999999996e-01</weightTrimRate>
    <maxDepth>1</maxDepth>
    <maxWeakCount>100</maxWeakCount></stageParams>
  <featureParams>
    <maxCatCount>0</maxCatCount>
    <featSize>1</featSize>
    <mode>BASIC</mode></featureParams>
  <stageNum>10</stageNum>
  <stages>
    <!-- stage 0 -->
    <_>
      <maxWeakCount>3</maxWeakCount>
      <stageThreshold>-6.9132804870605469e-01</stageThreshold>
      <weakClassifiers>
        <_>
          <internalNodes>
            0 -1 18 1.9867002964019775e-02</internalNodes>
          <leafValues>
            -7.4209243059158325e-01 8.9353615045547485e-01</leafValues></_>
        <_>
          <internalNodes>
            0 -1 60 -1.5627121552824974e-02</internalNodes>
          <leafValues>
            7.6633107662200928e-01 -7.5848597288131714e-01</leafValues></_>
        <_>
          <internalNodes>
            0 -1 73 6.6661182790994644e-03</internalNodes>
          <leafValues>
            -6.7811304330825806e-01 8.0925035476684570e-01</leafValues></_></weakClassifiers></_>
    <!-- stage 1 -->
    <_>
      <maxWeakCount>5</maxWeakCount>
      <stageThreshold>-7.4865263700485229e-01</stageThreshold>
      <weakClassifiers>
        <_>
          <internalNodes>
            0 -1 34 4.2588184587657452e-03</internalNodes>
          <leafValues>
            -7.5937497615814209e-01 7.3068183660507202e-01</leafValues></_>
        <_>
          <internalNodes>
            0 -1 50 2.8612386435270309e-02</internalNodes>
          <leafValues>
            -4.9447503685951233e-01 7.5020134449005127e-01</leafValues></_>
        <_>
          <internalNodes>
            0 -1 0 -8.4166759625077248e-03</internalNodes>
          <leafValues>
            8.2744276523590088e-01 -4.8215994238853455e-01</leafValues></_>
        <_>
          <internalNodes>
            0 -1 66 -1.7755788564682007e-01</internalNodes>
          <leafValues>
            -9.7728389501571655e-01 4.1337177157402039e-01</leafValues></_>
        <_>
          <internalNodes>
            0 -1 53 -3.0503328889608383e-02</internalNodes>
          <leafValues>
            5.7398557662963867e-01 -6.1492276191711426e-01</leafValues></_></weakClassifiers></_>
    <!-- stage 2 -->
    <_>
      <maxWeakCount>5</maxWeakCount>
      <stageThreshold>-4.8795765638351440e-01</stageThreshold>
      <weakClassifiers>
        <_>
          <internalNodes>
            0 -1 51 2.7711983770132065e-02</internalNodes>
          <leafValues>
            -5.5863809585571289e-01 7.7349096536636353e-01</leafValues></_>
        <_>
          <internalNodes>
            0 -1 7 -5.5033959448337555e-02</internalNodes>
          <leafValues>
            6.6588211059570313e-01 -4.6207347512245178e-01</leafValues></_>
        <_>
          <internalNodes>
            0 -1 16 3.8296461105346680e-02</internalNodes>
          <leafValues>
            -2.9492244124412537e-01 8.5994768142700195e-01</leafValues></_>
        <_>
          <internalNodes>
            0 -1 79 1.6170309390872717e-03</internalNodes>
          <leafValues>
            -5.5166518688201904e-01 5.5548709630966187e-01</leafValues></_>
        <_>
          <internalNodes>
            0 -1 27 2.3945844732224941e-03</internalNodes>
          <leafValues>
            -9.0587770938873291e-01 2.7218925952911377e-01</leafValues></_></weakClassifiers></_>
    <!-- stage 3 -->
    <_>
      <maxWeakCount>3</maxWeakCount>
      <stageThreshold>-9.3240523338317871e-01</stageThreshold>
      <weakClassifiers>
        <_>
          <internalNodes>
            0 -1 38 -3.0955064296722412e-01</internalNodes>
          <leafValues>
            -8.9328742027282715e-01 7.2512370347976685e-01</leafValues></_>
        <_>
          <internalNodes>
            0 -1 50 3.3684030175209045e-02</internalNodes>
          <leafValues>
            -3.9774128794670105e-01 6.9251531362533569e-01</leafValues></_>
        <_>
          <internalNodes>
            0 -1 22 -1.3193137943744659e-01</internalNodes>
          <leafValues>
            -7.3163312673568726e-01 3.9285960793495178e-01</leafValues></_></weakClassifiers></_>
    <!-- stage 4 -->
    <_>
      <maxWeakCount>7</maxWeakCount>
      <stageThreshold>-1.0251863002777100e+00</stageThreshold>
      <weakClassifiers>
        <_>
          <internalNodes>
            0 -1 13 -3.9353430271148682e-01</internalNodes>
          <leafValues>
            -7.2038835287094116e-01 6.2122017145156860e-01</leafValues></_>
        <_>
          <internalNodes>
            0 -1 63 -7.2164118289947510e-02</internalNodes>
          <leafValues>
            -4.6615177392959595e-01 5.8780378103256226e-01</leafValues></_>
        <_>
          <internalNodes>
            0 -1 2 -1.1246399022638798e-02</internalNodes>
          <leafValues>
            5.9939134120941162e-01 -4.4155144691467285e-01</leafValues></_>
        <_>
          <internalNodes>
            0 -1 71 -1.2289524078369141e-02</internalNodes>
          <leafValues>
            6.1074364185333252e-01 -3.8303270936012268e-01</leafValues></_>
        <_>
          <internalNodes>
            0 -1 19 -3.3407034352421761e-03</internalNodes>
          <leafValues>
            4.3579351902008057e-01 -5.7913088798522949e-01</leafValues></_>
        <_>
          <internalNodes>
            0 -1 32 1.6108483076095581e-02</internalNodes>
          <leafValues>
            2.5897601246833801e-01 -8.8468879461288452e-01</leafValues></_>
        <_>
          <internalNodes>
            0 -1 21 1.9716430455446243e-02</internalNodes>
          <leafValues>
            -7.5235313177108765e-01 2.6515001058578491e-01</leafValues></_></weakClassifiers></_>
    <!-- stage 5 -->
    <_>
      <maxWeakCount>11</maxWeakCount>
      <stageThreshold>-1.0726464986801147e+00</stageThreshold>
      <weakClassifiers>
        <_>
          <internalNodes>
            0 -1 11 -8.2244455814361572e-02</internalNodes>
          <leafValues>
            7.9180890321731567e-01 -1.0423452407121658e-01</leafValues></_>
        <_>
          <internalNodes>
            0 -1 56 2.2702798247337341e-02</internalNodes>
          <leafValues>
            -2.7568352222442627e-01 6.9807612895965576e-01</leafValues></_>
        <_>
          <internalNodes>
            0 -1 68 3.9274262962862849e-04</internalNodes>
          <leafValues>
            -6.1389684677124023e-01 3.2913261651992798e-01</leafValues></_>
        <_>
          <internalNodes>
            0 -1 61 -5.2572935819625854e-03</internalNodes>
          <leafValues>
            2.1330545842647552e-01 -7.3924094438552856e-01</leafValues></_>
        <_>
          <internalNodes>
            0 -1 4 -2.7309410274028778e-02</internalNodes>
          <leafValues>
            4.6419095993041992e-01 -3.6718833446502686e-01</leafValues></_>
        <_>
          <internalNodes>
            0 -1 42 4.9013929674401879e-04</internalNodes>
          <leafValues>
            -7.5299859046936035e-01 2.3571851849555969e-01</leafValues></_>
        <_>
          <internalNodes>
            0 -1 47 -3.6896847188472748e-02</internalNodes>
          <leafValues>
            6.1094975471496582e-01 -2.4395206570625305e-01</leafValues></_>
        <_>
          <internalNodes>
            0 -1 41 2.1794717758893967e-02</internalNodes>
          <leafValues>
            -4.6560460329055786e-01 3.7036162614822388e-01</leafValues></_>
        <_>
          <internalNodes>
            0 -1 24 -2.3243218660354614e-01</internalNodes>
          <leafValues>
            -6.0845798254013062e-01 2.1336816251277924e-01</leafValues></_>
        <_>
          <internalNodes>
            0 -1 76 1.0190010070800781e-03</internalNodes>
          <leafValues>
            -4.3740898370742798e-01 2.4139219522476196e-01</leafValues></_>
        <_>
          <internalNodes>
            0 -1 44 -2.3999502882361412e-03</internalNodes>
          <leafValues>
            2.5146681070327759e-01 -4.7718125581741333e-01</leafValues></_></weakClassifiers></_>
    <!-- stage 6 -->
    <_>
      <maxWeakCount>11</maxWeakCount>
      <stageThreshold>-7.9985654354095459e-01</stageThreshold>
      <weakClassifiers>
        <_>
          <internalNodes>
            0 -1 65 -2.7234735898673534e-03</internalNodes>
          <leafValues>
            6.2339180707931519e-01 -3.8550725579261780e-01</leafValues></_>
        <_>
          <internalNodes>
            0 -1 12 -1.0224252939224243e-01</internalNodes>
          <leafValues>
            6.2258261442184448e-01 -3.0181607604026794e-01</leafValues></_>
        <_>
          <internalNodes>
            0 -1 74 -3.1565933022648096e-03</internalNodes>
          <leafValues>
            4.9999898672103882e-01 -3.2971173524856567e-01</leafValues></_>
        <_>
          <internalNodes>
            0 -1 17 5.0214715301990509e-02</internalNodes>
          <leafValues>
            2.0639854669570923e-01 -7.9546743631362915e-01</leafValues></_>
        <_>
          <internalNodes>
            0 -1 78 4.5282565988600254e-03</internalNodes>
          <leafValues>
            -4.7423264384269714e-01 3.0794605612754822e-01</leafValues></_>
        <_>
          <internalNodes>
            0 -1 15 9.9369585514068604e-03</internalNodes>
          <leafValues>
            -7.2320109605789185e-01 1.8970993161201477e-01</leafValues></_>
        <_>
          <internalNodes>
            0 -1 20 4.2513690888881683e-02</internalNodes>
          <leafValues>
            1.3561153411865234e-01 -8.1756037473678589e-01</leafValues></_>
        <_>
          <internalNodes>
            0 -1 33 1.8929236102849245e-04</internalNodes>
          <leafValues>
            -8.2462155818939209e-01 1.4984138309955597e-01</leafValues></_>
        <_>
          <internalNodes>
            0 -1 23 9.8066106438636780e-02</internalNodes>
          <leafValues>
            -2.2809755802154541e-01 6.8443846702575684e-01</leafValues></_>
        <_>
          <internalNodes>
            0 -1 8 1.3879214413464069e-02</internalNodes>
          <leafValues>
            -2.7574676275253296e-01 5.7810008525848389e-01</leafValues></_>
        <_>
          <internalNodes>
            0 -1 45 -3.7907034158706665e-02</internalNodes>
          <leafValues>
            8.1565725803375244e-01 -1.3076543807983398e-01</leafValues></_></weakClassifiers></_>
    <!-- stage 7 -->
    <_>
      <maxWeakCount>13</maxWeakCount>
      <stageThreshold>-1.1506079435348511e+00</stageThreshold>
      <weakClassifiers>
        <_>
          <internalNodes>
            0 -1 10 -2.9710219241678715e-03</internalNodes>
          <leafValues>
            6.7500001192092896e-01 -1.1346153914928436e-01</leafValues></_>
        <_>
          <internalNodes>
            0 -1 70 2.6949578896164894e-03</internalNodes>
          <leafValues>
            -5.1649457216262817e-01 3.2055750489234924e-01</leafValues></_>
        <_>
          <internalNodes>
            0 -1 1 -9.2499088495969772e-03</internalNodes>
          <leafValues>
            4.4415572285652161e-01 -3.8625922799110413e-01</leafValues></_>
        <_>
          <internalNodes>
            0 -1 28 -8.1466346979141235e-02</internalNodes>
          <leafValues>
            -7.0186960697174072e-01 2.1900981664657593e-01</leafValues></_>
        <_>
          <internalNodes>
            0 -1 59 -1.3613130897283554e-02</internalNodes>
          <leafValues>
            1.8189384043216705e-01 -6.3898026943206787e-01</leafValues></_>
        <_>
          <internalNodes>
            0 -1 6 -2.8284206986427307e-02</internalNodes>
          <leafValues>
            2.7810558676719666e-01 -4.0277844667434692e-01</leafValues></_>
        <_>
          <internalNodes>
            0 -1 37 1.5617607161402702e-02</internalNodes>
          <leafValues>
            -2.0129737257957458e-01 8.1143242120742798e-01</leafValues></_>
        <_>
          <internalNodes>
            0 -1 43 -1.1854010517708957e-04</internalNodes>
          <leafValues>
            -8.5156196355819702e-01 1.8559119105339050e-01</leafValues></_>
        <_>
          <internalNodes>
            0 -1 45 -4.0625035762786865e-02</internalNodes>
          <leafValues>
            6.9153839349746704e-01 -1.8000845611095428e-01</leafValues></_>
        <_>
          <internalNodes>
            0 -1 29 -3.3611543476581573e-03</internalNodes>
          <leafValues>
            -5.6763160228729248e-01 2.3675188422203064e-01</leafValues></_>
        <_>
          <internalNodes>
            0 -1 49 -1.3987049460411072e-02</internalNodes>
          <leafValues>
            6.0780984163284302e-01 -1.8125219643115997e-01</leafValues></_>
        <_>
          <internalNodes>
            0 -1 40 1.0249775834381580e-02</internalNodes>
          <leafValues>
            -1.6576056182384491e-01 6.3481277227401733e-01</leafValues></_>
        <_>
          <internalNodes>
            0 -1 39 -3.0348837375640869e-02</internalNodes>
          <leafValues>
            -8.0655163526535034e-01 1.7345772683620453e-01</leafValues></_></weakClassifiers></_>
    <!-- stage 8 -->
    <_>
      <maxWeakCount>12</maxWeakCount>
      <stageThreshold>-1.0663598775863647e+00</stageThreshold>
      <weakClassifiers>
        <_>
          <internalNodes>
            0 -1 73 1.4509625732898712e-02</internalNodes>
          <leafValues>
            -1.9085714221000671e-01 6.3409835100173950e-01</leafValues></_>
        <_>
          <internalNodes>
            0 -1 64 2.0680984482169151e-02</internalNodes>
          <leafValues>
            -2.6759117841720581e-01 5.7478469610214233e-01</leafValues></_>
        <_>
          <internalNodes>
            0 -1 5 -2.2928470745682716e-02</internalNodes>
          <leafValues>
            4.5322465896606445e-01 -2.9188683629035950e-01</leafValues></_>
        <_>
          <internalNodes>
            0 -1 54 -3.7094943225383759e-02</internalNodes>
          <leafValues>
            -6.3327646255493164e-01 2.2301168739795685e-01</leafValues></_>
        <_>
          <internalNodes>
            0 -1 48 1.4536863192915916e-02</internalNodes>
          <leafValues>
            1.3076736032962799e-01 -7.9384082555770874e-01</leafValues></_>
        <_>
          <internalNodes>
            0 -1 72 -9.2157190665602684e-03</internalNodes>
          <leafValues>
            5.5568581819534302e-01 -2.8488320112228394e-01</leafValues></_>
        <_>
          <internalNodes>
            0 -1 69 1.3193744234740734e-04</internalNodes>
          <leafValues>
            3.2550245523452759e-01 -4.0295931696891785e-01</leafValues></_>
        <_>
          <internalNodes>
            0 -1 46 -5.2535645663738251e-02</internalNodes>
          <leafValues>
            -7.8489267826080322e-01 1.1646229028701782e-01</leafValues></_>
        <_>
          <internalNodes>
            0 -1 30 -3.5078279674053192e-02</internalNodes>
          <leafValues>
            7.3848843574523926e-01 -1.8094520270824432e-01</leafValues></_>
        <_>
          <internalNodes>
            0 -1 25 5.7839035987854004e-02</internalNodes>
          <leafValues>
            -1.8610139191150665e-01 6.3640546798706055e-01</leafValues></_>
        <_>
          <internalNodes>
            0 -1 31 1.2387983733788133e-03</internalNodes>
          <leafValues>
            -5.8530551195144653e-01 1.9010038673877716e-01</leafValues></_>
        <_>
          <internalNodes>
            0 -1 52 -4.2961752042174339e-03</internalNodes>
          <leafValues>
            -8.7950712442398071e-01 1.0881701856851578e-01</leafValues></_></weakClassifiers></_>
    <!-- stage 9 -->
    <_>
      <maxWeakCount>14</maxWeakCount>
      <stageThreshold>-1.1976902484893799e+00</stageThreshold>
      <weakClassifiers>
        <_>
          <internalNodes>
            0 -1 58 1.0218608658760786e-03</internalNodes>
          <leafValues>
            -2.8471249341964722e-01 5.9454655647277832e-01</leafValues></_>
        <_>
          <internalNodes>
            0 -1 36 3.4037768840789795e-02</internalNodes>
          <leafValues>
            -2.0944742858409882e-01 5.6356805562973022e-01</leafValues></_>
        <_>
          <internalNodes>
            0 -1 62 -2.0214296877384186e-02</internalNodes>
          <leafValues>
            2.4525275826454163e-01 -5.3523904085159302e-01</leafValues></_>
        <_>
          <internalNodes>
            0 -1 3 4.7708535566926003e-03</internalNodes>
          <leafValues>
            -2.5373581051826477e-01 4.8396486043930054e-01</leafValues></_>
        <_>
          <internalNodes>
            0 -1 9 -3.8886936381459236e-03</internalNodes>
          <leafValues>
            3.2239291071891785e-01 -3.9025181531906128e-01</leafValues></_>
        <_>
          <internalNodes>
            0 -1 14 8.1106610596179962e-03</internalNodes>
          <leafValues>
            -7.9128342866897583e-01 1.3552591204643250e-01</leafValues></_>
        <_>
          <internalNodes>
            0 -1 35 2.7908904477953911e-02</internalNodes>
          <leafValues>
            1.0822072625160217e-01 -8.0353271961212158e-01</leafValues></_>
        <_>
          <internalNodes>
            0 -1 75 -2.7745040133595467e-03</internalNodes>
          <leafValues>
            5.7501834630966187e-01 -2.0319250226020813e-01</leafValues></_>
        <_>
          <internalNodes>
            0 -1 77 3.8573029451072216e-03</internalNodes>
          <leafValues>
            -2.8963595628738403e-01 3.3618849515914917e-01</leafValues></_>
        <_>
          <internalNodes>
            0 -1 67 2.7205559890717268e-03</internalNodes>
          <leafValues>
            -3.3908098936080933e-01 3.2515755295753479e-01</leafValues></_>
        <_>
          <internalNodes>
            0 -1 57 -9.8523139953613281e-02</internalNodes>
          <leafValues>
            -7.5175946950912476e-01 1.2057655304670334e-01</leafValues></_>
        <_>
          <internalNodes>
            0 -1 55 1.3383645564317703e-02</internalNodes>
          <leafValues>
            1.1416262388229370e-01 -7.5466406345367432e-01</leafValues></_>
        <_>
          <internalNodes>
            0 -1 49 5.4931971244513988e-03</internalNodes>
          <leafValues>
            -2.2282402217388153e-01 4.9143600463867188e-01</leafValues></_>
        <_>
          <internalNodes>
            0 -1 26 5.1557202823460102e-04</internalNodes>
          <leafValues>
            2.4910484254360199e-01 -4.9155357480049133e-01</leafValues></_></weakClassifiers></_></stages>
  <features>
    <_>
      <rects>
        <_>
          0 2 2 12 -1.</_>
        <_>
          1 2 1 12 2.</_></rects>
      <tilted>0</tilted></_>
    <_>
      <rects>
        <_>
          0 4 2 8 -1.</_>
        <_>
          1 4 1 8 2.</_></rects>
      <tilted>0</tilted></_>
    <_>
      <rects>
        <_>
          0 4 2 11 -1.</_>
        <_>
          1 4 1 11 2.</_></rects>
      <tilted>0</tilted></_>
    <_>
      <rects>
        <_>
          0 5 2 6 -1.</_>
        <_>
          0 5 1 3 2.</_>
        <_>
          1 8 1 3 2.</_></rects>
      <tilted>0</tilted></_>
    <_>
      <rects>
        <_>
          0 8 4 5 -1.</_>
        <_>
          2 8 2 5 2.</_></rects>
      <tilted>0</tilted></_>
    <_>
      <rects>
        <_>
          0 9 4 5 -1.</_>
        <_>
          2 9 2 5 2.</_></rects>
      <tilted>0</tilted></_>
    <_>
      <rects>
        <_>
          1 0 12 6 -1.</_>
        <_>
          1 3 12 3 2.</_></rects>
      <tilted>0</tilted></_>
    <_>
      <rects>
        <_>
          1 0 17 6 -1.</_>
        <_>
          1 3 17 3 2.</_></rects>
      <tilted>0</tilted></_>
    <_>
      <rects>
        <_>
          1 4 13 2 -1.</_>
        <_>
          1 5 13 1 2.</_></rects>
      <tilted>0</tilted></_>
    <_>
      <rects>
        <_>
          1 9 2 4 -1.</_>
        <_>
          2 9 1 4 2.</_></rects>
      <tilted>0</tilted></_>
    <_>
      <rects>
        <_>
          1 10 4 1 -1.</_>
        <_>
          3 10 2 1 2.</_></rects>
      <tilted>0</tilted></_>
    <_>
      <rects>
        <_>
          2 0 13 6 -1.</_>
        <_>
          2 3 13 3 2.</_></rects>
      <tilted>0</tilted></_>
    <_>
      <rects>
        <_>
          2 0 14 6 -1.</_>
        <_>
          2 3 14 3 2.</_></rects>
      <tilted>0</tilted></_>
    <_>
      <rects>
        <_>
          2 4 15 9 -1.</_>
        <_>
          7 4 5 9 2.</_></rects>
      <tilted>0</tilted></_>
    <_>
      <rects>
        <_>
          2 9 10 1 -1.</_>
        <_>
          7 9 5 1 2.</_></rects>
      <tilted>0</tilted></_>
    <_>
      <rects>
        <_>
          2 9 12 2 -1.</_>
        <_>
          8 9 6 2 2.</_></rects>
      <tilted>0</tilted></_>
    <_>
      <rects>
        <_>
          3 3 9 4 -1.</_>
        <_>
          3 5 9 2 2.</_></rects>
      <tilted>0</tilted></_>
    <_>
      <rects>
        <_>
          3 5 14 7 -1.</_>
        <_>
          10 5 7 7 2.</_></rects>
      <tilted>0</tilted></_>
    <_>
      <rects>
        <_>
          3 6 6 5 -1.</_>
        <_>
          6 6 3 5 2.</_></rects>
      <tilted>0</tilted></_>
    <_>
      <rects>
        <_>
          3 7 3 4 -1.</_>
        <_>
          3 9 3 2 2.</_></rects>
      <tilted>0</tilted></_>
    <_>
      <rects>
        <_>
          3 7 6 3 -1.</_>
        <_>
          6 7 3 3 2.</_></rects>
      <tilted>0</tilted></_>
    <_>
      <rects>
        <_>
          3 7 10 5 -1.</_>
        <_>
          8 7 5 5 2.</_></rects>
      <tilted>0</tilted></_>
    <_>
      <rects>
        <_>
          3 8 15 3 -1.</_>
        <_>
          8 8 5 3 2.</_></rects>
      <tilted>0</tilted></_>
    <_>
      <rects>
        <_>
          3 12 15 6 -1.</_>
        <_>
          3 15 15 3 2.</_></rects>
      <tilted>0</tilted></_>
    <_>
      <rects>
        <_>
          4 2 9 8 -1.</_>
        <_>
          7 2 3 8 2.</_></rects>
      <tilted>0</tilted></_>
    <_>
      <rects>
        <_>
          4 3 9 4 -1.</_>
        <_>
          4 5 9 2 2.</_></rects>
      <tilted>0</tilted></_>
    <_>
      <rects>
        <_>
          4 8 1 4 -1.</_>
        <_>
          4 10 1 2 2.</_></rects>
      <tilted>0</tilted></_>
    <_>
      <rects>
        <_>
          4 8 4 2 -1.</_>
        <_>
          6 8 2 2 2.</_></rects>
      <tilted>0</tilted></_>
    <_>
      <rects>
        <_>
          4 12 12 2 -1.</_>
        <_>
          8 12 4 2 2.</_></rects>
      <tilted>0</tilted></_>
    <_>
      <rects>
        <_>
          5 3 3 8 -1.</_>
        <_>
          5 7 3 4 2.</_></rects>
      <tilted>0</tilted></_>
    <_>
      <rects>
        <_>
          5 3 7 4 -1.</_>
        <_>
          5 5 7 2 2.</_></rects>
      <tilted>0</tilted></_>
    <_>
      <rects>
        <_>
          5 5 2 5 -1.</_>
        <_>
          6 5 1 5 2.</_></rects>
      <tilted>0</tilted></_>
    <_>
      <rects>
        <_>
          5 7 12 4 -1.</_>
        <_>
          11 7 6 4 2.</_></rects>
      <tilted>0</tilted></_>
    <_>
      <rects>
        <_>
          5 9 2 2 -1.</_>
        <_>
          6 9 1 2 2.</_></rects>
      <tilted>0</tilted></_>
    <_>
      <rects>
        <_>
          5 9 4 2 -1.</_>
        <_>
          7 9 2 2 2.</_></rects>
      <tilted>0</tilted></_>
    <_>
      <rects>
        <_>
          5 9 8 2 -1.</_>
        <_>
          9 9 4 2 2.</_></rects>
      <tilted>0</tilted></_>
    <_>
      <rects>
        <_>
          5 14 12 4 -1.</_>
        <_>
          5 16 12 2 2.</_></rects>
      <tilted>0</tilted></_>
    <_>
      <rects>
        <_>
          6 3 6 2 -1.</_>
        <_>
          6 4 6 1 2.</_></rects>
      <tilted>0</tilted></_>
    <_>
      <rects>
        <_>
          6 3 7 12 -1.</_>
        <_>
          6 7 7 4 2.</_></rects>
      <tilted>0</tilted></_>
    <_>
      <rects>
        <_>
          6 4 6 10 -1.</_>
        <_>
          9 4 3 10 2.</_></rects>
      <tilted>0</tilted></_>
    <_>
      <rects>
        <_>
          6 4 12 2 -1.</_>
        <_>
          6 4 6 1 2.</_>
        <_>
          12 5 6 1 2.</_></rects>
      <tilted>0</tilted></_>
    <_>
      <rects>
        <_>
          6 4 8 4 -1.</_>
        <_>
          6 6 8 2 2.</_></rects>
      <tilted>0</tilted></_>
    <_>
      <rects>
        <_>
          6 7 2 4 -1.</_>
        <_>
          7 7 1 4 2.</_></rects>
      <tilted>0</tilted></_>
    <_>
      <rects>
        <_>
          6 8 2 2 -1.</_>
        <_>
          7 8 1 2 2.</_></rects>
      <tilted>0</tilted></_>
    <_>
      <rects>
        <_>
          6 10 2 4 -1.</_>
        <_>
          6 12 2 2 2.</_></rects>
      <tilted>0</tilted></_>
    <_>
      <rects>
        <_>
          7 3 6 4 -1.</_>
        <_>
          7 5 6 2 2.</_></rects>
      <tilted>0</tilted></_>
    <_>
      <rects>
        <_>
          7 3 6 12 -1.</_>
        <_>
          7 9 6 6 2.</_></rects>
      <tilted>0</tilted></_>
    <_>
      <rects>
        <_>
          7 3 10 4 -1.</_>
        <_>
          7 5 10 2 2.</_></rects>
      <tilted>0</tilted></_>
    <_>
      <rects>
        <_>
          7 4 6 6 -1.</_>
        <_>
          10 4 3 6 2.</_></rects>
      <tilted>0</tilted></_>
    <_>
      <rects>
        <_>
          7 4 8 2 -1.</_>
        <_>
          7 4 4 1 2.</_>
        <_>
          11 5 4 1 2.</_></rects>
      <tilted>0</tilted></_>
    <_>
      <rects>
        <_>
          7 4 7 4 -1.</_>
        <_>
          7 6 7 2 2.</_></rects>
      <tilted>0</tilted></_>
    <_>
      <rects>
        <_>
          7 4 7 6 -1.</_>
        <_>
          7 7 7 3 2.</_></rects>
      <tilted>0</tilted></_>
    <_>
      <rects>
        <_>
          7 8 4 1 -1.</_>
        <_>
          9 8 2 1 2.</_></rects>
      <tilted>0</tilted></_>
    <_>
      <rects>
        <_>
          8 2 8 13 -1.</_>
        <_>
          12 2 4 13 2.</_></rects>
      <tilted>0</tilted></_>
    <_>
      <rects>
        <_>
          8 3 1 12 -1.</_>
        <_>
          8 7 1 4 2.</_></rects>
      <tilted>0</tilted></_>
    <_>
      <rects>
        <_>
          8 4 4 9 -1.</_>
        <_>
          10 4 2 9 2.</_></rects>
      <tilted>0</tilted></_>
    <_>
      <rects>
        <_>
          9 3 4 4 -1.</_>
        <_>
          9 5 4 2 2.</_></rects>
      <tilted>0</tilted></_>
    <_>
      <rects>
        <_>
          10 5 6 4 -1.</_>
        <_>
          12 5 2 4 2.</_></rects>
      <tilted>0</tilted></_>
    <_>
      <rects>
        <_>
          10 6 4 4 -1.</_>
        <_>
          10 6 2 2 2.</_>
        <_>
          12 8 2 2 2.</_></rects>
      <tilted>0</tilted></_>
    <_>
      <rects>
        <_>
          10 7 6 3 -1.</_>
        <_>
          13 7 3 3 2.</_></rects>
      <tilted>0</tilted></_>
    <_>
      <rects>
        <_>
          10 7 6 5 -1.</_>
        <_>
          13 7 3 5 2.</_></rects>
      <tilted>0</tilted></_>
    <_>
      <rects>
        <_>
          10 8 6 2 -1.</_>
        <_>
          13 8 3 2 2.</_></rects>
      <tilted>0</tilted></_>
    <_>
      <rects>
        <_>
          10 8 6 5 -1.</_>
        <_>
          13 8 3 5 2.</_></rects>
      <tilted>0</tilted></_>
    <_>
      <rects>
        <_>
          11 3 3 12 -1.</_>
        <_>
          11 7 3 4 2.</_></rects>
      <tilted>0</tilted></_>
    <_>
      <rects>
        <_>
          11 4 3 4 -1.</_>
        <_>
          11 6 3 2 2.</_></rects>
      <tilted>0</tilted></_>
    <_>
      <rects>
        <_>
          11 10 4 4 -1.</_>
        <_>
          11 12 4 2 2.</_></rects>
      <tilted>0</tilted></_>
    <_>
      <rects>
        <_>
          12 5 3 13 -1.</_>
        <_>
          13 5 1 13 2.</_></rects>
      <tilted>0</tilted></_>
    <_>
      <rects>
        <_>
          12 6 2 2 -1.</_>
        <_>
          12 7 2 1 2.</_></rects>
      <tilted>0</tilted></_>
    <_>
      <rects>
        <_>
          12 7 2 2 -1.</_>
        <_>
          12 8 2 1 2.</_></rects>
      <tilted>0</tilted></_>
    <_>
      <rects>
        <_>
          12 8 5 4 -1.</_>
        <_>
          12 10 5 2 2.</_></rects>
      <tilted>0</tilted></_>
    <_>
      <rects>
        <_>
          13 5 1 6 -1.</_>
        <_>
          13 8 1 3 2.</_></rects>
      <tilted>0</tilted></_>
    <_>
      <rects>
        <_>
          13 6 4 6 -1.</_>
        <_>
          13 6 2 3 2.</_>
        <_>
          15 9 2 3 2.</_></rects>
      <tilted>0</tilted></_>
    <_>
      <rects>
        <_>
          14 3 1 6 -1.</_>
        <_>
          14 6 1 3 2.</_></rects>
      <tilted>0</tilted></_>
    <_>
      <rects>
        <_>
          14 4 4 5 -1.</_>
        <_>
          16 4 2 5 2.</_></rects>
      <tilted>0</tilted></_>
    <_>
      <rects>
        <_>
          14 7 2 4 -1.</_>
        <_>
          14 7 1 2 2.</_>
        <_>
          15 9 1 2 2.</_></rects>
      <tilted>0</tilted></_>
    <_>
      <rects>
        <_>
          14 12 2 1 -1.</_>
        <_>
          15 12 1 1 2.</_></rects>
      <tilted>0</tilted></_>
    <_>
      <rects>
        <_>
          15 5 2 5 -1.</_>
        <_>
          16 5 1 5 2.</_></rects>
      <tilted>0</tilted></_>
    <_>
      <rects>
        <_>
          15 7 2 7 -1.</_>
        <_>
          16 7 1 7 2.</_></rects>
      <tilted>0</tilted></_>
    <_>
      <rects>
        <_>
          16 5 2 9 -1.</_>
        <_>
          17 5 1 9 2.</_></rects>
      <tilted>0</tilted></_>
    <_>
      <rects>
        <_>
          16 8 2 4 -1.</_>
        <_>
          17 8 1 4 2.</_></rects>
      <tilted>0</tilted></_></features></cascade>
</opencv_storage>
