<?xml version="1.0"?>
<opencv_storage>
<stage6>
  <maxWeakCount>11</maxWeakCount>
  <stageThreshold>-7.9985654354095459e-01</stageThreshold>
  <weakClassifiers>
    <_>
      <internalNodes>
        0 -1 45479 -2.7234735898673534e-03</internalNodes>
      <leafValues>
        6.2339180707931519e-01 -3.8550725579261780e-01</leafValues></_>
    <_>
      <internalNodes>
        0 -1 11290 -1.0224252939224243e-01</internalNodes>
      <leafValues>
        6.2258261442184448e-01 -3.0181607604026794e-01</leafValues></_>
    <_>
      <internalNodes>
        0 -1 49797 -3.1565933022648096e-03</internalNodes>
      <leafValues>
        4.9999898672103882e-01 -3.2971173524856567e-01</leafValues></_>
    <_>
      <internalNodes>
        0 -1 18222 5.0214715301990509e-02</internalNodes>
      <leafValues>
        2.0639854669570923e-01 -7.9546743631362915e-01</leafValues></_>
    <_>
      <internalNodes>
        0 -1 51328 4.5282565988600254e-03</internalNodes>
      <leafValues>
        -4.7423264384269714e-01 3.0794605612754822e-01</leafValues></_>
    <_>
      <internalNodes>
        0 -1 14660 9.9369585514068604e-03</internalNodes>
      <leafValues>
        -7.2320109605789185e-01 1.8970993161201477e-01</leafValues></_>
    <_>
      <internalNodes>
        0 -1 18725 4.2513690888881683e-02</internalNodes>
      <leafValues>
        1.3561153411865234e-01 -8.1756037473678589e-01</leafValues></_>
    <_>
      <internalNodes>
        0 -1 27594 1.8929236102849245e-04</internalNodes>
      <leafValues>
        -8.2462155818939209e-01 1.4984138309955597e-01</leafValues></_>
    <_>
      <internalNodes>
        0 -1 20009 9.8066106438636780e-02</internalNodes>
      <leafValues>
        -2.2809755802154541e-01 6.8443846702575684e-01</leafValues></_>
    <_>
      <internalNodes>
        0 -1 8055 1.3879214413464069e-02</internalNodes>
      <leafValues>
        -2.7574676275253296e-01 5.7810008525848389e-01</leafValues></_>
    <_>
      <internalNodes>
        0 -1 33556 -3.7907034158706665e-02</internalNodes>
      <leafValues>
        8.1565725803375244e-01 -1.3076543807983398e-01</leafValues></_></weakClassifiers></stage6>
</opencv_storage>
