<?xml version="1.0"?>
<opencv_storage>
<stage9>
  <maxWeakCount>14</maxWeakCount>
  <stageThreshold>-1.1976902484893799e+00</stageThreshold>
  <weakClassifiers>
    <_>
      <internalNodes>
        0 -1 42761 1.0218608658760786e-03</internalNodes>
      <leafValues>
        -2.8471249341964722e-01 5.9454655647277832e-01</leafValues></_>
    <_>
      <internalNodes>
        0 -1 28460 3.4037768840789795e-02</internalNodes>
      <leafValues>
        -2.0944742858409882e-01 5.6356805562973022e-01</leafValues></_>
    <_>
      <internalNodes>
        0 -1 43119 -2.0214296877384186e-02</internalNodes>
      <leafValues>
        2.4525275826454163e-01 -5.3523904085159302e-01</leafValues></_>
    <_>
      <internalNodes>
        0 -1 2717 4.7708535566926003e-03</internalNodes>
      <leafValues>
        -2.5373581051826477e-01 4.8396486043930054e-01</leafValues></_>
    <_>
      <internalNodes>
        0 -1 9511 -3.8886936381459236e-03</internalNodes>
      <leafValues>
        3.2239291071891785e-01 -3.9025181531906128e-01</leafValues></_>
    <_>
      <internalNodes>
        0 -1 14627 8.1106610596179962e-03</internalNodes>
      <leafValues>
        -7.9128342866897583e-01 1.3552591204643250e-01</leafValues></_>
    <_>
      <internalNodes>
        0 -1 27681 2.7908904477953911e-02</internalNodes>
      <leafValues>
        1.0822072625160217e-01 -8.0353271961212158e-01</leafValues></_>
    <_>
      <internalNodes>
        0 -1 50101 -2.7745040133595467e-03</internalNodes>
      <leafValues>
        5.7501834630966187e-01 -2.0319250226020813e-01</leafValues></_>
    <_>
      <internalNodes>
        0 -1 50776 3.8573029451072216e-03</internalNodes>
      <leafValues>
        -2.8963595628738403e-01 3.3618849515914917e-01</leafValues></_>
    <_>
      <internalNodes>
        0 -1 46895 2.7205559890717268e-03</internalNodes>
      <leafValues>
        -3.3908098936080933e-01 3.2515755295753479e-01</leafValues></_>
    <_>
      <internalNodes>
        0 -1 42589 -9.8523139953613281e-02</internalNodes>
      <leafValues>
        -7.5175946950912476e-01 1.2057655304670334e-01</leafValues></_>
    <_>
      <internalNodes>
        0 -1 36878 1.3383645564317703e-02</internalNodes>
      <leafValues>
        1.1416262388229370e-01 -7.5466406345367432e-01</leafValues></_>
    <_>
      <internalNodes>
        0 -1 33767 5.4931971244513988e-03</internalNodes>
      <leafValues>
        -2.2282402217388153e-01 4.9143600463867188e-01</leafValues></_>
    <_>
      <internalNodes>
        0 -1 23329 5.1557202823460102e-04</internalNodes>
      <leafValues>
        2.4910484254360199e-01 -4.9155357480049133e-01</leafValues></_></weakClassifiers></stage9>
</opencv_storage>
