<?xml version="1.0"?>
<opencv_storage>
<stage7>
  <maxWeakCount>9</maxWeakCount>
  <stageThreshold>-9.2861509323120117e-01</stageThreshold>
  <weakClassifiers>
    <_>
      <internalNodes>
        0 -1 21688 -1.0283419862389565e-02</internalNodes>
      <leafValues>
        7.2038263082504272e-01 -1.7195004224777222e-01</leafValues></_>
    <_>
      <internalNodes>
        0 -1 35441 -3.6225274670869112e-03</internalNodes>
      <leafValues>
        6.5466237068176270e-01 -2.7381765842437744e-01</leafValues></_>
    <_>
      <internalNodes>
        0 -1 15622 3.2329082489013672e-02</internalNodes>
      <leafValues>
        -3.2801520824432373e-01 5.5323642492294312e-01</leafValues></_>
    <_>
      <internalNodes>
        0 -1 27826 -1.9570577424019575e-03</internalNodes>
      <leafValues>
        3.1661903858184814e-01 -5.4903149604797363e-01</leafValues></_>
    <_>
      <internalNodes>
        0 -1 50870 6.8142502568662167e-03</internalNodes>
      <leafValues>
        -2.5047901272773743e-01 6.3021504878997803e-01</leafValues></_>
    <_>
      <internalNodes>
        0 -1 34646 3.0803494155406952e-03</internalNodes>
      <leafValues>
        -8.0815142393112183e-01 2.0317772030830383e-01</leafValues></_>
    <_>
      <internalNodes>
        0 -1 22835 -7.3068216443061829e-04</internalNodes>
      <leafValues>
        -7.2980678081512451e-01 1.8299722671508789e-01</leafValues></_>
    <_>
      <internalNodes>
        0 -1 50733 -9.2429658398032188e-03</internalNodes>
      <leafValues>
        5.2516162395477295e-01 -3.1525388360023499e-01</leafValues></_>
    <_>
      <internalNodes>
        0 -1 2726 -8.5302311927080154e-03</internalNodes>
      <leafValues>
        5.7375729084014893e-01 -2.2429057955741882e-01</leafValues></_></weakClassifiers></stage7>
</opencv_storage>
