<?xml version="1.0"?>
<opencv_storage>
<stage8>
  <maxWeakCount>11</maxWeakCount>
  <stageThreshold>-8.8547509908676147e-01</stageThreshold>
  <weakClassifiers>
    <_>
      <internalNodes>
        0 -1 22015 -4.9109846353530884e-02</internalNodes>
      <leafValues>
        5.8038771152496338e-01 -3.3746129274368286e-01</leafValues></_>
    <_>
      <internalNodes>
        0 -1 35471 -1.0055901482701302e-02</internalNodes>
      <leafValues>
        6.9073122739791870e-01 -2.3537661135196686e-01</leafValues></_>
    <_>
      <internalNodes>
        0 -1 27624 -7.8851019497960806e-04</internalNodes>
      <leafValues>
        2.5577872991561890e-01 -7.6560944318771362e-01</leafValues></_>
    <_>
      <internalNodes>
        0 -1 3943 -2.2778842598199844e-02</internalNodes>
      <leafValues>
        6.2632739543914795e-01 -2.9353642463684082e-01</leafValues></_>
    <_>
      <internalNodes>
        0 -1 50346 -3.8677230477333069e-02</internalNodes>
      <leafValues>
        -4.8268073797225952e-01 3.5547092556953430e-01</leafValues></_>
    <_>
      <internalNodes>
        0 -1 31431 5.0689221825450659e-04</internalNodes>
      <leafValues>
        1.3489821553230286e-01 -8.5563588142395020e-01</leafValues></_>
    <_>
      <internalNodes>
        0 -1 43561 2.7776364237070084e-02</internalNodes>
      <leafValues>
        -1.8188253045082092e-01 7.8717714548110962e-01</leafValues></_>
    <_>
      <internalNodes>
        0 -1 24010 1.2221725191920996e-03</internalNodes>
      <leafValues>
        -3.1744357943534851e-01 3.9182588458061218e-01</leafValues></_>
    <_>
      <internalNodes>
        0 -1 51461 1.0520691052079201e-02</internalNodes>
      <leafValues>
        -2.2891421616077423e-01 5.8524125814437866e-01</leafValues></_>
    <_>
      <internalNodes>
        0 -1 31430 4.3223577085882425e-04</internalNodes>
      <leafValues>
        -8.4875267744064331e-01 1.8047298491001129e-01</leafValues></_>
    <_>
      <internalNodes>
        0 -1 14423 2.9938924312591553e-01</internalNodes>
      <leafValues>
        9.4637423753738403e-02 -9.2926454544067383e-01</leafValues></_></weakClassifiers></stage8>
</opencv_storage>
