<?xml version="1.0"?>
<opencv_storage>
<stage8>
  <maxWeakCount>13</maxWeakCount>
  <stageThreshold>-1.1329603195190430e+00</stageThreshold>
  <weakClassifiers>
    <_>
      <internalNodes>
        0 -1 17838 1.1911053955554962e-01</internalNodes>
      <leafValues>
        4.6473610401153564e-01 -7.5289577245712280e-01</leafValues></_>
    <_>
      <internalNodes>
        0 -1 10769 1.5074707567691803e-02</internalNodes>
      <leafValues>
        -2.5232163071632385e-01 6.1469846963882446e-01</leafValues></_>
    <_>
      <internalNodes>
        0 -1 15014 2.0113138016313314e-03</internalNodes>
      <leafValues>
        -2.8900450468063354e-01 4.5500349998474121e-01</leafValues></_>
    <_>
      <internalNodes>
        0 -1 48291 -1.5038147568702698e-02</internalNodes>
      <leafValues>
        4.4546285271644592e-01 -2.9916152358055115e-01</leafValues></_>
    <_>
      <internalNodes>
        0 -1 23329 -2.5085540983127430e-05</internalNodes>
      <leafValues>
        1.8794120848178864e-01 -6.6284191608428955e-01</leafValues></_>
    <_>
      <internalNodes>
        0 -1 2312 -2.3883804678916931e-02</internalNodes>
      <leafValues>
        4.8101687431335449e-01 -2.7788361907005310e-01</leafValues></_>
    <_>
      <internalNodes>
        0 -1 48658 3.0595771968364716e-03</internalNodes>
      <leafValues>
        1.2070604413747787e-01 -7.9813903570175171e-01</leafValues></_>
    <_>
      <internalNodes>
        0 -1 33521 3.8686129264533520e-03</internalNodes>
      <leafValues>
        -2.6280450820922852e-01 4.2775556445121765e-01</leafValues></_>
    <_>
      <internalNodes>
        0 -1 1756 -1.0821094736456871e-02</internalNodes>
      <leafValues>
        5.2433776855468750e-01 -1.8067137897014618e-01</leafValues></_>
    <_>
      <internalNodes>
        0 -1 23580 2.7308078642818145e-05</internalNodes>
      <leafValues>
        -5.2889710664749146e-01 1.8098855018615723e-01</leafValues></_>
    <_>
      <internalNodes>
        0 -1 49998 -1.1897762306034565e-03</internalNodes>
      <leafValues>
        3.4795325994491577e-01 -3.0014252662658691e-01</leafValues></_>
    <_>
      <internalNodes>
        0 -1 19210 -1.7247896641492844e-02</internalNodes>
      <leafValues>
        -7.6206308603286743e-01 1.4815494418144226e-01</leafValues></_>
    <_>
      <internalNodes>
        0 -1 9774 4.3302830308675766e-03</internalNodes>
      <leafValues>
        -2.2217999398708344e-01 5.5318069458007813e-01</leafValues></_></weakClassifiers></stage8>
</opencv_storage>
