<?xml version="1.0"?>
<opencv_storage>
<cascade>
  <stageType>BOOST</stageType>
  <featureType>HAAR</featureType>
  <height>18</height>
  <width>18</width>
  <stageParams>
    <boostType>GAB</boostType>
    <minHitRate>9.9500000476837158e-01</minHitRate>
    <maxFalseAlarm>5.0000000000000000e-01</maxFalseAlarm>
    <weightTrimRate>9.4999999999999996e-01</weightTrimRate>
    <maxDepth>1</maxDepth>
    <maxWeakCount>100</maxWeakCount></stageParams>
  <featureParams>
    <maxCatCount>0</maxCatCount>
    <featSize>1</featSize>
    <mode>BASIC</mode></featureParams>
  <stageNum>10</stageNum>
  <stages>
    <!-- stage 0 -->
    <_>
      <maxWeakCount>6</maxWeakCount>
      <stageThreshold>-5.9642529487609863e-01</stageThreshold>
      <weakClassifiers>
        <_>
          <internalNodes>
            0 -1 113 1.6239063814282417e-02</internalNodes>
          <leafValues>
            -2.6390114426612854e-01 8.6740332841873169e-01</leafValues></_>
        <_>
          <internalNodes>
            0 -1 35 1.7214015126228333e-02</internalNodes>
          <leafValues>
            -2.6203310489654541e-01 8.5888057947158813e-01</leafValues></_>
        <_>
          <internalNodes>
            0 -1 104 -5.9324260801076889e-03</internalNodes>
          <leafValues>
            8.4111654758453369e-01 -2.5766283273696899e-01</leafValues></_>
        <_>
          <internalNodes>
            0 -1 112 8.4127681329846382e-03</internalNodes>
          <leafValues>
            -2.7835372090339661e-01 7.2543233633041382e-01</leafValues></_>
        <_>
          <internalNodes>
            0 -1 51 -1.3217541575431824e-01</internalNodes>
          <leafValues>
            -9.0573245286941528e-01 2.8868883848190308e-01</leafValues></_>
        <_>
          <internalNodes>
            0 -1 39 -2.8870281577110291e-01</internalNodes>
          <leafValues>
            2.5034424662590027e-01 -7.6971316337585449e-01</leafValues></_></weakClassifiers></_>
    <!-- stage 1 -->
    <_>
      <maxWeakCount>6</maxWeakCount>
      <stageThreshold>-9.7334009408950806e-01</stageThreshold>
      <weakClassifiers>
        <_>
          <internalNodes>
            0 -1 10 -2.3662995081394911e-03</internalNodes>
          <leafValues>
            8.6038690805435181e-01 -1.8414533138275146e-01</leafValues></_>
        <_>
          <internalNodes>
            0 -1 123 5.2455030381679535e-03</internalNodes>
          <leafValues>
            -3.4907403588294983e-01 8.3128106594085693e-01</leafValues></_>
        <_>
          <internalNodes>
            0 -1 108 5.6362277828156948e-03</internalNodes>
          <leafValues>
            -3.4614476561546326e-01 6.9463634490966797e-01</leafValues></_>
        <_>
          <internalNodes>
            0 -1 50 1.4115690719336271e-03</internalNodes>
          <leafValues>
            -3.9681789278984070e-01 6.8783062696456909e-01</leafValues></_>
        <_>
          <internalNodes>
            0 -1 2 -8.0866152420639992e-03</internalNodes>
          <leafValues>
            7.4526733160018921e-01 -2.9237323999404907e-01</leafValues></_>
        <_>
          <internalNodes>
            0 -1 101 3.1260480172932148e-03</internalNodes>
          <leafValues>
            -3.0666705965995789e-01 5.9521514177322388e-01</leafValues></_></weakClassifiers></_>
    <!-- stage 2 -->
    <_>
      <maxWeakCount>11</maxWeakCount>
      <stageThreshold>-1.0968536138534546e+00</stageThreshold>
      <weakClassifiers>
        <_>
          <internalNodes>
            0 -1 57 -4.6876400709152222e-01</internalNodes>
          <leafValues>
            6.9212269783020020e-01 -4.7625508904457092e-01</leafValues></_>
        <_>
          <internalNodes>
            0 -1 28 -1.3582448009401560e-03</internalNodes>
          <leafValues>
            5.8412754535675049e-01 -3.0198374390602112e-01</leafValues></_>
        <_>
          <internalNodes>
            0 -1 90 -2.0424980670213699e-02</internalNodes>
          <leafValues>
            5.5793106555938721e-01 -3.9595830440521240e-01</leafValues></_>
        <_>
          <internalNodes>
            0 -1 18 3.2661382108926773e-02</internalNodes>
          <leafValues>
            -2.2301881015300751e-01 7.1047937870025635e-01</leafValues></_>
        <_>
          <internalNodes>
            0 -1 119 2.2231522016227245e-03</internalNodes>
          <leafValues>
            -3.2089355587959290e-01 3.8804057240486145e-01</leafValues></_>
        <_>
          <internalNodes>
            0 -1 23 -1.4992214273661375e-03</internalNodes>
          <leafValues>
            4.7588068246841431e-01 -2.7300080657005310e-01</leafValues></_>
        <_>
          <internalNodes>
            0 -1 42 -6.6471891477704048e-03</internalNodes>
          <leafValues>
            5.9863287210464478e-01 -2.2024184465408325e-01</leafValues></_>
        <_>
          <internalNodes>
            0 -1 124 5.4483218118548393e-03</internalNodes>
          <leafValues>
            -3.0213585495948792e-01 4.1833147406578064e-01</leafValues></_>
        <_>
          <internalNodes>
            0 -1 93 -2.2701886482536793e-03</internalNodes>
          <leafValues>
            5.4077070951461792e-01 -2.3255197703838348e-01</leafValues></_>
        <_>
          <internalNodes>
            0 -1 6 4.1978381574153900e-02</internalNodes>
          <leafValues>
            -1.5427514910697937e-01 7.7700698375701904e-01</leafValues></_>
        <_>
          <internalNodes>
            0 -1 56 -1.4985892921686172e-02</internalNodes>
          <leafValues>
            6.2865895032882690e-01 -2.5102749466896057e-01</leafValues></_></weakClassifiers></_>
    <!-- stage 3 -->
    <_>
      <maxWeakCount>12</maxWeakCount>
      <stageThreshold>-1.1737860441207886e+00</stageThreshold>
      <weakClassifiers>
        <_>
          <internalNodes>
            0 -1 16 -2.6781255006790161e-01</internalNodes>
          <leafValues>
            -4.0942028164863586e-01 5.5519479513168335e-01</leafValues></_>
        <_>
          <internalNodes>
            0 -1 36 -9.0332999825477600e-03</internalNodes>
          <leafValues>
            5.9965407848358154e-01 -2.9534971714019775e-01</leafValues></_>
        <_>
          <internalNodes>
            0 -1 103 -9.9713616073131561e-03</internalNodes>
          <leafValues>
            7.7296853065490723e-01 -2.0393657684326172e-01</leafValues></_>
        <_>
          <internalNodes>
            0 -1 24 -6.2055373564362526e-03</internalNodes>
          <leafValues>
            5.5962002277374268e-01 -3.1931817531585693e-01</leafValues></_>
        <_>
          <internalNodes>
            0 -1 84 -3.9965142495930195e-03</internalNodes>
          <leafValues>
            6.8440842628479004e-01 -2.1209438145160675e-01</leafValues></_>
        <_>
          <internalNodes>
            0 -1 70 8.7498333305120468e-03</internalNodes>
          <leafValues>
            -1.8469895422458649e-01 7.7123260498046875e-01</leafValues></_>
        <_>
          <internalNodes>
            0 -1 114 -8.8692381978034973e-03</internalNodes>
          <leafValues>
            8.3049446344375610e-01 -1.3020382821559906e-01</leafValues></_>
        <_>
          <internalNodes>
            0 -1 98 2.6667115744203329e-03</internalNodes>
          <leafValues>
            -1.4941766858100891e-01 8.1435972452163696e-01</leafValues></_>
        <_>
          <internalNodes>
            0 -1 95 6.9842981174588203e-03</internalNodes>
          <leafValues>
            -4.1032868623733521e-01 3.3389928936958313e-01</leafValues></_>
        <_>
          <internalNodes>
            0 -1 37 -1.2117775157094002e-02</internalNodes>
          <leafValues>
            5.9948790073394775e-01 -2.3038199543952942e-01</leafValues></_>
        <_>
          <internalNodes>
            0 -1 82 -4.9349954351782799e-03</internalNodes>
          <leafValues>
            6.1611610651016235e-01 -1.8891109526157379e-01</leafValues></_>
        <_>
          <internalNodes>
            0 -1 85 -5.9350477531552315e-03</internalNodes>
          <leafValues>
            6.3095718622207642e-01 -1.6085776686668396e-01</leafValues></_></weakClassifiers></_>
    <!-- stage 4 -->
    <_>
      <maxWeakCount>4</maxWeakCount>
      <stageThreshold>-1.2728900909423828e+00</stageThreshold>
      <weakClassifiers>
        <_>
          <internalNodes>
            0 -1 9 -5.7134950160980225e-01</internalNodes>
          <leafValues>
            -8.9655172824859619e-01 7.7866059541702271e-01</leafValues></_>
        <_>
          <internalNodes>
            0 -1 17 -1.1917439103126526e-01</internalNodes>
          <leafValues>
            -4.0043270587921143e-01 6.7898583412170410e-01</leafValues></_>
        <_>
          <internalNodes>
            0 -1 5 -1.2562008574604988e-02</internalNodes>
          <leafValues>
            7.9435282945632935e-01 -1.9987745583057404e-01</leafValues></_>
        <_>
          <internalNodes>
            0 -1 66 -3.5493995994329453e-02</internalNodes>
          <leafValues>
            -7.9755514860153198e-01 2.2397185862064362e-01</leafValues></_></weakClassifiers></_>
    <!-- stage 5 -->
    <_>
      <maxWeakCount>10</maxWeakCount>
      <stageThreshold>-8.6098825931549072e-01</stageThreshold>
      <weakClassifiers>
        <_>
          <internalNodes>
            0 -1 97 -9.0520851314067841e-02</internalNodes>
          <leafValues>
            -2.7064803242683411e-01 6.2802231311798096e-01</leafValues></_>
        <_>
          <internalNodes>
            0 -1 34 2.0607370883226395e-02</internalNodes>
          <leafValues>
            -2.7084878087043762e-01 6.7979085445404053e-01</leafValues></_>
        <_>
          <internalNodes>
            0 -1 81 -1.6284052282571793e-02</internalNodes>
          <leafValues>
            6.2180787324905396e-01 -3.1779959797859192e-01</leafValues></_>
        <_>
          <internalNodes>
            0 -1 117 3.3318661153316498e-03</internalNodes>
          <leafValues>
            -4.0825125575065613e-01 3.7234115600585938e-01</leafValues></_>
        <_>
          <internalNodes>
            0 -1 1 -7.1787172928452492e-03</internalNodes>
          <leafValues>
            4.0036347508430481e-01 -2.8401362895965576e-01</leafValues></_>
        <_>
          <internalNodes>
            0 -1 123 9.6487347036600113e-03</internalNodes>
          <leafValues>
            -1.9811815023422241e-01 5.4291045665740967e-01</leafValues></_>
        <_>
          <internalNodes>
            0 -1 92 1.7280299216508865e-02</internalNodes>
          <leafValues>
            -1.7621880769729614e-01 6.7900264263153076e-01</leafValues></_>
        <_>
          <internalNodes>
            0 -1 73 -5.4324720054864883e-02</internalNodes>
          <leafValues>
            -6.3870942592620850e-01 1.9086036086082458e-01</leafValues></_>
        <_>
          <internalNodes>
            0 -1 99 -7.5522242113947868e-03</internalNodes>
          <leafValues>
            4.4268116354942322e-01 -2.1605235338211060e-01</leafValues></_>
        <_>
          <internalNodes>
            0 -1 25 6.5334858372807503e-03</internalNodes>
          <leafValues>
            -2.0403125882148743e-01 5.0334233045578003e-01</leafValues></_></weakClassifiers></_>
    <!-- stage 6 -->
    <_>
      <maxWeakCount>16</maxWeakCount>
      <stageThreshold>-1.1290415525436401e+00</stageThreshold>
      <weakClassifiers>
        <_>
          <internalNodes>
            0 -1 120 2.1521566435694695e-02</internalNodes>
          <leafValues>
            -9.1718614101409912e-02 7.0712608098983765e-01</leafValues></_>
        <_>
          <internalNodes>
            0 -1 31 2.7567509561777115e-02</internalNodes>
          <leafValues>
            -2.7332159876823425e-01 6.6446113586425781e-01</leafValues></_>
        <_>
          <internalNodes>
            0 -1 38 -5.6496907025575638e-02</internalNodes>
          <leafValues>
            -2.1889859437942505e-01 6.0696464776992798e-01</leafValues></_>
        <_>
          <internalNodes>
            0 -1 96 1.8711257725954056e-02</internalNodes>
          <leafValues>
            -2.7494958043098450e-01 3.9074850082397461e-01</leafValues></_>
        <_>
          <internalNodes>
            0 -1 45 4.3615996837615967e-03</internalNodes>
          <leafValues>
            -2.3358584940433502e-01 4.4147083163261414e-01</leafValues></_>
        <_>
          <internalNodes>
            0 -1 27 -6.2820762395858765e-02</internalNodes>
          <leafValues>
            7.3657578229904175e-01 -1.3508687913417816e-01</leafValues></_>
        <_>
          <internalNodes>
            0 -1 59 -5.5504042655229568e-02</internalNodes>
          <leafValues>
            6.3314276933670044e-01 -1.3998566567897797e-01</leafValues></_>
        <_>
          <internalNodes>
            0 -1 80 -3.0996847897768021e-02</internalNodes>
          <leafValues>
            6.5563493967056274e-01 -1.2387563288211823e-01</leafValues></_>
        <_>
          <internalNodes>
            0 -1 91 1.9566368311643600e-02</internalNodes>
          <leafValues>
            -1.5389272570610046e-01 4.9527466297149658e-01</leafValues></_>
        <_>
          <internalNodes>
            0 -1 92 -1.9476668909192085e-02</internalNodes>
          <leafValues>
            5.7697331905364990e-01 -1.4990168809890747e-01</leafValues></_>
        <_>
          <internalNodes>
            0 -1 130 6.4535923302173615e-03</internalNodes>
          <leafValues>
            1.2253180891275406e-01 -7.6103955507278442e-01</leafValues></_>
        <_>
          <internalNodes>
            0 -1 8 8.4294769912958145e-03</internalNodes>
          <leafValues>
            1.9322103261947632e-01 -3.8112860918045044e-01</leafValues></_>
        <_>
          <internalNodes>
            0 -1 12 -2.0165720582008362e-01</internalNodes>
          <leafValues>
            -4.0129154920578003e-01 2.3852311074733734e-01</leafValues></_>
        <_>
          <internalNodes>
            0 -1 115 -2.0726013928651810e-02</internalNodes>
          <leafValues>
            7.5757068395614624e-01 -1.1222497373819351e-01</leafValues></_>
        <_>
          <internalNodes>
            0 -1 30 2.5812134146690369e-02</internalNodes>
          <leafValues>
            -1.0293225944042206e-01 7.0108264684677124e-01</leafValues></_>
        <_>
          <internalNodes>
            0 -1 129 3.4146222751587629e-03</internalNodes>
          <leafValues>
            1.6565905511379242e-01 -5.0703006982803345e-01</leafValues></_></weakClassifiers></_>
    <!-- stage 7 -->
    <_>
      <maxWeakCount>27</maxWeakCount>
      <stageThreshold>-9.5569485425949097e-01</stageThreshold>
      <weakClassifiers>
        <_>
          <internalNodes>
            0 -1 11 -3.2475874759256840e-03</internalNodes>
          <leafValues>
            6.4858299493789673e-01 -8.5836910875514150e-04</leafValues></_>
        <_>
          <internalNodes>
            0 -1 53 -4.8751853406429291e-02</internalNodes>
          <leafValues>
            7.6109749078750610e-01 -1.0232933610677719e-01</leafValues></_>
        <_>
          <internalNodes>
            0 -1 84 -5.2650533616542816e-03</internalNodes>
          <leafValues>
            5.0282055139541626e-01 -2.1270473301410675e-01</leafValues></_>
        <_>
          <internalNodes>
            0 -1 102 -1.2570124119520187e-02</internalNodes>
          <leafValues>
            5.6469672918319702e-01 -1.5888962149620056e-01</leafValues></_>
        <_>
          <internalNodes>
            0 -1 22 -1.3431336730718613e-02</internalNodes>
          <leafValues>
            4.2221239209175110e-01 -1.8799124658107758e-01</leafValues></_>
        <_>
          <internalNodes>
            0 -1 47 -4.2367056012153625e-03</internalNodes>
          <leafValues>
            3.5770767927169800e-01 -2.2260269522666931e-01</leafValues></_>
        <_>
          <internalNodes>
            0 -1 117 7.4926263187080622e-04</internalNodes>
          <leafValues>
            -3.9280849695205688e-01 1.7990618944168091e-01</leafValues></_>
        <_>
          <internalNodes>
            0 -1 79 6.5074400044977665e-03</internalNodes>
          <leafValues>
            -1.3191998004913330e-01 5.7055062055587769e-01</leafValues></_>
        <_>
          <internalNodes>
            0 -1 61 -1.3550681993365288e-02</internalNodes>
          <leafValues>
            3.3997550606727600e-01 -1.8567292392253876e-01</leafValues></_>
        <_>
          <internalNodes>
            0 -1 69 1.2085776776075363e-02</internalNodes>
          <leafValues>
            -1.2684144079685211e-01 6.1168015003204346e-01</leafValues></_>
        <_>
          <internalNodes>
            0 -1 33 -1.4628612436354160e-02</internalNodes>
          <leafValues>
            4.6728628873825073e-01 -1.3646370172500610e-01</leafValues></_>
        <_>
          <internalNodes>
            0 -1 13 -5.5238395929336548e-02</internalNodes>
          <leafValues>
            -4.1294160485267639e-01 1.7460943758487701e-01</leafValues></_>
        <_>
          <internalNodes>
            0 -1 0 7.9908169573172927e-04</internalNodes>
          <leafValues>
            1.4984932541847229e-01 -4.2059296369552612e-01</leafValues></_>
        <_>
          <internalNodes>
            0 -1 60 -1.9502565264701843e-03</internalNodes>
          <leafValues>
            3.8685524463653564e-01 -1.6403914988040924e-01</leafValues></_>
        <_>
          <internalNodes>
            0 -1 126 8.1488385330885649e-04</internalNodes>
          <leafValues>
            1.6995072364807129e-01 -3.5383754968643188e-01</leafValues></_>
        <_>
          <internalNodes>
            0 -1 121 8.2523915916681290e-03</internalNodes>
          <leafValues>
            -2.6311001181602478e-01 2.4451488256454468e-01</leafValues></_>
        <_>
          <internalNodes>
            0 -1 100 4.7839283943176270e-03</internalNodes>
          <leafValues>
            -1.5222521126270294e-01 4.7673779726028442e-01</leafValues></_>
        <_>
          <internalNodes>
            0 -1 125 -4.5541813597083092e-04</internalNodes>
          <leafValues>
            -3.1077039241790771e-01 2.1527472138404846e-01</leafValues></_>
        <_>
          <internalNodes>
            0 -1 110 -2.4071926251053810e-02</internalNodes>
          <leafValues>
            7.8960037231445313e-01 -8.5507966578006744e-02</leafValues></_>
        <_>
          <internalNodes>
            0 -1 46 -2.8508234769105911e-02</internalNodes>
          <leafValues>
            3.3280721306800842e-01 -2.0114822685718536e-01</leafValues></_>
        <_>
          <internalNodes>
            0 -1 77 -7.5688152574002743e-03</internalNodes>
          <leafValues>
            5.5107283592224121e-01 -1.0156110674142838e-01</leafValues></_>
        <_>
          <internalNodes>
            0 -1 128 4.8035389045253396e-04</internalNodes>
          <leafValues>
            2.1665313839912415e-01 -2.9596242308616638e-01</leafValues></_>
        <_>
          <internalNodes>
            0 -1 15 -2.0750849507749081e-03</internalNodes>
          <leafValues>
            2.8475841879844666e-01 -1.9885772466659546e-01</leafValues></_>
        <_>
          <internalNodes>
            0 -1 127 -8.1278337165713310e-04</internalNodes>
          <leafValues>
            -3.8752177357673645e-01 1.5350419282913208e-01</leafValues></_>
        <_>
          <internalNodes>
            0 -1 7 -1.7878301441669464e-03</internalNodes>
          <leafValues>
            -5.3733378648757935e-01 1.0592362284660339e-01</leafValues></_>
        <_>
          <internalNodes>
            0 -1 65 -1.7736766487360001e-02</internalNodes>
          <leafValues>
            7.7893012762069702e-01 -8.2794256508350372e-02</leafValues></_>
        <_>
          <internalNodes>
            0 -1 83 8.1273475661873817e-03</internalNodes>
          <leafValues>
            -1.1158008128404617e-01 4.0776365995407104e-01</leafValues></_></weakClassifiers></_>
    <!-- stage 8 -->
    <_>
      <maxWeakCount>24</maxWeakCount>
      <stageThreshold>-7.6709467172622681e-01</stageThreshold>
      <weakClassifiers>
        <_>
          <internalNodes>
            0 -1 10 -3.5322820767760277e-03</internalNodes>
          <leafValues>
            6.2023347616195679e-01 2.6905830018222332e-03</leafValues></_>
        <_>
          <internalNodes>
            0 -1 122 1.4878322370350361e-02</internalNodes>
          <leafValues>
            -1.9158303737640381e-01 5.3077471256256104e-01</leafValues></_>
        <_>
          <internalNodes>
            0 -1 44 5.9874977916479111e-02</internalNodes>
          <leafValues>
            -1.4187619090080261e-01 6.6427940130233765e-01</leafValues></_>
        <_>
          <internalNodes>
            0 -1 14 1.2526463717222214e-02</internalNodes>
          <leafValues>
            -2.0477974414825439e-01 3.8124501705169678e-01</leafValues></_>
        <_>
          <internalNodes>
            0 -1 118 -3.7529438734054565e-02</internalNodes>
          <leafValues>
            7.0467704534530640e-01 -1.2956283986568451e-01</leafValues></_>
        <_>
          <internalNodes>
            0 -1 86 -6.7486437037587166e-03</internalNodes>
          <leafValues>
            3.6380195617675781e-01 -2.2728933393955231e-01</leafValues></_>
        <_>
          <internalNodes>
            0 -1 63 -6.4872473478317261e-02</internalNodes>
          <leafValues>
            5.5391687154769897e-01 -1.2993609905242920e-01</leafValues></_>
        <_>
          <internalNodes>
            0 -1 64 8.3265211433172226e-03</internalNodes>
          <leafValues>
            9.2027284204959869e-02 -7.2720426321029663e-01</leafValues></_>
        <_>
          <internalNodes>
            0 -1 106 -1.3369699008762836e-03</internalNodes>
          <leafValues>
            2.4721603095531464e-01 -2.4246272444725037e-01</leafValues></_>
        <_>
          <internalNodes>
            0 -1 116 -2.3815985769033432e-02</internalNodes>
          <leafValues>
            6.9587069749832153e-01 -9.5624536275863647e-02</leafValues></_>
        <_>
          <internalNodes>
            0 -1 62 -1.0999884456396103e-02</internalNodes>
          <leafValues>
            5.3508073091506958e-01 -1.0163030773401260e-01</leafValues></_>
        <_>
          <internalNodes>
            0 -1 58 -1.2423224747180939e-02</internalNodes>
          <leafValues>
            6.2436461448669434e-01 -9.7386285662651062e-02</leafValues></_>
        <_>
          <internalNodes>
            0 -1 26 1.4751607552170753e-02</internalNodes>
          <leafValues>
            -1.6349242627620697e-01 3.7415298819541931e-01</leafValues></_>
        <_>
          <internalNodes>
            0 -1 48 -1.3414785498753190e-03</internalNodes>
          <leafValues>
            2.7499788999557495e-01 -2.2153100371360779e-01</leafValues></_>
        <_>
          <internalNodes>
            0 -1 67 5.0125815905630589e-03</internalNodes>
          <leafValues>
            1.3929058611392975e-01 -4.5987290143966675e-01</leafValues></_>
        <_>
          <internalNodes>
            0 -1 109 1.7440292984247208e-02</internalNodes>
          <leafValues>
            7.0876091718673706e-02 -6.8858999013900757e-01</leafValues></_>
        <_>
          <internalNodes>
            0 -1 111 -1.8430439755320549e-02</internalNodes>
          <leafValues>
            -1.8840599060058594e-01 2.9663100838661194e-01</leafValues></_>
        <_>
          <internalNodes>
            0 -1 76 2.7113594114780426e-02</internalNodes>
          <leafValues>
            -1.4765471220016479e-01 4.3046054244041443e-01</leafValues></_>
        <_>
          <internalNodes>
            0 -1 41 -1.0305380448698997e-02</internalNodes>
          <leafValues>
            4.8079109191894531e-01 -1.1744058132171631e-01</leafValues></_>
        <_>
          <internalNodes>
            0 -1 87 2.1851549390703440e-03</internalNodes>
          <leafValues>
            -1.4330761134624481e-01 3.6517205834388733e-01</leafValues></_>
        <_>
          <internalNodes>
            0 -1 74 -3.9977647364139557e-02</internalNodes>
          <leafValues>
            7.5421494245529175e-01 -8.9928016066551208e-02</leafValues></_>
        <_>
          <internalNodes>
            0 -1 43 6.5540909767150879e-02</internalNodes>
          <leafValues>
            -1.1940504610538483e-01 4.3959951400756836e-01</leafValues></_>
        <_>
          <internalNodes>
            0 -1 52 -2.4897977709770203e-02</internalNodes>
          <leafValues>
            3.8513389229774475e-01 -1.8333622813224792e-01</leafValues></_>
        <_>
          <internalNodes>
            0 -1 7 2.3257840075530112e-04</internalNodes>
          <leafValues>
            2.1456156671047211e-01 -2.4894747138023376e-01</leafValues></_></weakClassifiers></_>
    <!-- stage 9 -->
    <_>
      <maxWeakCount>24</maxWeakCount>
      <stageThreshold>-9.5321702957153320e-01</stageThreshold>
      <weakClassifiers>
        <_>
          <internalNodes>
            0 -1 105 -5.8937213907483965e-05</internalNodes>
          <leafValues>
            5.3297680616378784e-01 -1.3528591394424438e-01</leafValues></_>
        <_>
          <internalNodes>
            0 -1 72 6.8102739751338959e-03</internalNodes>
          <leafValues>
            -1.5529413521289825e-01 6.5148943662643433e-01</leafValues></_>
        <_>
          <internalNodes>
            0 -1 4 -1.2902702204883099e-02</internalNodes>
          <leafValues>
            5.5277365446090698e-01 -1.7504607141017914e-01</leafValues></_>
        <_>
          <internalNodes>
            0 -1 49 3.7538036704063416e-03</internalNodes>
          <leafValues>
            -2.7311268448829651e-01 3.2265073060989380e-01</leafValues></_>
        <_>
          <internalNodes>
            0 -1 89 -2.8390869498252869e-02</internalNodes>
          <leafValues>
            4.6510380506515503e-01 -1.5466840565204620e-01</leafValues></_>
        <_>
          <internalNodes>
            0 -1 20 -9.1147776693105698e-03</internalNodes>
          <leafValues>
            4.6406012773513794e-01 -1.6339167952537537e-01</leafValues></_>
        <_>
          <internalNodes>
            0 -1 21 -1.9228339195251465e-02</internalNodes>
          <leafValues>
            -3.1084331870079041e-01 2.2080847620964050e-01</leafValues></_>
        <_>
          <internalNodes>
            0 -1 76 4.6713117510080338e-02</internalNodes>
          <leafValues>
            -9.9253848195075989e-02 6.5199065208435059e-01</leafValues></_>
        <_>
          <internalNodes>
            0 -1 107 -1.7350651323795319e-03</internalNodes>
          <leafValues>
            2.9328358173370361e-01 -1.9978781044483185e-01</leafValues></_>
        <_>
          <internalNodes>
            0 -1 71 1.0443459264934063e-02</internalNodes>
          <leafValues>
            -1.3119512796401978e-01 4.7266837954521179e-01</leafValues></_>
        <_>
          <internalNodes>
            0 -1 78 -3.1651638448238373e-02</internalNodes>
          <leafValues>
            7.5140810012817383e-01 -7.6144881546497345e-02</leafValues></_>
        <_>
          <internalNodes>
            0 -1 32 -1.5426464378833771e-02</internalNodes>
          <leafValues>
            7.3124730587005615e-01 -6.1977855861186981e-02</leafValues></_>
        <_>
          <internalNodes>
            0 -1 29 1.3036448508501053e-03</internalNodes>
          <leafValues>
            -2.0637212693691254e-01 2.8136178851127625e-01</leafValues></_>
        <_>
          <internalNodes>
            0 -1 102 -9.9054910242557526e-03</internalNodes>
          <leafValues>
            3.6003282666206360e-01 -1.6684362292289734e-01</leafValues></_>
        <_>
          <internalNodes>
            0 -1 94 2.7252575382590294e-02</internalNodes>
          <leafValues>
            -2.5212940573692322e-01 2.3702539503574371e-01</leafValues></_>
        <_>
          <internalNodes>
            0 -1 88 6.0379337519407272e-03</internalNodes>
          <leafValues>
            -1.2636549770832062e-01 4.3355974555015564e-01</leafValues></_>
        <_>
          <internalNodes>
            0 -1 3 -6.2639871612191200e-03</internalNodes>
          <leafValues>
            4.2630097270011902e-01 -1.2800237536430359e-01</leafValues></_>
        <_>
          <internalNodes>
            0 -1 19 1.1272224597632885e-02</internalNodes>
          <leafValues>
            -1.7864303290843964e-01 3.3454361557960510e-01</leafValues></_>
        <_>
          <internalNodes>
            0 -1 55 -2.0490647852420807e-01</internalNodes>
          <leafValues>
            -6.4454764127731323e-01 1.1797679215669632e-01</leafValues></_>
        <_>
          <internalNodes>
            0 -1 75 -2.9572984203696251e-02</internalNodes>
          <leafValues>
            6.8891191482543945e-01 -1.0239893943071365e-01</leafValues></_>
        <_>
          <internalNodes>
            0 -1 68 -6.5945070236921310e-03</internalNodes>
          <leafValues>
            8.4253713488578796e-02 -8.0928307771682739e-01</leafValues></_>
        <_>
          <internalNodes>
            0 -1 131 3.4345500171184540e-03</internalNodes>
          <leafValues>
            1.4205677807331085e-01 -3.4854862093925476e-01</leafValues></_>
        <_>
          <internalNodes>
            0 -1 54 8.2877296954393387e-03</internalNodes>
          <leafValues>
            -8.7519995868206024e-02 6.6731888055801392e-01</leafValues></_>
        <_>
          <internalNodes>
            0 -1 40 -6.5763350576162338e-03</internalNodes>
          <leafValues>
            4.4694697856903076e-01 -1.2198835611343384e-01</leafValues></_></weakClassifiers></_></stages>
  <features>
    <_>
      <rects>
        <_>
          0 1 2 1 -1.</_>
        <_>
          1 1 1 1 2.</_></rects>
      <tilted>0</tilted></_>
    <_>
      <rects>
        <_>
          0 5 2 9 -1.</_>
        <_>
          1 5 1 9 2.</_></rects>
      <tilted>0</tilted></_>
    <_>
      <rects>
        <_>
          0 5 2 13 -1.</_>
        <_>
          1 5 1 13 2.</_></rects>
      <tilted>0</tilted></_>
    <_>
      <rects>
        <_>
          0 6 4 2 -1.</_>
        <_>
          0 7 4 1 2.</_></rects>
      <tilted>0</tilted></_>
    <_>
      <rects>
        <_>
          0 8 2 5 -1.</_>
        <_>
          1 8 1 5 2.</_></rects>
      <tilted>0</tilted></_>
    <_>
      <rects>
        <_>
          0 9 2 4 -1.</_>
        <_>
          1 9 1 4 2.</_></rects>
      <tilted>0</tilted></_>
    <_>
      <rects>
        <_>
          0 11 18 4 -1.</_>
        <_>
          0 13 18 2 2.</_></rects>
      <tilted>0</tilted></_>
    <_>
      <rects>
        <_>
          0 16 2 2 -1.</_>
        <_>
          0 16 1 1 2.</_>
        <_>
          1 17 1 1 2.</_></rects>
      <tilted>0</tilted></_>
    <_>
      <rects>
        <_>
          1 3 10 4 -1.</_>
        <_>
          6 3 5 4 2.</_></rects>
      <tilted>0</tilted></_>
    <_>
      <rects>
        <_>
          1 7 15 8 -1.</_>
        <_>
          6 7 5 8 2.</_></rects>
      <tilted>0</tilted></_>
    <_>
      <rects>
        <_>
          1 8 2 3 -1.</_>
        <_>
          2 8 1 3 2.</_></rects>
      <tilted>0</tilted></_>
    <_>
      <rects>
        <_>
          1 9 3 2 -1.</_>
        <_>
          1 10 3 1 2.</_></rects>
      <tilted>0</tilted></_>
    <_>
      <rects>
        <_>
          1 9 12 5 -1.</_>
        <_>
          5 9 4 5 2.</_></rects>
      <tilted>0</tilted></_>
    <_>
      <rects>
        <_>
          1 9 5 3 -1.</_>
        <_>
          1 10 5 1 2.</_></rects>
      <tilted>0</tilted></_>
    <_>
      <rects>
        <_>
          1 10 4 2 -1.</_>
        <_>
          3 10 2 2 2.</_></rects>
      <tilted>0</tilted></_>
    <_>
      <rects>
        <_>
          1 10 3 2 -1.</_>
        <_>
          1 11 3 1 2.</_></rects>
      <tilted>0</tilted></_>
    <_>
      <rects>
        <_>
          1 10 15 5 -1.</_>
        <_>
          6 10 5 5 2.</_></rects>
      <tilted>0</tilted></_>
    <_>
      <rects>
        <_>
          1 11 15 3 -1.</_>
        <_>
          6 11 5 3 2.</_></rects>
      <tilted>0</tilted></_>
    <_>
      <rects>
        <_>
          1 14 12 4 -1.</_>
        <_>
          1 16 12 2 2.</_></rects>
      <tilted>0</tilted></_>
    <_>
      <rects>
        <_>
          2 2 2 16 -1.</_>
        <_>
          3 2 1 16 2.</_></rects>
      <tilted>0</tilted></_>
    <_>
      <rects>
        <_>
          2 3 10 2 -1.</_>
        <_>
          2 3 5 1 2.</_>
        <_>
          7 4 5 1 2.</_></rects>
      <tilted>0</tilted></_>
    <_>
      <rects>
        <_>
          2 5 1 6 -1.</_>
        <_>
          2 7 1 2 2.</_></rects>
      <tilted>0</tilted></_>
    <_>
      <rects>
        <_>
          2 5 1 6 -1.</_>
        <_>
          2 8 1 3 2.</_></rects>
      <tilted>0</tilted></_>
    <_>
      <rects>
        <_>
          2 7 1 2 -1.</_>
        <_>
          2 8 1 1 2.</_></rects>
      <tilted>0</tilted></_>
    <_>
      <rects>
        <_>
          2 7 1 4 -1.</_>
        <_>
          2 9 1 2 2.</_></rects>
      <tilted>0</tilted></_>
    <_>
      <rects>
        <_>
          2 7 2 4 -1.</_>
        <_>
          2 7 1 2 2.</_>
        <_>
          3 9 1 2 2.</_></rects>
      <tilted>0</tilted></_>
    <_>
      <rects>
        <_>
          2 7 4 3 -1.</_>
        <_>
          4 7 2 3 2.</_></rects>
      <tilted>0</tilted></_>
    <_>
      <rects>
        <_>
          2 7 6 10 -1.</_>
        <_>
          2 7 3 5 2.</_>
        <_>
          5 12 3 5 2.</_></rects>
      <tilted>0</tilted></_>
    <_>
      <rects>
        <_>
          2 8 1 2 -1.</_>
        <_>
          2 9 1 1 2.</_></rects>
      <tilted>0</tilted></_>
    <_>
      <rects>
        <_>
          2 8 2 2 -1.</_>
        <_>
          2 8 1 1 2.</_>
        <_>
          3 9 1 1 2.</_></rects>
      <tilted>0</tilted></_>
    <_>
      <rects>
        <_>
          2 8 2 6 -1.</_>
        <_>
          2 11 2 3 2.</_></rects>
      <tilted>0</tilted></_>
    <_>
      <rects>
        <_>
          2 8 4 5 -1.</_>
        <_>
          4 8 2 5 2.</_></rects>
      <tilted>0</tilted></_>
    <_>
      <rects>
        <_>
          2 9 2 5 -1.</_>
        <_>
          3 9 1 5 2.</_></rects>
      <tilted>0</tilted></_>
    <_>
      <rects>
        <_>
          2 9 4 4 -1.</_>
        <_>
          2 9 2 2 2.</_>
        <_>
          4 11 2 2 2.</_></rects>
      <tilted>0</tilted></_>
    <_>
      <rects>
        <_>
          2 9 4 3 -1.</_>
        <_>
          4 9 2 3 2.</_></rects>
      <tilted>0</tilted></_>
    <_>
      <rects>
        <_>
          2 9 4 4 -1.</_>
        <_>
          4 9 2 4 2.</_></rects>
      <tilted>0</tilted></_>
    <_>
      <rects>
        <_>
          2 10 4 4 -1.</_>
        <_>
          2 10 2 2 2.</_>
        <_>
          4 12 2 2 2.</_></rects>
      <tilted>0</tilted></_>
    <_>
      <rects>
        <_>
          2 10 3 4 -1.</_>
        <_>
          2 12 3 2 2.</_></rects>
      <tilted>0</tilted></_>
    <_>
      <rects>
        <_>
          2 12 15 2 -1.</_>
        <_>
          7 12 5 2 2.</_></rects>
      <tilted>0</tilted></_>
    <_>
      <rects>
        <_>
          3 2 12 13 -1.</_>
        <_>
          7 2 4 13 2.</_></rects>
      <tilted>0</tilted></_>
    <_>
      <rects>
        <_>
          3 5 2 6 -1.</_>
        <_>
          4 5 1 6 2.</_></rects>
      <tilted>0</tilted></_>
    <_>
      <rects>
        <_>
          3 9 4 2 -1.</_>
        <_>
          5 9 2 2 2.</_></rects>
      <tilted>0</tilted></_>
    <_>
      <rects>
        <_>
          3 10 2 4 -1.</_>
        <_>
          3 10 1 2 2.</_>
        <_>
          4 12 1 2 2.</_></rects>
      <tilted>0</tilted></_>
    <_>
      <rects>
        <_>
          3 11 15 6 -1.</_>
        <_>
          3 14 15 3 2.</_></rects>
      <tilted>0</tilted></_>
    <_>
      <rects>
        <_>
          3 14 14 4 -1.</_>
        <_>
          3 16 14 2 2.</_></rects>
      <tilted>0</tilted></_>
    <_>
      <rects>
        <_>
          4 9 2 4 -1.</_>
        <_>
          4 9 1 2 2.</_>
        <_>
          5 11 1 2 2.</_></rects>
      <tilted>0</tilted></_>
    <_>
      <rects>
        <_>
          4 9 14 6 -1.</_>
        <_>
          4 9 7 3 2.</_>
        <_>
          11 12 7 3 2.</_></rects>
      <tilted>0</tilted></_>
    <_>
      <rects>
        <_>
          4 10 1 4 -1.</_>
        <_>
          4 12 1 2 2.</_></rects>
      <tilted>0</tilted></_>
    <_>
      <rects>
        <_>
          4 11 1 2 -1.</_>
        <_>
          4 12 1 1 2.</_></rects>
      <tilted>0</tilted></_>
    <_>
      <rects>
        <_>
          4 11 2 2 -1.</_>
        <_>
          5 11 1 2 2.</_></rects>
      <tilted>0</tilted></_>
    <_>
      <rects>
        <_>
          4 12 2 1 -1.</_>
        <_>
          5 12 1 1 2.</_></rects>
      <tilted>0</tilted></_>
    <_>
      <rects>
        <_>
          4 12 9 3 -1.</_>
        <_>
          7 12 3 3 2.</_></rects>
      <tilted>0</tilted></_>
    <_>
      <rects>
        <_>
          4 12 10 4 -1.</_>
        <_>
          4 14 10 2 2.</_></rects>
      <tilted>0</tilted></_>
    <_>
      <rects>
        <_>
          5 0 8 4 -1.</_>
        <_>
          5 2 8 2 2.</_></rects>
      <tilted>0</tilted></_>
    <_>
      <rects>
        <_>
          5 2 3 2 -1.</_>
        <_>
          5 3 3 1 2.</_></rects>
      <tilted>0</tilted></_>
    <_>
      <rects>
        <_>
          5 9 9 5 -1.</_>
        <_>
          8 9 3 5 2.</_></rects>
      <tilted>0</tilted></_>
    <_>
      <rects>
        <_>
          5 12 5 4 -1.</_>
        <_>
          5 14 5 2 2.</_></rects>
      <tilted>0</tilted></_>
    <_>
      <rects>
        <_>
          6 1 12 16 -1.</_>
        <_>
          10 1 4 16 2.</_></rects>
      <tilted>0</tilted></_>
    <_>
      <rects>
        <_>
          6 4 5 2 -1.</_>
        <_>
          6 5 5 1 2.</_></rects>
      <tilted>0</tilted></_>
    <_>
      <rects>
        <_>
          6 9 10 6 -1.</_>
        <_>
          6 9 5 3 2.</_>
        <_>
          11 12 5 3 2.</_></rects>
      <tilted>0</tilted></_>
    <_>
      <rects>
        <_>
          6 12 1 2 -1.</_>
        <_>
          6 13 1 1 2.</_></rects>
      <tilted>0</tilted></_>
    <_>
      <rects>
        <_>
          6 12 10 1 -1.</_>
        <_>
          11 12 5 1 2.</_></rects>
      <tilted>0</tilted></_>
    <_>
      <rects>
        <_>
          6 14 8 2 -1.</_>
        <_>
          6 15 8 1 2.</_></rects>
      <tilted>0</tilted></_>
    <_>
      <rects>
        <_>
          7 0 8 6 -1.</_>
        <_>
          7 3 8 3 2.</_></rects>
      <tilted>0</tilted></_>
    <_>
      <rects>
        <_>
          7 3 2 3 -1.</_>
        <_>
          8 3 1 3 2.</_></rects>
      <tilted>0</tilted></_>
    <_>
      <rects>
        <_>
          7 4 5 2 -1.</_>
        <_>
          7 5 5 1 2.</_></rects>
      <tilted>0</tilted></_>
    <_>
      <rects>
        <_>
          7 5 3 2 -1.</_>
        <_>
          8 5 1 2 2.</_></rects>
      <tilted>0</tilted></_>
    <_>
      <rects>
        <_>
          7 7 2 6 -1.</_>
        <_>
          7 7 1 3 2.</_>
        <_>
          8 10 1 3 2.</_></rects>
      <tilted>0</tilted></_>
    <_>
      <rects>
        <_>
          7 12 3 2 -1.</_>
        <_>
          8 12 1 2 2.</_></rects>
      <tilted>0</tilted></_>
    <_>
      <rects>
        <_>
          7 12 5 2 -1.</_>
        <_>
          7 13 5 1 2.</_></rects>
      <tilted>0</tilted></_>
    <_>
      <rects>
        <_>
          7 12 6 2 -1.</_>
        <_>
          7 13 6 1 2.</_></rects>
      <tilted>0</tilted></_>
    <_>
      <rects>
        <_>
          7 12 9 2 -1.</_>
        <_>
          7 13 9 1 2.</_></rects>
      <tilted>0</tilted></_>
    <_>
      <rects>
        <_>
          8 3 4 2 -1.</_>
        <_>
          8 4 4 1 2.</_></rects>
      <tilted>0</tilted></_>
    <_>
      <rects>
        <_>
          10 3 3 4 -1.</_>
        <_>
          11 3 1 4 2.</_></rects>
      <tilted>0</tilted></_>
    <_>
      <rects>
        <_>
          10 3 6 4 -1.</_>
        <_>
          10 5 6 2 2.</_></rects>
      <tilted>0</tilted></_>
    <_>
      <rects>
        <_>
          10 5 6 4 -1.</_>
        <_>
          10 5 3 2 2.</_>
        <_>
          13 7 3 2 2.</_></rects>
      <tilted>0</tilted></_>
    <_>
      <rects>
        <_>
          10 9 6 6 -1.</_>
        <_>
          10 9 3 3 2.</_>
        <_>
          13 12 3 3 2.</_></rects>
      <tilted>0</tilted></_>
    <_>
      <rects>
        <_>
          10 13 3 2 -1.</_>
        <_>
          10 14 3 1 2.</_></rects>
      <tilted>0</tilted></_>
    <_>
      <rects>
        <_>
          11 3 4 4 -1.</_>
        <_>
          11 5 4 2 2.</_></rects>
      <tilted>0</tilted></_>
    <_>
      <rects>
        <_>
          11 5 4 2 -1.</_>
        <_>
          11 5 2 1 2.</_>
        <_>
          13 6 2 1 2.</_></rects>
      <tilted>0</tilted></_>
    <_>
      <rects>
        <_>
          11 9 4 4 -1.</_>
        <_>
          13 9 2 4 2.</_></rects>
      <tilted>0</tilted></_>
    <_>
      <rects>
        <_>
          11 10 4 4 -1.</_>
        <_>
          13 10 2 4 2.</_></rects>
      <tilted>0</tilted></_>
    <_>
      <rects>
        <_>
          11 11 3 2 -1.</_>
        <_>
          11 12 3 1 2.</_></rects>
      <tilted>0</tilted></_>
    <_>
      <rects>
        <_>
          11 11 6 2 -1.</_>
        <_>
          11 11 3 1 2.</_>
        <_>
          14 12 3 1 2.</_></rects>
      <tilted>0</tilted></_>
    <_>
      <rects>
        <_>
          11 12 2 2 -1.</_>
        <_>
          11 13 2 1 2.</_></rects>
      <tilted>0</tilted></_>
    <_>
      <rects>
        <_>
          11 13 4 2 -1.</_>
        <_>
          11 14 4 1 2.</_></rects>
      <tilted>0</tilted></_>
    <_>
      <rects>
        <_>
          12 4 2 8 -1.</_>
        <_>
          13 4 1 8 2.</_></rects>
      <tilted>0</tilted></_>
    <_>
      <rects>
        <_>
          12 4 2 2 -1.</_>
        <_>
          12 5 2 1 2.</_></rects>
      <tilted>0</tilted></_>
    <_>
      <rects>
        <_>
          12 5 3 2 -1.</_>
        <_>
          12 6 3 1 2.</_></rects>
      <tilted>0</tilted></_>
    <_>
      <rects>
        <_>
          12 7 4 6 -1.</_>
        <_>
          12 7 2 3 2.</_>
        <_>
          14 10 2 3 2.</_></rects>
      <tilted>0</tilted></_>
    <_>
      <rects>
        <_>
          12 7 4 6 -1.</_>
        <_>
          12 10 4 3 2.</_></rects>
      <tilted>0</tilted></_>
    <_>
      <rects>
        <_>
          12 10 4 5 -1.</_>
        <_>
          14 10 2 5 2.</_></rects>
      <tilted>0</tilted></_>
    <_>
      <rects>
        <_>
          12 11 4 3 -1.</_>
        <_>
          14 11 2 3 2.</_></rects>
      <tilted>0</tilted></_>
    <_>
      <rects>
        <_>
          12 12 2 2 -1.</_>
        <_>
          12 13 2 1 2.</_></rects>
      <tilted>0</tilted></_>
    <_>
      <rects>
        <_>
          13 0 4 15 -1.</_>
        <_>
          15 0 2 15 2.</_></rects>
      <tilted>0</tilted></_>
    <_>
      <rects>
        <_>
          13 3 4 7 -1.</_>
        <_>
          15 3 2 7 2.</_></rects>
      <tilted>0</tilted></_>
    <_>
      <rects>
        <_>
          13 4 4 5 -1.</_>
        <_>
          15 4 2 5 2.</_></rects>
      <tilted>0</tilted></_>
    <_>
      <rects>
        <_>
          13 4 3 9 -1.</_>
        <_>
          13 7 3 3 2.</_></rects>
      <tilted>0</tilted></_>
    <_>
      <rects>
        <_>
          13 5 1 2 -1.</_>
        <_>
          13 6 1 1 2.</_></rects>
      <tilted>0</tilted></_>
    <_>
      <rects>
        <_>
          13 5 2 8 -1.</_>
        <_>
          13 5 1 4 2.</_>
        <_>
          14 9 1 4 2.</_></rects>
      <tilted>0</tilted></_>
    <_>
      <rects>
        <_>
          13 6 2 2 -1.</_>
        <_>
          13 7 2 1 2.</_></rects>
      <tilted>0</tilted></_>
    <_>
      <rects>
        <_>
          13 9 2 6 -1.</_>
        <_>
          13 9 1 3 2.</_>
        <_>
          14 12 1 3 2.</_></rects>
      <tilted>0</tilted></_>
    <_>
      <rects>
        <_>
          13 9 2 4 -1.</_>
        <_>
          14 9 1 4 2.</_></rects>
      <tilted>0</tilted></_>
    <_>
      <rects>
        <_>
          13 10 2 3 -1.</_>
        <_>
          14 10 1 3 2.</_></rects>
      <tilted>0</tilted></_>
    <_>
      <rects>
        <_>
          13 10 2 4 -1.</_>
        <_>
          14 10 1 4 2.</_></rects>
      <tilted>0</tilted></_>
    <_>
      <rects>
        <_>
          13 10 2 2 -1.</_>
        <_>
          13 11 2 1 2.</_></rects>
      <tilted>0</tilted></_>
    <_>
      <rects>
        <_>
          13 11 2 2 -1.</_>
        <_>
          13 12 2 1 2.</_></rects>
      <tilted>0</tilted></_>
    <_>
      <rects>
        <_>
          13 12 2 2 -1.</_>
        <_>
          13 13 2 1 2.</_></rects>
      <tilted>0</tilted></_>
    <_>
      <rects>
        <_>
          14 4 2 6 -1.</_>
        <_>
          15 4 1 6 2.</_></rects>
      <tilted>0</tilted></_>
    <_>
      <rects>
        <_>
          14 4 2 14 -1.</_>
        <_>
          14 4 1 7 2.</_>
        <_>
          15 11 1 7 2.</_></rects>
      <tilted>0</tilted></_>
    <_>
      <rects>
        <_>
          14 5 1 6 -1.</_>
        <_>
          14 8 1 3 2.</_></rects>
      <tilted>0</tilted></_>
    <_>
      <rects>
        <_>
          14 5 1 9 -1.</_>
        <_>
          14 8 1 3 2.</_></rects>
      <tilted>0</tilted></_>
    <_>
      <rects>
        <_>
          14 5 2 9 -1.</_>
        <_>
          15 5 1 9 2.</_></rects>
      <tilted>0</tilted></_>
    <_>
      <rects>
        <_>
          14 5 4 10 -1.</_>
        <_>
          16 5 2 10 2.</_></rects>
      <tilted>0</tilted></_>
    <_>
      <rects>
        <_>
          14 6 1 4 -1.</_>
        <_>
          14 8 1 2 2.</_></rects>
      <tilted>0</tilted></_>
    <_>
      <rects>
        <_>
          14 6 1 6 -1.</_>
        <_>
          14 9 1 3 2.</_></rects>
      <tilted>0</tilted></_>
    <_>
      <rects>
        <_>
          14 6 2 4 -1.</_>
        <_>
          14 8 2 2 2.</_></rects>
      <tilted>0</tilted></_>
    <_>
      <rects>
        <_>
          14 7 2 3 -1.</_>
        <_>
          15 7 1 3 2.</_></rects>
      <tilted>0</tilted></_>
    <_>
      <rects>
        <_>
          14 7 2 6 -1.</_>
        <_>
          14 10 2 3 2.</_></rects>
      <tilted>0</tilted></_>
    <_>
      <rects>
        <_>
          14 8 2 2 -1.</_>
        <_>
          15 8 1 2 2.</_></rects>
      <tilted>0</tilted></_>
    <_>
      <rects>
        <_>
          14 9 4 5 -1.</_>
        <_>
          16 9 2 5 2.</_></rects>
      <tilted>0</tilted></_>
    <_>
      <rects>
        <_>
          15 5 2 11 -1.</_>
        <_>
          16 5 1 11 2.</_></rects>
      <tilted>0</tilted></_>
    <_>
      <rects>
        <_>
          15 9 2 6 -1.</_>
        <_>
          16 9 1 6 2.</_></rects>
      <tilted>0</tilted></_>
    <_>
      <rects>
        <_>
          15 10 2 3 -1.</_>
        <_>
          16 10 1 3 2.</_></rects>
      <tilted>0</tilted></_>
    <_>
      <rects>
        <_>
          15 10 2 4 -1.</_>
        <_>
          16 10 1 4 2.</_></rects>
      <tilted>0</tilted></_>
    <_>
      <rects>
        <_>
          15 16 2 2 -1.</_>
        <_>
          15 16 1 1 2.</_>
        <_>
          16 17 1 1 2.</_></rects>
      <tilted>0</tilted></_>
    <_>
      <rects>
        <_>
          15 17 2 1 -1.</_>
        <_>
          16 17 1 1 2.</_></rects>
      <tilted>0</tilted></_>
    <_>
      <rects>
        <_>
          16 0 2 1 -1.</_>
        <_>
          17 0 1 1 2.</_></rects>
      <tilted>0</tilted></_>
    <_>
      <rects>
        <_>
          16 0 2 2 -1.</_>
        <_>
          17 0 1 2 2.</_></rects>
      <tilted>0</tilted></_>
    <_>
      <rects>
        <_>
          16 1 2 4 -1.</_>
        <_>
          16 1 1 2 2.</_>
        <_>
          17 3 1 2 2.</_></rects>
      <tilted>0</tilted></_>
    <_>
      <rects>
        <_>
          16 4 2 4 -1.</_>
        <_>
          16 4 1 2 2.</_>
        <_>
          17 6 1 2 2.</_></rects>
      <tilted>0</tilted></_>
    <_>
      <rects>
        <_>
          16 12 2 5 -1.</_>
        <_>
          17 12 1 5 2.</_></rects>
      <tilted>0</tilted></_></features></cascade>
</opencv_storage>
