<?xml version="1.0"?>
<opencv_storage>
<stage0>
  <maxWeakCount>6</maxWeakCount>
  <stageThreshold>-5.9642529487609863e-01</stageThreshold>
  <weakClassifiers>
    <_>
      <internalNodes>
        0 -1 49676 1.6239063814282417e-02</internalNodes>
      <leafValues>
        -2.6390114426612854e-01 8.6740332841873169e-01</leafValues></_>
    <_>
      <internalNodes>
        0 -1 14555 1.7214015126228333e-02</internalNodes>
      <leafValues>
        -2.6203310489654541e-01 8.5888057947158813e-01</leafValues></_>
    <_>
      <internalNodes>
        0 -1 48784 -5.9324260801076889e-03</internalNodes>
      <leafValues>
        8.4111654758453369e-01 -2.5766283273696899e-01</leafValues></_>
    <_>
      <internalNodes>
        0 -1 49641 8.4127681329846382e-03</internalNodes>
      <leafValues>
        -2.7835372090339661e-01 7.2543233633041382e-01</leafValues></_>
    <_>
      <internalNodes>
        0 -1 24225 -1.3217541575431824e-01</internalNodes>
      <leafValues>
        -9.0573245286941528e-01 2.8868883848190308e-01</leafValues></_>
    <_>
      <internalNodes>
        0 -1 16932 -2.8870281577110291e-01</internalNodes>
      <leafValues>
        2.5034424662590027e-01 -7.6971316337585449e-01</leafValues></_></weakClassifiers></stage0>
</opencv_storage>
