<?xml version="1.0"?>
<opencv_storage>
<stage2>
  <maxWeakCount>11</maxWeakCount>
  <stageThreshold>-1.0968536138534546e+00</stageThreshold>
  <weakClassifiers>
    <_>
      <internalNodes>
        0 -1 29206 -4.6876400709152222e-01</internalNodes>
      <leafValues>
        6.9212269783020020e-01 -4.7625508904457092e-01</leafValues></_>
    <_>
      <internalNodes>
        0 -1 14214 -1.3582448009401560e-03</internalNodes>
      <leafValues>
        5.8412754535675049e-01 -3.0198374390602112e-01</leafValues></_>
    <_>
      <internalNodes>
        0 -1 47090 -2.0424980670213699e-02</internalNodes>
      <leafValues>
        5.5793106555938721e-01 -3.9595830440521240e-01</leafValues></_>
    <_>
      <internalNodes>
        0 -1 10624 3.2661382108926773e-02</internalNodes>
      <leafValues>
        -2.2301881015300751e-01 7.1047937870025635e-01</leafValues></_>
    <_>
      <internalNodes>
        0 -1 49868 2.2231522016227245e-03</internalNodes>
      <leafValues>
        -3.2089355587959290e-01 3.8804057240486145e-01</leafValues></_>
    <_>
      <internalNodes>
        0 -1 13903 -1.4992214273661375e-03</internalNodes>
      <leafValues>
        4.7588068246841431e-01 -2.7300080657005310e-01</leafValues></_>
    <_>
      <internalNodes>
        0 -1 19457 -6.6471891477704048e-03</internalNodes>
      <leafValues>
        5.9863287210464478e-01 -2.2024184465408325e-01</leafValues></_>
    <_>
      <internalNodes>
        0 -1 50908 5.4483218118548393e-03</internalNodes>
      <leafValues>
        -3.0213585495948792e-01 4.1833147406578064e-01</leafValues></_>
    <_>
      <internalNodes>
        0 -1 47505 -2.2701886482536793e-03</internalNodes>
      <leafValues>
        5.4077070951461792e-01 -2.3255197703838348e-01</leafValues></_>
    <_>
      <internalNodes>
        0 -1 5019 4.1978381574153900e-02</internalNodes>
      <leafValues>
        -1.5427514910697937e-01 7.7700698375701904e-01</leafValues></_>
    <_>
      <internalNodes>
        0 -1 28214 -1.4985892921686172e-02</internalNodes>
      <leafValues>
        6.2865895032882690e-01 -2.5102749466896057e-01</leafValues></_></weakClassifiers></stage2>
</opencv_storage>
