<?xml version="1.0"?>
<opencv_storage>
<stage5>
  <maxWeakCount>10</maxWeakCount>
  <stageThreshold>-8.6098825931549072e-01</stageThreshold>
  <weakClassifiers>
    <_>
      <internalNodes>
        0 -1 48310 -9.0520851314067841e-02</internalNodes>
      <leafValues>
        -2.7064803242683411e-01 6.2802231311798096e-01</leafValues></_>
    <_>
      <internalNodes>
        0 -1 14550 2.0607370883226395e-02</internalNodes>
      <leafValues>
        -2.7084878087043762e-01 6.7979085445404053e-01</leafValues></_>
    <_>
      <internalNodes>
        0 -1 45447 -1.6284052282571793e-02</internalNodes>
      <leafValues>
        6.2180787324905396e-01 -3.1779959797859192e-01</leafValues></_>
    <_>
      <internalNodes>
        0 -1 49798 3.3318661153316498e-03</internalNodes>
      <leafValues>
        -4.0825125575065613e-01 3.7234115600585938e-01</leafValues></_>
    <_>
      <internalNodes>
        0 -1 2735 -7.1787172928452492e-03</internalNodes>
      <leafValues>
        4.0036347508430481e-01 -2.8401362895965576e-01</leafValues></_>
    <_>
      <internalNodes>
        0 -1 50904 9.6487347036600113e-03</internalNodes>
      <leafValues>
        -1.9811815023422241e-01 5.4291045665740967e-01</leafValues></_>
    <_>
      <internalNodes>
        0 -1 47442 1.7280299216508865e-02</internalNodes>
      <leafValues>
        -1.7621880769729614e-01 6.7900264263153076e-01</leafValues></_>
    <_>
      <internalNodes>
        0 -1 42133 -5.4324720054864883e-02</internalNodes>
      <leafValues>
        -6.3870942592620850e-01 1.9086036086082458e-01</leafValues></_>
    <_>
      <internalNodes>
        0 -1 48357 -7.5522242113947868e-03</internalNodes>
      <leafValues>
        4.4268116354942322e-01 -2.1605235338211060e-01</leafValues></_>
    <_>
      <internalNodes>
        0 -1 13911 6.5334858372807503e-03</internalNodes>
      <leafValues>
        -2.0403125882148743e-01 5.0334233045578003e-01</leafValues></_></weakClassifiers></stage5>
</opencv_storage>
