<?xml version="1.0"?>
<opencv_storage>
<stage2>
  <maxWeakCount>5</maxWeakCount>
  <stageThreshold>-7.8236204385757446e-01</stageThreshold>
  <weakClassifiers>
    <_>
      <internalNodes>
        0 -1 34880 -1.8275037407875061e-02</internalNodes>
      <leafValues>
        7.7735370397567749e-01 -5.0966185331344604e-01</leafValues></_>
    <_>
      <internalNodes>
        0 -1 50653 4.0644966065883636e-03</internalNodes>
      <leafValues>
        -6.9255429506301880e-01 6.7182755470275879e-01</leafValues></_>
    <_>
      <internalNodes>
        0 -1 18802 -1.4946398138999939e-01</internalNodes>
      <leafValues>
        -9.1403496265411377e-01 3.8087788224220276e-01</leafValues></_>
    <_>
      <internalNodes>
        0 -1 15193 5.4951746016740799e-02</internalNodes>
      <leafValues>
        -4.6532291173934937e-01 7.8050816059112549e-01</leafValues></_>
    <_>
      <internalNodes>
        0 -1 46759 2.3230586666613817e-03</internalNodes>
      <leafValues>
        -6.3254499435424805e-01 5.0429910421371460e-01</leafValues></_></weakClassifiers></stage2>
</opencv_storage>
