<?xml version="1.0"?>
<opencv_storage>
<stage6>
  <maxWeakCount>10</maxWeakCount>
  <stageThreshold>-1.3509774208068848e+00</stageThreshold>
  <weakClassifiers>
    <_>
      <internalNodes>
        0 -1 50701 2.3979232646524906e-03</internalNodes>
      <leafValues>
        -4.5534408092498779e-01 6.4705884456634521e-01</leafValues></_>
    <_>
      <internalNodes>
        0 -1 9546 -1.2703935615718365e-02</internalNodes>
      <leafValues>
        4.2105802893638611e-01 -5.0165992975234985e-01</leafValues></_>
    <_>
      <internalNodes>
        0 -1 23015 1.8260891083627939e-03</internalNodes>
      <leafValues>
        -5.1808840036392212e-01 3.9015191793441772e-01</leafValues></_>
    <_>
      <internalNodes>
        0 -1 18560 7.0232637226581573e-02</internalNodes>
      <leafValues>
        2.5286480784416199e-01 -7.6289755105972290e-01</leafValues></_>
    <_>
      <internalNodes>
        0 -1 45460 -4.1114073246717453e-03</internalNodes>
      <leafValues>
        4.2821964621543884e-01 -3.8908484578132629e-01</leafValues></_>
    <_>
      <internalNodes>
        0 -1 31787 -2.5915240868926048e-02</internalNodes>
      <leafValues>
        -6.4179658889770508e-01 2.6170155405998230e-01</leafValues></_>
    <_>
      <internalNodes>
        0 -1 51452 2.5032972916960716e-03</internalNodes>
      <leafValues>
        -5.0557279586791992e-01 2.3232325911521912e-01</leafValues></_>
    <_>
      <internalNodes>
        0 -1 31223 2.1382138133049011e-02</internalNodes>
      <leafValues>
        1.6582649946212769e-01 -8.5385668277740479e-01</leafValues></_>
    <_>
      <internalNodes>
        0 -1 14390 1.2068212963640690e-03</internalNodes>
      <leafValues>
        -7.8142118453979492e-01 1.3804312050342560e-01</leafValues></_>
    <_>
      <internalNodes>
        0 -1 34094 -3.0438927933573723e-03</internalNodes>
      <leafValues>
        1.8300016224384308e-01 -6.5179407596588135e-01</leafValues></_></weakClassifiers></stage6>
</opencv_storage>
