<?xml version="1.0"?>
<opencv_storage>
<stage6>
  <maxWeakCount>6</maxWeakCount>
  <stageThreshold>-7.8777664899826050e-01</stageThreshold>
  <weakClassifiers>
    <_>
      <internalNodes>
        0 -1 23324 -8.1044074613600969e-04</internalNodes>
      <leafValues>
        -8.0874317884445190e-01 5.3883969783782959e-01</leafValues></_>
    <_>
      <internalNodes>
        0 -1 23584 7.4773922096937895e-04</internalNodes>
      <leafValues>
        2.7578207850456238e-01 -8.8344514369964600e-01</leafValues></_>
    <_>
      <internalNodes>
        0 -1 23332 -3.0199289321899414e-03</internalNodes>
      <leafValues>
        -8.1790065765380859e-01 2.3232677578926086e-01</leafValues></_>
    <_>
      <internalNodes>
        0 -1 41137 -2.9014168307185173e-02</internalNodes>
      <leafValues>
        6.1212784051895142e-01 -3.4350642561912537e-01</leafValues></_>
    <_>
      <internalNodes>
        0 -1 27365 1.3036744203418493e-03</internalNodes>
      <leafValues>
        -5.5744761228561401e-01 3.2841044664382935e-01</leafValues></_>
    <_>
      <internalNodes>
        0 -1 45141 6.7539513111114502e-02</internalNodes>
      <leafValues>
        -2.6845341920852661e-01 7.2174334526062012e-01</leafValues></_></weakClassifiers></stage6>
</opencv_storage>
