<?xml version="1.0"?>
<opencv_storage>
<stage4>
  <maxWeakCount>6</maxWeakCount>
  <stageThreshold>-1.0070881843566895e+00</stageThreshold>
  <weakClassifiers>
    <_>
      <internalNodes>
        0 -1 15104 -2.3567636311054230e-01</internalNodes>
      <leafValues>
        -8.0769228935241699e-01 7.8074246644973755e-01</leafValues></_>
    <_>
      <internalNodes>
        0 -1 48051 -1.8201574683189392e-02</internalNodes>
      <leafValues>
        5.7660883665084839e-01 -4.1778659820556641e-01</leafValues></_>
    <_>
      <internalNodes>
        0 -1 15286 -9.9453143775463104e-02</internalNodes>
      <leafValues>
        -3.6377879977226257e-01 5.7925820350646973e-01</leafValues></_>
    <_>
      <internalNodes>
        0 -1 18012 1.7974318470805883e-03</internalNodes>
      <leafValues>
        -6.7970257997512817e-01 3.5506150126457214e-01</leafValues></_>
    <_>
      <internalNodes>
        0 -1 48700 -3.1464308267459273e-04</internalNodes>
      <leafValues>
        2.3541745543479919e-01 -6.3237595558166504e-01</leafValues></_>
    <_>
      <internalNodes>
        0 -1 31776 -4.5460206456482410e-04</internalNodes>
      <leafValues>
        3.1115311384201050e-01 -5.6198012828826904e-01</leafValues></_></weakClassifiers></stage4>
</opencv_storage>
