<?xml version="1.0"?>
<opencv_storage>
<stage9>
  <maxWeakCount>17</maxWeakCount>
  <stageThreshold>-1.0897742509841919e+00</stageThreshold>
  <weakClassifiers>
    <_>
      <internalNodes>
        0 -1 18999 -1.1253741104155779e-03</internalNodes>
      <leafValues>
        -6.1559885740280151e-01 5.0024497509002686e-01</leafValues></_>
    <_>
      <internalNodes>
        0 -1 26544 1.3408201048150659e-03</internalNodes>
      <leafValues>
        -5.5319809913635254e-01 2.8589570522308350e-01</leafValues></_>
    <_>
      <internalNodes>
        0 -1 51444 2.9138936661183834e-03</internalNodes>
      <leafValues>
        -2.4674348533153534e-01 5.5562573671340942e-01</leafValues></_>
    <_>
      <internalNodes>
        0 -1 9517 -5.8871167711913586e-03</internalNodes>
      <leafValues>
        3.6608219146728516e-01 -3.3936884999275208e-01</leafValues></_>
    <_>
      <internalNodes>
        0 -1 48810 -2.8284553438425064e-02</internalNodes>
      <leafValues>
        4.3823936581611633e-01 -3.0408459901809692e-01</leafValues></_>
    <_>
      <internalNodes>
        0 -1 48701 3.7761131534352899e-04</internalNodes>
      <leafValues>
        1.7515203356742859e-01 -6.3582849502563477e-01</leafValues></_>
    <_>
      <internalNodes>
        0 -1 28289 -3.8823738694190979e-02</internalNodes>
      <leafValues>
        -7.8855723142623901e-01 1.4330635964870453e-01</leafValues></_>
    <_>
      <internalNodes>
        0 -1 19207 9.6517824567854404e-04</internalNodes>
      <leafValues>
        -3.8622087240219116e-01 2.9056054353713989e-01</leafValues></_>
    <_>
      <internalNodes>
        0 -1 32107 -4.2474279180169106e-03</internalNodes>
      <leafValues>
        3.0891522765159607e-01 -3.3458682894706726e-01</leafValues></_>
    <_>
      <internalNodes>
        0 -1 32022 2.3018769919872284e-02</internalNodes>
      <leafValues>
        -1.5417334437370300e-01 7.5773966312408447e-01</leafValues></_>
    <_>
      <internalNodes>
        0 -1 19208 7.0870248600840569e-04</internalNodes>
      <leafValues>
        2.0943278074264526e-01 -5.5648207664489746e-01</leafValues></_>
    <_>
      <internalNodes>
        0 -1 22416 5.3960207151249051e-04</internalNodes>
      <leafValues>
        1.9339187443256378e-01 -5.0659716129302979e-01</leafValues></_>
    <_>
      <internalNodes>
        0 -1 28052 4.4021598994731903e-02</internalNodes>
      <leafValues>
        1.2681916356086731e-01 -8.0832415819168091e-01</leafValues></_>
    <_>
      <internalNodes>
        0 -1 31943 -6.4149813260883093e-04</internalNodes>
      <leafValues>
        -5.6286972761154175e-01 1.5668635070323944e-01</leafValues></_>
    <_>
      <internalNodes>
        0 -1 40608 2.4926789104938507e-02</internalNodes>
      <leafValues>
        -1.7550878226757050e-01 6.3848185539245605e-01</leafValues></_>
    <_>
      <internalNodes>
        0 -1 38152 -6.9028101861476898e-03</internalNodes>
      <leafValues>
        5.9562939405441284e-01 -1.7823025584220886e-01</leafValues></_>
    <_>
      <internalNodes>
        0 -1 48730 -1.9891541451215744e-03</internalNodes>
      <leafValues>
        -4.8342216014862061e-01 2.2261348366737366e-01</leafValues></_></weakClassifiers></stage9>
</opencv_storage>
