<?xml version="1.0"?>
<opencv_storage>
<stage5>
  <maxWeakCount>10</maxWeakCount>
  <stageThreshold>-1.1067790985107422e+00</stageThreshold>
  <weakClassifiers>
    <_>
      <internalNodes>
        0 -1 49873 -1.0607097065076232e-03</internalNodes>
      <leafValues>
        5.5817526578903198e-01 -6.4365255832672119e-01</leafValues></_>
    <_>
      <internalNodes>
        0 -1 19241 5.1102992147207260e-03</internalNodes>
      <leafValues>
        -6.4259433746337891e-01 3.4706303477287292e-01</leafValues></_>
    <_>
      <internalNodes>
        0 -1 47410 -6.2944396631792188e-05</internalNodes>
      <leafValues>
        2.7527344226837158e-01 -7.3865205049514771e-01</leafValues></_>
    <_>
      <internalNodes>
        0 -1 38464 -3.0965637415647507e-03</internalNodes>
      <leafValues>
        3.8850763440132141e-01 -4.7968518733978271e-01</leafValues></_>
    <_>
      <internalNodes>
        0 -1 2781 -3.8376953452825546e-02</internalNodes>
      <leafValues>
        5.8812552690505981e-01 -3.4188953042030334e-01</leafValues></_>
    <_>
      <internalNodes>
        0 -1 37958 -9.5105990767478943e-02</internalNodes>
      <leafValues>
        -6.6420751810073853e-01 2.5394314527511597e-01</leafValues></_>
    <_>
      <internalNodes>
        0 -1 48854 -7.9373139888048172e-03</internalNodes>
      <leafValues>
        4.8953124880790710e-01 -3.1363758444786072e-01</leafValues></_>
    <_>
      <internalNodes>
        0 -1 19212 1.9057998433709145e-03</internalNodes>
      <leafValues>
        -3.8969460129737854e-01 3.6405777931213379e-01</leafValues></_>
    <_>
      <internalNodes>
        0 -1 18559 -5.1719754934310913e-02</internalNodes>
      <leafValues>
        -6.9546300172805786e-01 1.9014658033847809e-01</leafValues></_>
    <_>
      <internalNodes>
        0 -1 8775 1.8333360552787781e-01</internalNodes>
      <leafValues>
        1.4108687639236450e-01 -8.7954014539718628e-01</leafValues></_></weakClassifiers></stage5>
</opencv_storage>
