<?xml version="1.0"?>
<opencv_storage>
<stage8>
  <maxWeakCount>15</maxWeakCount>
  <stageThreshold>-9.3208301067352295e-01</stageThreshold>
  <weakClassifiers>
    <_>
      <internalNodes>
        0 -1 24005 3.3929973142221570e-04</internalNodes>
      <leafValues>
        -4.0740740299224854e-01 5.3471118211746216e-01</leafValues></_>
    <_>
      <internalNodes>
        0 -1 51452 5.9602735564112663e-03</internalNodes>
      <leafValues>
        -2.6292341947555542e-01 5.6639033555984497e-01</leafValues></_>
    <_>
      <internalNodes>
        0 -1 38413 -6.3627036288380623e-03</internalNodes>
      <leafValues>
        4.5043903589248657e-01 -3.9955374598503113e-01</leafValues></_>
    <_>
      <internalNodes>
        0 -1 49789 -5.0248764455318451e-04</internalNodes>
      <leafValues>
        -6.2910413742065430e-01 2.1618370711803436e-01</leafValues></_>
    <_>
      <internalNodes>
        0 -1 16201 -5.8611292392015457e-02</internalNodes>
      <leafValues>
        5.6023311614990234e-01 -2.4223788082599640e-01</leafValues></_>
    <_>
      <internalNodes>
        0 -1 37841 -7.8174501657485962e-02</internalNodes>
      <leafValues>
        8.0663925409317017e-01 -1.8557530641555786e-01</leafValues></_>
    <_>
      <internalNodes>
        0 -1 19994 7.6461985707283020e-02</internalNodes>
      <leafValues>
        -1.5878382325172424e-01 6.8086826801300049e-01</leafValues></_>
    <_>
      <internalNodes>
        0 -1 50932 -2.6969711761921644e-03</internalNodes>
      <leafValues>
        6.0643821954727173e-01 -2.0605055987834930e-01</leafValues></_>
    <_>
      <internalNodes>
        0 -1 47322 -3.3790278394008055e-05</internalNodes>
      <leafValues>
        2.2276437282562256e-01 -5.3616404533386230e-01</leafValues></_>
    <_>
      <internalNodes>
        0 -1 14222 1.1376361362636089e-03</internalNodes>
      <leafValues>
        -2.9725071787834167e-01 4.0416121482849121e-01</leafValues></_>
    <_>
      <internalNodes>
        0 -1 26271 3.0541982501745224e-02</internalNodes>
      <leafValues>
        1.2468091398477554e-01 -9.0900462865829468e-01</leafValues></_>
    <_>
      <internalNodes>
        0 -1 41290 -1.0704440996050835e-02</internalNodes>
      <leafValues>
        6.1283755302429199e-01 -1.9994823634624481e-01</leafValues></_>
    <_>
      <internalNodes>
        0 -1 38244 -4.0053520351648331e-03</internalNodes>
      <leafValues>
        4.1865250468254089e-01 -2.6017448306083679e-01</leafValues></_>
    <_>
      <internalNodes>
        0 -1 36969 6.6523225978016853e-03</internalNodes>
      <leafValues>
        -1.8784233927726746e-01 5.1457643508911133e-01</leafValues></_>
    <_>
      <internalNodes>
        0 -1 27936 1.4596031978726387e-02</internalNodes>
      <leafValues>
        -1.5926730632781982e-01 6.7794179916381836e-01</leafValues></_></weakClassifiers></stage8>
</opencv_storage>
