<?xml version="1.0"?>
<opencv_storage>
<stage9>
  <maxWeakCount>14</maxWeakCount>
  <stageThreshold>-1.2094357013702393e+00</stageThreshold>
  <weakClassifiers>
    <_>
      <internalNodes>
        0 -1 39970 -6.1560806352645159e-04</internalNodes>
      <leafValues>
        -7.1428573131561279e-01 5.1639747619628906e-01</leafValues></_>
    <_>
      <internalNodes>
        0 -1 28004 -3.4772236831486225e-03</internalNodes>
      <leafValues>
        4.6869069337844849e-01 -4.0532901883125305e-01</leafValues></_>
    <_>
      <internalNodes>
        0 -1 1307 -1.5153661370277405e-02</internalNodes>
      <leafValues>
        3.9364975690841675e-01 -4.1047772765159607e-01</leafValues></_>
    <_>
      <internalNodes>
        0 -1 24071 8.8886879384517670e-03</internalNodes>
      <leafValues>
        -6.7353260517120361e-01 2.0225590467453003e-01</leafValues></_>
    <_>
      <internalNodes>
        0 -1 27820 5.1034772768616676e-03</internalNodes>
      <leafValues>
        1.5825305879116058e-01 -7.6205486059188843e-01</leafValues></_>
    <_>
      <internalNodes>
        0 -1 35559 1.3995822519063950e-02</internalNodes>
      <leafValues>
        -2.0335546135902405e-01 7.1954125165939331e-01</leafValues></_>
    <_>
      <internalNodes>
        0 -1 27623 2.5181171949952841e-03</internalNodes>
      <leafValues>
        -6.6788172721862793e-01 1.7339657247066498e-01</leafValues></_>
    <_>
      <internalNodes>
        0 -1 10191 1.1441478133201599e-01</internalNodes>
      <leafValues>
        -1.8987572193145752e-01 7.2614532709121704e-01</leafValues></_>
    <_>
      <internalNodes>
        0 -1 31242 1.2989712413400412e-03</internalNodes>
      <leafValues>
        1.8857547640800476e-01 -8.8388967514038086e-01</leafValues></_>
    <_>
      <internalNodes>
        0 -1 38467 -5.8412742801010609e-03</internalNodes>
      <leafValues>
        6.2476187944412231e-01 -2.0278282463550568e-01</leafValues></_>
    <_>
      <internalNodes>
        0 -1 34148 3.4606338012963533e-03</internalNodes>
      <leafValues>
        1.3992163538932800e-01 -7.8589171171188354e-01</leafValues></_>
    <_>
      <internalNodes>
        0 -1 31209 -1.7636377597227693e-03</internalNodes>
      <leafValues>
        -5.9554141759872437e-01 1.9798314571380615e-01</leafValues></_>
    <_>
      <internalNodes>
        0 -1 47348 -2.1675401367247105e-03</internalNodes>
      <leafValues>
        2.7394291758537292e-01 -4.1066819429397583e-01</leafValues></_>
    <_>
      <internalNodes>
        0 -1 31181 -7.8369906987063587e-05</internalNodes>
      <leafValues>
        1.5502333641052246e-01 -7.3361831903457642e-01</leafValues></_></weakClassifiers></stage9>
</opencv_storage>
