<?xml version="1.0"?>
<opencv_storage>
<cascade>
  <stageType>BOOST</stageType>
  <featureType>HAAR</featureType>
  <height>18</height>
  <width>18</width>
  <stageParams>
    <boostType>GAB</boostType>
    <minHitRate>9.9500000476837158e-01</minHitRate>
    <maxFalseAlarm>5.0000000000000000e-01</maxFalseAlarm>
    <weightTrimRate>9.4999999999999996e-01</weightTrimRate>
    <maxDepth>1</maxDepth>
    <maxWeakCount>100</maxWeakCount></stageParams>
  <featureParams>
    <maxCatCount>0</maxCatCount>
    <featSize>1</featSize>
    <mode>BASIC</mode></featureParams>
  <stageNum>8</stageNum>
  <stages>
    <!-- stage 0 -->
    <_>
      <maxWeakCount>2</maxWeakCount>
      <stageThreshold>-2.2956313565373421e-02</stageThreshold>
      <weakClassifiers>
        <_>
          <internalNodes>
            0 -1 10 -2.5743383914232254e-02</internalNodes>
          <leafValues>
            8.0081063508987427e-01 -8.6627042293548584e-01</leafValues></_>
        <_>
          <internalNodes>
            0 -1 27 -3.5343854688107967e-03</internalNodes>
          <leafValues>
            8.4331411123275757e-01 -5.2445083856582642e-01</leafValues></_></weakClassifiers></_>
    <!-- stage 1 -->
    <_>
      <maxWeakCount>3</maxWeakCount>
      <stageThreshold>-4.9498888850212097e-01</stageThreshold>
      <weakClassifiers>
        <_>
          <internalNodes>
            0 -1 23 -1.8763304688036442e-03</internalNodes>
          <leafValues>
            6.4847850799560547e-01 -8.8259106874465942e-01</leafValues></_>
        <_>
          <internalNodes>
            0 -1 21 1.4627374475821853e-03</internalNodes>
          <leafValues>
            -7.1109843254089355e-01 6.7828214168548584e-01</leafValues></_>
        <_>
          <internalNodes>
            0 -1 28 5.8423397131264210e-03</internalNodes>
          <leafValues>
            -4.3236896395683289e-01 8.3613228797912598e-01</leafValues></_></weakClassifiers></_>
    <!-- stage 2 -->
    <_>
      <maxWeakCount>4</maxWeakCount>
      <stageThreshold>-5.3588956594467163e-01</stageThreshold>
      <weakClassifiers>
        <_>
          <internalNodes>
            0 -1 7 2.7540643714019097e-05</internalNodes>
          <leafValues>
            -8.7980771064758301e-01 5.8770161867141724e-01</leafValues></_>
        <_>
          <internalNodes>
            0 -1 16 1.1465803720057011e-02</internalNodes>
          <leafValues>
            -4.6192857623100281e-01 8.5560262203216553e-01</leafValues></_>
        <_>
          <internalNodes>
            0 -1 8 3.4829853102564812e-03</internalNodes>
          <leafValues>
            4.4211897253990173e-01 -9.3229633569717407e-01</leafValues></_>
        <_>
          <internalNodes>
            0 -1 11 -5.3468849509954453e-03</internalNodes>
          <leafValues>
            -9.8346924781799316e-01 2.7063375711441040e-01</leafValues></_></weakClassifiers></_>
    <!-- stage 3 -->
    <_>
      <maxWeakCount>4</maxWeakCount>
      <stageThreshold>-6.3749665021896362e-01</stageThreshold>
      <weakClassifiers>
        <_>
          <internalNodes>
            0 -1 9 -1.2191493064165115e-01</internalNodes>
          <leafValues>
            -8.7969923019409180e-01 7.9827088117599487e-01</leafValues></_>
        <_>
          <internalNodes>
            0 -1 7 2.5299885310232639e-03</internalNodes>
          <leafValues>
            5.0411260128021240e-01 -8.7726902961730957e-01</leafValues></_>
        <_>
          <internalNodes>
            0 -1 18 2.2102831862866879e-03</internalNodes>
          <leafValues>
            -7.0728957653045654e-01 4.2360687255859375e-01</leafValues></_>
        <_>
          <internalNodes>
            0 -1 25 -1.2837366666644812e-03</internalNodes>
          <leafValues>
            4.4537952542304993e-01 -6.6774922609329224e-01</leafValues></_></weakClassifiers></_>
    <!-- stage 4 -->
    <_>
      <maxWeakCount>4</maxWeakCount>
      <stageThreshold>-2.4132881313562393e-02</stageThreshold>
      <weakClassifiers>
        <_>
          <internalNodes>
            0 -1 12 4.1507817804813385e-03</internalNodes>
          <leafValues>
            5.7994043827056885e-01 -9.5336788892745972e-01</leafValues></_>
        <_>
          <internalNodes>
            0 -1 22 -1.1753374710679054e-03</internalNodes>
          <leafValues>
            -9.7351747751235962e-01 3.4544113278388977e-01</leafValues></_>
        <_>
          <internalNodes>
            0 -1 15 -9.6796901198104024e-04</internalNodes>
          <leafValues>
            -9.8321396112442017e-01 2.2457805275917053e-01</leafValues></_>
        <_>
          <internalNodes>
            0 -1 26 -1.4534974470734596e-03</internalNodes>
          <leafValues>
            3.5921582579612732e-01 -7.9927033185958862e-01</leafValues></_></weakClassifiers></_>
    <!-- stage 5 -->
    <_>
      <maxWeakCount>5</maxWeakCount>
      <stageThreshold>-4.5103096961975098e-01</stageThreshold>
      <weakClassifiers>
        <_>
          <internalNodes>
            0 -1 19 1.3289391063153744e-03</internalNodes>
          <leafValues>
            5.8396750688552856e-01 -8.1818181276321411e-01</leafValues></_>
        <_>
          <internalNodes>
            0 -1 1 1.5353620052337646e-02</internalNodes>
          <leafValues>
            -4.1422930359840393e-01 6.5860271453857422e-01</leafValues></_>
        <_>
          <internalNodes>
            0 -1 5 -7.8190804924815893e-04</internalNodes>
          <leafValues>
            3.1474074721336365e-01 -9.1028732061386108e-01</leafValues></_>
        <_>
          <internalNodes>
            0 -1 6 -1.7907877918332815e-03</internalNodes>
          <leafValues>
            -8.8247030973434448e-01 3.1738361716270447e-01</leafValues></_>
        <_>
          <internalNodes>
            0 -1 17 2.7162284823134542e-04</internalNodes>
          <leafValues>
            -7.5176209211349487e-01 2.7627772092819214e-01</leafValues></_></weakClassifiers></_>
    <!-- stage 6 -->
    <_>
      <maxWeakCount>6</maxWeakCount>
      <stageThreshold>-6.2756264209747314e-01</stageThreshold>
      <weakClassifiers>
        <_>
          <internalNodes>
            0 -1 6 1.0192129411734641e-04</internalNodes>
          <leafValues>
            5.5599021911621094e-01 -9.4929575920104980e-01</leafValues></_>
        <_>
          <internalNodes>
            0 -1 24 -3.0980376322986558e-05</internalNodes>
          <leafValues>
            3.9872828125953674e-01 -7.2522145509719849e-01</leafValues></_>
        <_>
          <internalNodes>
            0 -1 2 -1.0713892057538033e-02</internalNodes>
          <leafValues>
            6.0929274559020996e-01 -4.5312005281448364e-01</leafValues></_>
        <_>
          <internalNodes>
            0 -1 3 2.1633279975503683e-03</internalNodes>
          <leafValues>
            -4.5484596490859985e-01 5.5747282505035400e-01</leafValues></_>
        <_>
          <internalNodes>
            0 -1 13 -5.3002546337665990e-05</internalNodes>
          <leafValues>
            2.6201206445693970e-01 -9.2532616853713989e-01</leafValues></_>
        <_>
          <internalNodes>
            0 -1 20 9.2846769839525223e-03</internalNodes>
          <leafValues>
            -4.5239248871803284e-01 5.6895881891250610e-01</leafValues></_></weakClassifiers></_>
    <!-- stage 7 -->
    <_>
      <maxWeakCount>4</maxWeakCount>
      <stageThreshold>-8.9063994586467743e-02</stageThreshold>
      <weakClassifiers>
        <_>
          <internalNodes>
            0 -1 14 -1.4244422316551208e-01</internalNodes>
          <leafValues>
            -9.0547263622283936e-01 5.8258259296417236e-01</leafValues></_>
        <_>
          <internalNodes>
            0 -1 4 -3.6525679752230644e-03</internalNodes>
          <leafValues>
            -9.6701765060424805e-01 2.9562479257583618e-01</leafValues></_>
        <_>
          <internalNodes>
            0 -1 29 1.4649619348347187e-02</internalNodes>
          <leafValues>
            -3.3631065487861633e-01 8.5787862539291382e-01</leafValues></_>
        <_>
          <internalNodes>
            0 -1 0 -1.1209509335458279e-02</internalNodes>
          <leafValues>
            8.5709452629089355e-01 -2.6734220981597900e-01</leafValues></_></weakClassifiers></_></stages>
  <features>
    <_>
      <rects>
        <_>
          0 11 2 4 -1.</_>
        <_>
          1 11 1 4 2.</_></rects>
      <tilted>0</tilted></_>
    <_>
      <rects>
        <_>
          2 16 14 2 -1.</_>
        <_>
          2 17 14 1 2.</_></rects>
      <tilted>0</tilted></_>
    <_>
      <rects>
        <_>
          3 1 5 4 -1.</_>
        <_>
          3 3 5 2 2.</_></rects>
      <tilted>0</tilted></_>
    <_>
      <rects>
        <_>
          3 11 2 4 -1.</_>
        <_>
          4 11 1 4 2.</_></rects>
      <tilted>0</tilted></_>
    <_>
      <rects>
        <_>
          4 6 1 6 -1.</_>
        <_>
          4 9 1 3 2.</_></rects>
      <tilted>0</tilted></_>
    <_>
      <rects>
        <_>
          4 7 2 6 -1.</_>
        <_>
          4 10 2 3 2.</_></rects>
      <tilted>0</tilted></_>
    <_>
      <rects>
        <_>
          4 8 1 4 -1.</_>
        <_>
          4 10 1 2 2.</_></rects>
      <tilted>0</tilted></_>
    <_>
      <rects>
        <_>
          4 11 4 1 -1.</_>
        <_>
          6 11 2 1 2.</_></rects>
      <tilted>0</tilted></_>
    <_>
      <rects>
        <_>
          4 11 6 1 -1.</_>
        <_>
          7 11 3 1 2.</_></rects>
      <tilted>0</tilted></_>
    <_>
      <rects>
        <_>
          4 13 12 2 -1.</_>
        <_>
          8 13 4 2 2.</_></rects>
      <tilted>0</tilted></_>
    <_>
      <rects>
        <_>
          5 10 8 6 -1.</_>
        <_>
          5 13 8 3 2.</_></rects>
      <tilted>0</tilted></_>
    <_>
      <rects>
        <_>
          5 11 8 2 -1.</_>
        <_>
          9 11 4 2 2.</_></rects>
      <tilted>0</tilted></_>
    <_>
      <rects>
        <_>
          5 12 10 1 -1.</_>
        <_>
          10 12 5 1 2.</_></rects>
      <tilted>0</tilted></_>
    <_>
      <rects>
        <_>
          6 11 1 2 -1.</_>
        <_>
          6 12 1 1 2.</_></rects>
      <tilted>0</tilted></_>
    <_>
      <rects>
        <_>
          6 11 4 6 -1.</_>
        <_>
          6 13 4 2 2.</_></rects>
      <tilted>0</tilted></_>
    <_>
      <rects>
        <_>
          6 12 4 1 -1.</_>
        <_>
          8 12 2 1 2.</_></rects>
      <tilted>0</tilted></_>
    <_>
      <rects>
        <_>
          6 16 9 2 -1.</_>
        <_>
          6 17 9 1 2.</_></rects>
      <tilted>0</tilted></_>
    <_>
      <rects>
        <_>
          7 3 1 2 -1.</_>
        <_>
          7 4 1 1 2.</_></rects>
      <tilted>0</tilted></_>
    <_>
      <rects>
        <_>
          7 3 4 2 -1.</_>
        <_>
          7 4 4 1 2.</_></rects>
      <tilted>0</tilted></_>
    <_>
      <rects>
        <_>
          7 12 4 1 -1.</_>
        <_>
          9 12 2 1 2.</_></rects>
      <tilted>0</tilted></_>
    <_>
      <rects>
        <_>
          7 16 4 2 -1.</_>
        <_>
          7 17 4 1 2.</_></rects>
      <tilted>0</tilted></_>
    <_>
      <rects>
        <_>
          8 3 3 2 -1.</_>
        <_>
          8 4 3 1 2.</_></rects>
      <tilted>0</tilted></_>
    <_>
      <rects>
        <_>
          8 12 4 1 -1.</_>
        <_>
          10 12 2 1 2.</_></rects>
      <tilted>0</tilted></_>
    <_>
      <rects>
        <_>
          8 14 3 2 -1.</_>
        <_>
          8 15 3 1 2.</_></rects>
      <tilted>0</tilted></_>
    <_>
      <rects>
        <_>
          9 12 6 2 -1.</_>
        <_>
          9 12 3 1 2.</_>
        <_>
          12 13 3 1 2.</_></rects>
      <tilted>0</tilted></_>
    <_>
      <rects>
        <_>
          11 14 1 2 -1.</_>
        <_>
          11 15 1 1 2.</_></rects>
      <tilted>0</tilted></_>
    <_>
      <rects>
        <_>
          13 6 2 7 -1.</_>
        <_>
          14 6 1 7 2.</_></rects>
      <tilted>0</tilted></_>
    <_>
      <rects>
        <_>
          14 10 2 3 -1.</_>
        <_>
          15 10 1 3 2.</_></rects>
      <tilted>0</tilted></_>
    <_>
      <rects>
        <_>
          16 9 2 5 -1.</_>
        <_>
          17 9 1 5 2.</_></rects>
      <tilted>0</tilted></_>
    <_>
      <rects>
        <_>
          16 10 2 5 -1.</_>
        <_>
          17 10 1 5 2.</_></rects>
      <tilted>0</tilted></_></features></cascade>
</opencv_storage>
