<?xml version="1.0"?>
<opencv_storage>
<stage2>
  <maxWeakCount>17</maxWeakCount>
  <stageThreshold>-1.1141055822372437e+00</stageThreshold>
  <weakClassifiers>
    <_>
      <internalNodes>
        0 -1 36221 -4.4875460863113403e-01</internalNodes>
      <leafValues>
        7.5405406951904297e-01 -3.4347826242446899e-01</leafValues></_>
    <_>
      <internalNodes>
        0 -1 10354 9.9346796050667763e-03</internalNodes>
      <leafValues>
        -1.4018549025058746e-01 7.2469973564147949e-01</leafValues></_>
    <_>
      <internalNodes>
        0 -1 38244 -2.7205462101846933e-03</internalNodes>
      <leafValues>
        5.7149660587310791e-01 -2.1359710395336151e-01</leafValues></_>
    <_>
      <internalNodes>
        0 -1 10167 1.4129239134490490e-02</internalNodes>
      <leafValues>
        -1.5701700747013092e-01 7.9503154754638672e-01</leafValues></_>
    <_>
      <internalNodes>
        0 -1 48596 -3.5431142896413803e-03</internalNodes>
      <leafValues>
        5.3999346494674683e-01 -1.3435597717761993e-01</leafValues></_>
    <_>
      <internalNodes>
        0 -1 48596 4.4965534470975399e-03</internalNodes>
      <leafValues>
        -1.8037526309490204e-01 5.7388019561767578e-01</leafValues></_>
    <_>
      <internalNodes>
        0 -1 37589 -6.5737916156649590e-03</internalNodes>
      <leafValues>
        6.1724263429641724e-01 -1.0475409030914307e-01</leafValues></_>
    <_>
      <internalNodes>
        0 -1 14877 5.3895618766546249e-03</internalNodes>
      <leafValues>
        -1.6736377775669098e-01 4.7138816118240356e-01</leafValues></_>
    <_>
      <internalNodes>
        0 -1 11251 -1.5992316603660583e-01</internalNodes>
      <leafValues>
        4.7323000431060791e-01 -1.4980177581310272e-01</leafValues></_>
    <_>
      <internalNodes>
        0 -1 29662 9.5527684316039085e-03</internalNodes>
      <leafValues>
        -1.3354276120662689e-01 5.9058696031570435e-01</leafValues></_>
    <_>
      <internalNodes>
        0 -1 37330 3.7971548736095428e-03</internalNodes>
      <leafValues>
        -1.0995917022228241e-01 6.0187464952468872e-01</leafValues></_>
    <_>
      <internalNodes>
        0 -1 14776 -1.1949271429330111e-03</internalNodes>
      <leafValues>
        3.5181829333305359e-01 -2.0466163754463196e-01</leafValues></_>
    <_>
      <internalNodes>
        0 -1 40658 -3.6736711859703064e-02</internalNodes>
      <leafValues>
        -4.2152467370033264e-01 1.8388237059116364e-01</leafValues></_>
    <_>
      <internalNodes>
        0 -1 23327 1.5869888011366129e-03</internalNodes>
      <leafValues>
        -1.7165595293045044e-01 4.3337646126747131e-01</leafValues></_>
    <_>
      <internalNodes>
        0 -1 44809 2.6999413967132568e-02</internalNodes>
      <leafValues>
        9.4262443482875824e-02 -8.3451950550079346e-01</leafValues></_>
    <_>
      <internalNodes>
        0 -1 13973 -2.9079499654471874e-03</internalNodes>
      <leafValues>
        3.9882370829582214e-01 -1.8134143948554993e-01</leafValues></_>
    <_>
      <internalNodes>
        0 -1 18353 3.8998248055577278e-03</internalNodes>
      <leafValues>
        -1.3680577278137207e-01 4.8540663719177246e-01</leafValues></_></weakClassifiers></stage2>
</opencv_storage>
