<?xml version="1.0"?>
<opencv_storage>
<stage0>
  <maxWeakCount>11</maxWeakCount>
  <stageThreshold>-9.0006923675537109e-01</stageThreshold>
  <weakClassifiers>
    <_>
      <internalNodes>
        0 -1 50585 2.9041017405688763e-03</internalNodes>
      <leafValues>
        -1.7081260681152344e-01 8.4254604578018188e-01</leafValues></_>
    <_>
      <internalNodes>
        0 -1 37741 -1.6226122388616204e-03</internalNodes>
      <leafValues>
        6.5069788694381714e-01 -2.0011007785797119e-01</leafValues></_>
    <_>
      <internalNodes>
        0 -1 1765 -5.6636068038642406e-03</internalNodes>
      <leafValues>
        6.4405560493469238e-01 -2.7429610490798950e-01</leafValues></_>
    <_>
      <internalNodes>
        0 -1 14776 -1.2569510145112872e-03</internalNodes>
      <leafValues>
        5.1480841636657715e-01 -2.6487949490547180e-01</leafValues></_>
    <_>
      <internalNodes>
        0 -1 46432 -8.7235867977142334e-02</internalNodes>
      <leafValues>
        2.5106871128082275e-01 -5.8033943176269531e-01</leafValues></_>
    <_>
      <internalNodes>
        0 -1 39966 -5.3035083692520857e-04</internalNodes>
      <leafValues>
        4.0754789113998413e-01 -3.4032034873962402e-01</leafValues></_>
    <_>
      <internalNodes>
        0 -1 19504 -5.6292735971510410e-03</internalNodes>
      <leafValues>
        6.4155530929565430e-01 -1.7855902016162872e-01</leafValues></_>
    <_>
      <internalNodes>
        0 -1 32039 -2.5623053312301636e-01</internalNodes>
      <leafValues>
        -6.0716545581817627e-01 2.0674441754817963e-01</leafValues></_>
    <_>
      <internalNodes>
        0 -1 49917 2.0830240100622177e-02</internalNodes>
      <leafValues>
        -1.7895032465457916e-01 6.0382992029190063e-01</leafValues></_>
    <_>
      <internalNodes>
        0 -1 9219 8.1915743649005890e-03</internalNodes>
      <leafValues>
        -1.7182940244674683e-01 6.6574186086654663e-01</leafValues></_>
    <_>
      <internalNodes>
        0 -1 23954 2.0869748666882515e-02</internalNodes>
      <leafValues>
        -2.1569541096687317e-01 4.2187497019767761e-01</leafValues></_></weakClassifiers></stage0>
</opencv_storage>
