<?xml version="1.0"?>
<opencv_storage>
<cascade>
  <stageType>BOOST</stageType>
  <featureType>HAAR</featureType>
  <height>18</height>
  <width>18</width>
  <stageParams>
    <boostType>GAB</boostType>
    <minHitRate>9.9500000476837158e-01</minHitRate>
    <maxFalseAlarm>5.0000000000000000e-01</maxFalseAlarm>
    <weightTrimRate>9.4999999999999996e-01</weightTrimRate>
    <maxDepth>1</maxDepth>
    <maxWeakCount>100</maxWeakCount></stageParams>
  <featureParams>
    <maxCatCount>0</maxCatCount>
    <featSize>1</featSize>
    <mode>BASIC</mode></featureParams>
  <stageNum>9</stageNum>
  <stages>
    <!-- stage 0 -->
    <_>
      <maxWeakCount>2</maxWeakCount>
      <stageThreshold>-1.6621229052543640e-01</stageThreshold>
      <weakClassifiers>
        <_>
          <internalNodes>
            0 -1 13 2.2787321358919144e-03</internalNodes>
          <leafValues>
            -9.1755723953247070e-01 8.0286532640457153e-01</leafValues></_>
        <_>
          <internalNodes>
            0 -1 16 -3.3232018351554871e-02</internalNodes>
          <leafValues>
            7.5134497880935669e-01 -8.2419174909591675e-01</leafValues></_></weakClassifiers></_>
    <!-- stage 1 -->
    <_>
      <maxWeakCount>2</maxWeakCount>
      <stageThreshold>-1.6071252524852753e-01</stageThreshold>
      <weakClassifiers>
        <_>
          <internalNodes>
            0 -1 44 -6.1068905051797628e-04</internalNodes>
          <leafValues>
            8.3333331346511841e-01 -7.5396823883056641e-01</leafValues></_>
        <_>
          <internalNodes>
            0 -1 6 -5.0177752971649170e-02</internalNodes>
          <leafValues>
            -9.1050904989242554e-01 5.9325569868087769e-01</leafValues></_></weakClassifiers></_>
    <!-- stage 2 -->
    <_>
      <maxWeakCount>5</maxWeakCount>
      <stageThreshold>-1.0331271886825562e+00</stageThreshold>
      <weakClassifiers>
        <_>
          <internalNodes>
            0 -1 39 -8.5709441918879747e-04</internalNodes>
          <leafValues>
            6.3364291191101074e-01 -9.2640691995620728e-01</leafValues></_>
        <_>
          <internalNodes>
            0 -1 9 3.3236958086490631e-02</internalNodes>
          <leafValues>
            -4.4721665978431702e-01 8.0654329061508179e-01</leafValues></_>
        <_>
          <internalNodes>
            0 -1 15 -1.8383860588073730e-03</internalNodes>
          <leafValues>
            4.7057873010635376e-01 -7.9471427202224731e-01</leafValues></_>
        <_>
          <internalNodes>
            0 -1 14 7.9468230251222849e-04</internalNodes>
          <leafValues>
            -9.6775847673416138e-01 2.6377004384994507e-01</leafValues></_>
        <_>
          <internalNodes>
            0 -1 46 -7.2843121597543359e-04</internalNodes>
          <leafValues>
            3.1891694664955139e-01 -6.8860918283462524e-01</leafValues></_></weakClassifiers></_>
    <!-- stage 3 -->
    <_>
      <maxWeakCount>4</maxWeakCount>
      <stageThreshold>-5.0193035602569580e-01</stageThreshold>
      <weakClassifiers>
        <_>
          <internalNodes>
            0 -1 31 -4.6345517039299011e-02</internalNodes>
          <leafValues>
            -9.4745486974716187e-01 7.6884424686431885e-01</leafValues></_>
        <_>
          <internalNodes>
            0 -1 25 -2.7628058195114136e-01</internalNodes>
          <leafValues>
            -5.0378978252410889e-01 6.3491374254226685e-01</leafValues></_>
        <_>
          <internalNodes>
            0 -1 12 7.5538665987551212e-04</internalNodes>
          <leafValues>
            -8.9537835121154785e-01 3.4533184766769409e-01</leafValues></_>
        <_>
          <internalNodes>
            0 -1 50 1.0492280125617981e-02</internalNodes>
          <leafValues>
            -5.2669179439544678e-01 6.0398238897323608e-01</leafValues></_></weakClassifiers></_>
    <!-- stage 4 -->
    <_>
      <maxWeakCount>6</maxWeakCount>
      <stageThreshold>-7.8503543138504028e-01</stageThreshold>
      <weakClassifiers>
        <_>
          <internalNodes>
            0 -1 5 -4.7010403871536255e-01</internalNodes>
          <leafValues>
            -6.0661154985427856e-01 6.5013927221298218e-01</leafValues></_>
        <_>
          <internalNodes>
            0 -1 1 -2.9375439509749413e-02</internalNodes>
          <leafValues>
            6.7131733894348145e-01 -4.8824876546859741e-01</leafValues></_>
        <_>
          <internalNodes>
            0 -1 42 -5.2910065278410912e-04</internalNodes>
          <leafValues>
            3.6122515797615051e-01 -8.8679790496826172e-01</leafValues></_>
        <_>
          <internalNodes>
            0 -1 40 -1.5103528276085854e-03</internalNodes>
          <leafValues>
            4.3314754962921143e-01 -7.0134294033050537e-01</leafValues></_>
        <_>
          <internalNodes>
            0 -1 47 -2.3143980652093887e-03</internalNodes>
          <leafValues>
            3.9169722795486450e-01 -5.7864338159561157e-01</leafValues></_>
        <_>
          <internalNodes>
            0 -1 33 -2.2466145310318097e-05</internalNodes>
          <leafValues>
            2.5824546813964844e-01 -9.2665582895278931e-01</leafValues></_></weakClassifiers></_>
    <!-- stage 5 -->
    <_>
      <maxWeakCount>7</maxWeakCount>
      <stageThreshold>-1.0926203727722168e+00</stageThreshold>
      <weakClassifiers>
        <_>
          <internalNodes>
            0 -1 21 -8.3532097050920129e-05</internalNodes>
          <leafValues>
            5.3170734643936157e-01 -8.2857143878936768e-01</leafValues></_>
        <_>
          <internalNodes>
            0 -1 17 -1.8819911405444145e-02</internalNodes>
          <leafValues>
            8.3564233779907227e-01 -2.8417611122131348e-01</leafValues></_>
        <_>
          <internalNodes>
            0 -1 45 -3.3506340696476400e-04</internalNodes>
          <leafValues>
            3.3211538195610046e-01 -7.2326689958572388e-01</leafValues></_>
        <_>
          <internalNodes>
            0 -1 2 -2.4381950497627258e-02</internalNodes>
          <leafValues>
            5.2306586503982544e-01 -4.4171953201293945e-01</leafValues></_>
        <_>
          <internalNodes>
            0 -1 28 -5.5916799465194345e-04</internalNodes>
          <leafValues>
            2.4328112602233887e-01 -7.8949141502380371e-01</leafValues></_>
        <_>
          <internalNodes>
            0 -1 47 -2.0794833544641733e-03</internalNodes>
          <leafValues>
            2.6819223165512085e-01 -6.0604661703109741e-01</leafValues></_>
        <_>
          <internalNodes>
            0 -1 19 8.3922827616333961e-04</internalNodes>
          <leafValues>
            -9.0511465072631836e-01 1.8760043382644653e-01</leafValues></_></weakClassifiers></_>
    <!-- stage 6 -->
    <_>
      <maxWeakCount>8</maxWeakCount>
      <stageThreshold>-9.2017704248428345e-01</stageThreshold>
      <weakClassifiers>
        <_>
          <internalNodes>
            0 -1 43 -1.5925855841487646e-03</internalNodes>
          <leafValues>
            6.1279648542404175e-01 -5.2981263399124146e-01</leafValues></_>
        <_>
          <internalNodes>
            0 -1 30 1.2417381629347801e-02</internalNodes>
          <leafValues>
            -2.8476461768150330e-01 7.5888735055923462e-01</leafValues></_>
        <_>
          <internalNodes>
            0 -1 0 -3.8242496550083160e-02</internalNodes>
          <leafValues>
            5.1979345083236694e-01 -3.7489783763885498e-01</leafValues></_>
        <_>
          <internalNodes>
            0 -1 26 -6.2066683312878013e-04</internalNodes>
          <leafValues>
            -9.7832465171813965e-01 1.9369174540042877e-01</leafValues></_>
        <_>
          <internalNodes>
            0 -1 22 -2.1289093419909477e-03</internalNodes>
          <leafValues>
            3.3411020040512085e-01 -5.3120011091232300e-01</leafValues></_>
        <_>
          <internalNodes>
            0 -1 7 9.9232867360115051e-02</internalNodes>
          <leafValues>
            -2.9876020550727844e-01 7.1168351173400879e-01</leafValues></_>
        <_>
          <internalNodes>
            0 -1 38 -5.0904476083815098e-03</internalNodes>
          <leafValues>
            6.6774606704711914e-01 -2.1354588866233826e-01</leafValues></_>
        <_>
          <internalNodes>
            0 -1 37 -7.9377903603017330e-04</internalNodes>
          <leafValues>
            -6.8191725015640259e-01 2.5380218029022217e-01</leafValues></_></weakClassifiers></_>
    <!-- stage 7 -->
    <_>
      <maxWeakCount>10</maxWeakCount>
      <stageThreshold>-9.9668151140213013e-01</stageThreshold>
      <weakClassifiers>
        <_>
          <internalNodes>
            0 -1 35 7.0281005464494228e-03</internalNodes>
          <leafValues>
            4.9381542205810547e-01 -7.9865771532058716e-01</leafValues></_>
        <_>
          <internalNodes>
            0 -1 11 -1.9245687872171402e-02</internalNodes>
          <leafValues>
            7.8195148706436157e-01 -2.7556419372558594e-01</leafValues></_>
        <_>
          <internalNodes>
            0 -1 10 -3.0629798769950867e-01</internalNodes>
          <leafValues>
            -7.3930674791336060e-01 2.6337531208992004e-01</leafValues></_>
        <_>
          <internalNodes>
            0 -1 51 9.5803523436188698e-03</internalNodes>
          <leafValues>
            -3.8760337233543396e-01 4.9876201152801514e-01</leafValues></_>
        <_>
          <internalNodes>
            0 -1 41 -2.7899653650820255e-03</internalNodes>
          <leafValues>
            5.0807362794876099e-01 -4.0815901756286621e-01</leafValues></_>
        <_>
          <internalNodes>
            0 -1 24 -1.3744586613029242e-03</internalNodes>
          <leafValues>
            1.9919621944427490e-01 -7.6623636484146118e-01</leafValues></_>
        <_>
          <internalNodes>
            0 -1 8 4.8380188643932343e-02</internalNodes>
          <leafValues>
            -3.8917690515518188e-01 4.2400032281875610e-01</leafValues></_>
        <_>
          <internalNodes>
            0 -1 36 -8.9568560943007469e-03</internalNodes>
          <leafValues>
            6.8643271923065186e-01 -2.3543207347393036e-01</leafValues></_>
        <_>
          <internalNodes>
            0 -1 32 -2.5619653752073646e-04</internalNodes>
          <leafValues>
            -6.5956020355224609e-01 2.6447480916976929e-01</leafValues></_>
        <_>
          <internalNodes>
            0 -1 3 -4.3936436995863914e-03</internalNodes>
          <leafValues>
            4.3481582403182983e-01 -3.6935234069824219e-01</leafValues></_></weakClassifiers></_>
    <!-- stage 8 -->
    <_>
      <maxWeakCount>9</maxWeakCount>
      <stageThreshold>-7.9243528842926025e-01</stageThreshold>
      <weakClassifiers>
        <_>
          <internalNodes>
            0 -1 34 2.5104960513999686e-05</internalNodes>
          <leafValues>
            -5.5868542194366455e-01 5.2583587169647217e-01</leafValues></_>
        <_>
          <internalNodes>
            0 -1 4 -3.7379324436187744e-02</internalNodes>
          <leafValues>
            5.7429820299148560e-01 -2.9415425658226013e-01</leafValues></_>
        <_>
          <internalNodes>
            0 -1 23 -3.1059784814715385e-03</internalNodes>
          <leafValues>
            2.9231864213943481e-01 -6.4831399917602539e-01</leafValues></_>
        <_>
          <internalNodes>
            0 -1 20 1.3332869275473058e-04</internalNodes>
          <leafValues>
            1.7188163101673126e-01 -8.7743216753005981e-01</leafValues></_>
        <_>
          <internalNodes>
            0 -1 18 -3.6735653877258301e-01</internalNodes>
          <leafValues>
            -8.2363259792327881e-01 1.5143673121929169e-01</leafValues></_>
        <_>
          <internalNodes>
            0 -1 29 4.7202045097947121e-03</internalNodes>
          <leafValues>
            1.6493345797061920e-01 -8.1802403926849365e-01</leafValues></_>
        <_>
          <internalNodes>
            0 -1 49 7.2148051112890244e-03</internalNodes>
          <leafValues>
            -2.7507773041725159e-01 6.3387626409530640e-01</leafValues></_>
        <_>
          <internalNodes>
            0 -1 27 -1.8550995446275920e-04</internalNodes>
          <leafValues>
            1.3050560653209686e-01 -9.3989425897598267e-01</leafValues></_>
        <_>
          <internalNodes>
            0 -1 48 -7.3515146505087614e-04</internalNodes>
          <leafValues>
            3.5091722011566162e-01 -3.7231454253196716e-01</leafValues></_></weakClassifiers></_></stages>
  <features>
    <_>
      <rects>
        <_>
          0 1 4 14 -1.</_>
        <_>
          2 1 2 14 2.</_></rects>
      <tilted>0</tilted></_>
    <_>
      <rects>
        <_>
          0 4 4 11 -1.</_>
        <_>
          2 4 2 11 2.</_></rects>
      <tilted>0</tilted></_>
    <_>
      <rects>
        <_>
          0 8 4 6 -1.</_>
        <_>
          2 8 2 6 2.</_></rects>
      <tilted>0</tilted></_>
    <_>
      <rects>
        <_>
          1 10 2 3 -1.</_>
        <_>
          2 10 1 3 2.</_></rects>
      <tilted>0</tilted></_>
    <_>
      <rects>
        <_>
          2 0 13 4 -1.</_>
        <_>
          2 2 13 2 2.</_></rects>
      <tilted>0</tilted></_>
    <_>
      <rects>
        <_>
          2 3 15 11 -1.</_>
        <_>
          7 3 5 11 2.</_></rects>
      <tilted>0</tilted></_>
    <_>
      <rects>
        <_>
          2 10 15 1 -1.</_>
        <_>
          7 10 5 1 2.</_></rects>
      <tilted>0</tilted></_>
    <_>
      <rects>
        <_>
          2 11 16 6 -1.</_>
        <_>
          2 14 16 3 2.</_></rects>
      <tilted>0</tilted></_>
    <_>
      <rects>
        <_>
          2 12 14 6 -1.</_>
        <_>
          2 15 14 3 2.</_></rects>
      <tilted>0</tilted></_>
    <_>
      <rects>
        <_>
          2 14 15 4 -1.</_>
        <_>
          2 16 15 2 2.</_></rects>
      <tilted>0</tilted></_>
    <_>
      <rects>
        <_>
          3 2 12 7 -1.</_>
        <_>
          7 2 4 7 2.</_></rects>
      <tilted>0</tilted></_>
    <_>
      <rects>
        <_>
          4 0 10 2 -1.</_>
        <_>
          4 1 10 1 2.</_></rects>
      <tilted>0</tilted></_>
    <_>
      <rects>
        <_>
          4 7 2 4 -1.</_>
        <_>
          5 7 1 4 2.</_></rects>
      <tilted>0</tilted></_>
    <_>
      <rects>
        <_>
          4 7 4 2 -1.</_>
        <_>
          6 7 2 2 2.</_></rects>
      <tilted>0</tilted></_>
    <_>
      <rects>
        <_>
          4 8 4 1 -1.</_>
        <_>
          6 8 2 1 2.</_></rects>
      <tilted>0</tilted></_>
    <_>
      <rects>
        <_>
          4 8 2 4 -1.</_>
        <_>
          4 10 2 2 2.</_></rects>
      <tilted>0</tilted></_>
    <_>
      <rects>
        <_>
          4 8 9 6 -1.</_>
        <_>
          4 11 9 3 2.</_></rects>
      <tilted>0</tilted></_>
    <_>
      <rects>
        <_>
          5 0 10 2 -1.</_>
        <_>
          5 1 10 1 2.</_></rects>
      <tilted>0</tilted></_>
    <_>
      <rects>
        <_>
          5 0 10 18 -1.</_>
        <_>
          5 9 10 9 2.</_></rects>
      <tilted>0</tilted></_>
    <_>
      <rects>
        <_>
          5 7 2 3 -1.</_>
        <_>
          6 7 1 3 2.</_></rects>
      <tilted>0</tilted></_>
    <_>
      <rects>
        <_>
          5 8 1 2 -1.</_>
        <_>
          5 9 1 1 2.</_></rects>
      <tilted>0</tilted></_>
    <_>
      <rects>
        <_>
          5 9 1 2 -1.</_>
        <_>
          5 10 1 1 2.</_></rects>
      <tilted>0</tilted></_>
    <_>
      <rects>
        <_>
          5 10 1 4 -1.</_>
        <_>
          5 12 1 2 2.</_></rects>
      <tilted>0</tilted></_>
    <_>
      <rects>
        <_>
          5 10 2 4 -1.</_>
        <_>
          5 12 2 2 2.</_></rects>
      <tilted>0</tilted></_>
    <_>
      <rects>
        <_>
          5 10 4 2 -1.</_>
        <_>
          5 11 4 1 2.</_></rects>
      <tilted>0</tilted></_>
    <_>
      <rects>
        <_>
          6 1 8 15 -1.</_>
        <_>
          6 6 8 5 2.</_></rects>
      <tilted>0</tilted></_>
    <_>
      <rects>
        <_>
          6 9 2 2 -1.</_>
        <_>
          7 9 1 2 2.</_></rects>
      <tilted>0</tilted></_>
    <_>
      <rects>
        <_>
          6 10 2 2 -1.</_>
        <_>
          6 11 2 1 2.</_></rects>
      <tilted>0</tilted></_>
    <_>
      <rects>
        <_>
          6 11 3 2 -1.</_>
        <_>
          6 12 3 1 2.</_></rects>
      <tilted>0</tilted></_>
    <_>
      <rects>
        <_>
          6 12 4 1 -1.</_>
        <_>
          8 12 2 1 2.</_></rects>
      <tilted>0</tilted></_>
    <_>
      <rects>
        <_>
          6 16 8 2 -1.</_>
        <_>
          6 17 8 1 2.</_></rects>
      <tilted>0</tilted></_>
    <_>
      <rects>
        <_>
          7 2 1 12 -1.</_>
        <_>
          7 6 1 4 2.</_></rects>
      <tilted>0</tilted></_>
    <_>
      <rects>
        <_>
          7 9 2 1 -1.</_>
        <_>
          8 9 1 1 2.</_></rects>
      <tilted>0</tilted></_>
    <_>
      <rects>
        <_>
          7 9 1 2 -1.</_>
        <_>
          7 10 1 1 2.</_></rects>
      <tilted>0</tilted></_>
    <_>
      <rects>
        <_>
          7 10 4 1 -1.</_>
        <_>
          9 10 2 1 2.</_></rects>
      <tilted>0</tilted></_>
    <_>
      <rects>
        <_>
          7 11 6 1 -1.</_>
        <_>
          10 11 3 1 2.</_></rects>
      <tilted>0</tilted></_>
    <_>
      <rects>
        <_>
          7 14 6 2 -1.</_>
        <_>
          7 15 6 1 2.</_></rects>
      <tilted>0</tilted></_>
    <_>
      <rects>
        <_>
          8 10 4 1 -1.</_>
        <_>
          10 10 2 1 2.</_></rects>
      <tilted>0</tilted></_>
    <_>
      <rects>
        <_>
          8 14 4 2 -1.</_>
        <_>
          8 15 4 1 2.</_></rects>
      <tilted>0</tilted></_>
    <_>
      <rects>
        <_>
          9 11 3 2 -1.</_>
        <_>
          9 12 3 1 2.</_></rects>
      <tilted>0</tilted></_>
    <_>
      <rects>
        <_>
          10 12 3 2 -1.</_>
        <_>
          10 13 3 1 2.</_></rects>
      <tilted>0</tilted></_>
    <_>
      <rects>
        <_>
          10 13 3 2 -1.</_>
        <_>
          10 14 3 1 2.</_></rects>
      <tilted>0</tilted></_>
    <_>
      <rects>
        <_>
          11 10 2 2 -1.</_>
        <_>
          11 11 2 1 2.</_></rects>
      <tilted>0</tilted></_>
    <_>
      <rects>
        <_>
          12 7 2 2 -1.</_>
        <_>
          13 7 1 2 2.</_></rects>
      <tilted>0</tilted></_>
    <_>
      <rects>
        <_>
          12 8 2 1 -1.</_>
        <_>
          13 8 1 1 2.</_></rects>
      <tilted>0</tilted></_>
    <_>
      <rects>
        <_>
          12 11 1 2 -1.</_>
        <_>
          12 12 1 1 2.</_></rects>
      <tilted>0</tilted></_>
    <_>
      <rects>
        <_>
          13 8 2 1 -1.</_>
        <_>
          14 8 1 1 2.</_></rects>
      <tilted>0</tilted></_>
    <_>
      <rects>
        <_>
          13 8 2 2 -1.</_>
        <_>
          14 8 1 2 2.</_></rects>
      <tilted>0</tilted></_>
    <_>
      <rects>
        <_>
          14 11 2 1 -1.</_>
        <_>
          15 11 1 1 2.</_></rects>
      <tilted>0</tilted></_>
    <_>
      <rects>
        <_>
          15 7 2 3 -1.</_>
        <_>
          16 7 1 3 2.</_></rects>
      <tilted>0</tilted></_>
    <_>
      <rects>
        <_>
          16 3 2 15 -1.</_>
        <_>
          17 3 1 15 2.</_></rects>
      <tilted>0</tilted></_>
    <_>
      <rects>
        <_>
          16 5 2 9 -1.</_>
        <_>
          17 5 1 9 2.</_></rects>
      <tilted>0</tilted></_></features></cascade>
</opencv_storage>
