<?xml version="1.0"?>
<opencv_storage>
<stage7>
  <maxWeakCount>10</maxWeakCount>
  <stageThreshold>-9.9668151140213013e-01</stageThreshold>
  <weakClassifiers>
    <_>
      <internalNodes>
        0 -1 35131 7.0281005464494228e-03</internalNodes>
      <leafValues>
        4.9381542205810547e-01 -7.9865771532058716e-01</leafValues></_>
    <_>
      <internalNodes>
        0 -1 20763 -1.9245687872171402e-02</internalNodes>
      <leafValues>
        7.8195148706436157e-01 -2.7556419372558594e-01</leafValues></_>
    <_>
      <internalNodes>
        0 -1 16917 -3.0629798769950867e-01</internalNodes>
      <leafValues>
        -7.3930674791336060e-01 2.6337531208992004e-01</leafValues></_>
    <_>
      <internalNodes>
        0 -1 51328 9.5803523436188698e-03</internalNodes>
      <leafValues>
        -3.8760337233543396e-01 4.9876201152801514e-01</leafValues></_>
    <_>
      <internalNodes>
        0 -1 43633 -2.7899653650820255e-03</internalNodes>
      <leafValues>
        5.0807362794876099e-01 -4.0815901756286621e-01</leafValues></_>
    <_>
      <internalNodes>
        0 -1 27873 -1.3744586613029242e-03</internalNodes>
      <leafValues>
        1.9919621944427490e-01 -7.6623636484146118e-01</leafValues></_>
    <_>
      <internalNodes>
        0 -1 15370 4.8380188643932343e-02</internalNodes>
      <leafValues>
        -3.8917690515518188e-01 4.2400032281875610e-01</leafValues></_>
    <_>
      <internalNodes>
        0 -1 35471 -8.9568560943007469e-03</internalNodes>
      <leafValues>
        6.8643271923065186e-01 -2.3543207347393036e-01</leafValues></_>
    <_>
      <internalNodes>
        0 -1 34768 -2.5619653752073646e-04</internalNodes>
      <leafValues>
        -6.5956020355224609e-01 2.6447480916976929e-01</leafValues></_>
    <_>
      <internalNodes>
        0 -1 9774 -4.3936436995863914e-03</internalNodes>
      <leafValues>
        4.3481582403182983e-01 -3.6935234069824219e-01</leafValues></_></weakClassifiers></stage7>
</opencv_storage>
