<?xml version="1.0"?>
<opencv_storage>
<stage6>
  <maxWeakCount>8</maxWeakCount>
  <stageThreshold>-9.2017704248428345e-01</stageThreshold>
  <weakClassifiers>
    <_>
      <internalNodes>
        0 -1 46997 -1.5925855841487646e-03</internalNodes>
      <leafValues>
        6.1279648542404175e-01 -5.2981263399124146e-01</leafValues></_>
    <_>
      <internalNodes>
        0 -1 32340 1.2417381629347801e-02</internalNodes>
      <leafValues>
        -2.8476461768150330e-01 7.5888735055923462e-01</leafValues></_>
    <_>
      <internalNodes>
        0 -1 723 -3.8242496550083160e-02</internalNodes>
      <leafValues>
        5.1979345083236694e-01 -3.7489783763885498e-01</leafValues></_>
    <_>
      <internalNodes>
        0 -1 31406 -6.2066683312878013e-04</internalNodes>
      <leafValues>
        -9.7832465171813965e-01 1.9369174540042877e-01</leafValues></_>
    <_>
      <internalNodes>
        0 -1 27800 -2.1289093419909477e-03</internalNodes>
      <leafValues>
        3.3411020040512085e-01 -5.3120011091232300e-01</leafValues></_>
    <_>
      <internalNodes>
        0 -1 15198 9.9232867360115051e-02</internalNodes>
      <leafValues>
        -2.9876020550727844e-01 7.1168351173400879e-01</leafValues></_>
    <_>
      <internalNodes>
        0 -1 38553 -5.0904476083815098e-03</internalNodes>
      <leafValues>
        6.6774606704711914e-01 -2.1354588866233826e-01</leafValues></_>
    <_>
      <internalNodes>
        0 -1 38081 -7.9377903603017330e-04</internalNodes>
      <leafValues>
        -6.8191725015640259e-01 2.5380218029022217e-01</leafValues></_></weakClassifiers></stage6>
</opencv_storage>
