<?xml version="1.0"?>
<opencv_storage>
<stage8>
  <maxWeakCount>29</maxWeakCount>
  <stageThreshold>-9.9612832069396973e-01</stageThreshold>
  <weakClassifiers>
    <_>
      <internalNodes>
        0 -1 28512 -1.1614938266575336e-02</internalNodes>
      <leafValues>
        6.6519826650619507e-01 1.3136729598045349e-01</leafValues></_>
    <_>
      <internalNodes>
        0 -1 1816 -4.5709475874900818e-02</internalNodes>
      <leafValues>
        5.1861476898193359e-01 -1.3725295662879944e-01</leafValues></_>
    <_>
      <internalNodes>
        0 -1 14777 3.6431159824132919e-03</internalNodes>
      <leafValues>
        -2.6782292127609253e-01 3.6303657293319702e-01</leafValues></_>
    <_>
      <internalNodes>
        0 -1 50101 -2.4672131985425949e-03</internalNodes>
      <leafValues>
        3.7893879413604736e-01 -2.0195424556732178e-01</leafValues></_>
    <_>
      <internalNodes>
        0 -1 15005 1.4763989020138979e-04</internalNodes>
      <leafValues>
        1.9758974015712738e-01 -3.8178670406341553e-01</leafValues></_>
    <_>
      <internalNodes>
        0 -1 36225 7.6585321221500635e-04</internalNodes>
      <leafValues>
        1.4352105557918549e-01 -4.5743685960769653e-01</leafValues></_>
    <_>
      <internalNodes>
        0 -1 36225 -5.5818958207964897e-04</internalNodes>
      <leafValues>
        -4.1760796308517456e-01 2.0573632419109344e-01</leafValues></_>
    <_>
      <internalNodes>
        0 -1 51192 -2.4271972477436066e-02</internalNodes>
      <leafValues>
        3.3352613449096680e-01 -1.8029555678367615e-01</leafValues></_>
    <_>
      <internalNodes>
        0 -1 39306 1.5828784555196762e-02</internalNodes>
      <leafValues>
        1.0104171186685562e-01 -5.1531976461410522e-01</leafValues></_>
    <_>
      <internalNodes>
        0 -1 39499 -1.4430661685764790e-03</internalNodes>
      <leafValues>
        -4.5288527011871338e-01 1.1311628669500351e-01</leafValues></_>
    <_>
      <internalNodes>
        0 -1 13973 4.6636955812573433e-03</internalNodes>
      <leafValues>
        8.1354871392250061e-02 -5.9447044134140015e-01</leafValues></_>
    <_>
      <internalNodes>
        0 -1 51326 1.4568346552550793e-02</internalNodes>
      <leafValues>
        -1.1370211839675903e-01 4.5955741405487061e-01</leafValues></_>
    <_>
      <internalNodes>
        0 -1 48676 3.6557652056217194e-03</internalNodes>
      <leafValues>
        1.0793463140726089e-01 -5.0605630874633789e-01</leafValues></_>
    <_>
      <internalNodes>
        0 -1 38562 -1.4055871404707432e-02</internalNodes>
      <leafValues>
        5.3672814369201660e-01 -9.9329002201557159e-02</leafValues></_>
    <_>
      <internalNodes>
        0 -1 15731 -2.5294790044426918e-02</internalNodes>
      <leafValues>
        -1.2816300988197327e-01 4.9354591965675354e-01</leafValues></_>
    <_>
      <internalNodes>
        0 -1 14570 4.5421812683343887e-03</internalNodes>
      <leafValues>
        1.0506746917963028e-01 -5.8107250928878784e-01</leafValues></_>
    <_>
      <internalNodes>
        0 -1 18660 8.6203739047050476e-03</internalNodes>
      <leafValues>
        -1.4460209012031555e-01 3.7512099742889404e-01</leafValues></_>
    <_>
      <internalNodes>
        0 -1 9215 9.8738055676221848e-03</internalNodes>
      <leafValues>
        -1.3461036980152130e-01 3.7319231033325195e-01</leafValues></_>
    <_>
      <internalNodes>
        0 -1 32077 -4.8814956098794937e-03</internalNodes>
      <leafValues>
        4.0883445739746094e-01 -1.1657855659723282e-01</leafValues></_>
    <_>
      <internalNodes>
        0 -1 42005 4.1840448975563049e-02</internalNodes>
      <leafValues>
        -1.0209568589925766e-01 4.8045402765274048e-01</leafValues></_>
    <_>
      <internalNodes>
        0 -1 41661 -5.9799384325742722e-03</internalNodes>
      <leafValues>
        -5.3142058849334717e-01 9.7424075007438660e-02</leafValues></_>
    <_>
      <internalNodes>
        0 -1 50692 1.7139825504273176e-03</internalNodes>
      <leafValues>
        9.5730639994144440e-02 -4.8815053701400757e-01</leafValues></_>
    <_>
      <internalNodes>
        0 -1 36278 1.1863873805850744e-03</internalNodes>
      <leafValues>
        1.6158489882946014e-01 -2.7855354547500610e-01</leafValues></_>
    <_>
      <internalNodes>
        0 -1 32681 -3.8683552294969559e-02</internalNodes>
      <leafValues>
        4.2421057820320129e-01 -1.2023203074932098e-01</leafValues></_>
    <_>
      <internalNodes>
        0 -1 50870 -1.0252951644361019e-02</internalNodes>
      <leafValues>
        3.5195231437683105e-01 -1.1727508902549744e-01</leafValues></_>
    <_>
      <internalNodes>
        0 -1 50812 7.6774675399065018e-03</internalNodes>
      <leafValues>
        -1.0525348782539368e-01 5.4343277215957642e-01</leafValues></_>
    <_>
      <internalNodes>
        0 -1 4816 -1.1541741900146008e-02</internalNodes>
      <leafValues>
        4.0278330445289612e-01 -1.1460453271865845e-01</leafValues></_>
    <_>
      <internalNodes>
        0 -1 15430 9.5240287482738495e-03</internalNodes>
      <leafValues>
        -1.2479346990585327e-01 3.6821368336677551e-01</leafValues></_>
    <_>
      <internalNodes>
        0 -1 5513 -1.7547647003084421e-03</internalNodes>
      <leafValues>
        -3.1115657091140747e-01 1.6512641310691833e-01</leafValues></_></weakClassifiers></stage8>
</opencv_storage>
