<?xml version="1.0"?>
<opencv_storage>
<stage6>
  <maxWeakCount>22</maxWeakCount>
  <stageThreshold>-1.0485302209854126e+00</stageThreshold>
  <weakClassifiers>
    <_>
      <internalNodes>
        0 -1 15040 2.1142270416021347e-02</internalNodes>
      <leafValues>
        7.2688780725002289e-02 7.0905393362045288e-01</leafValues></_>
    <_>
      <internalNodes>
        0 -1 48862 -1.8705794587731361e-02</internalNodes>
      <leafValues>
        6.2112611532211304e-01 -1.9401769340038300e-01</leafValues></_>
    <_>
      <internalNodes>
        0 -1 2775 -4.8414494842290878e-02</internalNodes>
      <leafValues>
        6.6904789209365845e-01 -1.6684156656265259e-01</leafValues></_>
    <_>
      <internalNodes>
        0 -1 14863 4.5134976506233215e-02</internalNodes>
      <leafValues>
        -1.4245301485061646e-01 6.1701095104217529e-01</leafValues></_>
    <_>
      <internalNodes>
        0 -1 38494 3.4193627536296844e-02</internalNodes>
      <leafValues>
        -1.5220639109611511e-01 6.0940074920654297e-01</leafValues></_>
    <_>
      <internalNodes>
        0 -1 24629 -1.5644483268260956e-02</internalNodes>
      <leafValues>
        -1.0931015759706497e-01 7.7058917284011841e-01</leafValues></_>
    <_>
      <internalNodes>
        0 -1 9829 -4.6257495880126953e-02</internalNodes>
      <leafValues>
        7.3954713344573975e-01 -9.7560055553913116e-02</leafValues></_>
    <_>
      <internalNodes>
        0 -1 15018 7.2066308930516243e-03</internalNodes>
      <leafValues>
        -1.6906848549842834e-01 4.3424993753433228e-01</leafValues></_>
    <_>
      <internalNodes>
        0 -1 18966 3.7200930528342724e-03</internalNodes>
      <leafValues>
        1.2626430392265320e-01 -6.8741559982299805e-01</leafValues></_>
    <_>
      <internalNodes>
        0 -1 33339 1.7915831413120031e-03</internalNodes>
      <leafValues>
        1.0861197859048843e-01 -5.8686739206314087e-01</leafValues></_>
    <_>
      <internalNodes>
        0 -1 51195 1.1002982035279274e-02</internalNodes>
      <leafValues>
        -1.9352526962757111e-01 4.0513160824775696e-01</leafValues></_>
    <_>
      <internalNodes>
        0 -1 45627 -2.1348122507333755e-02</internalNodes>
      <leafValues>
        5.7156509160995483e-01 -1.3440360128879547e-01</leafValues></_>
    <_>
      <internalNodes>
        0 -1 36385 3.2130572944879532e-03</internalNodes>
      <leafValues>
        -1.8120965361595154e-01 3.7439048290252686e-01</leafValues></_>
    <_>
      <internalNodes>
        0 -1 15434 -3.6457620561122894e-02</internalNodes>
      <leafValues>
        6.5381807088851929e-01 -9.6739217638969421e-02</leafValues></_>
    <_>
      <internalNodes>
        0 -1 45104 2.0926892757415771e-02</internalNodes>
      <leafValues>
        -1.0936976969242096e-01 5.6012099981307983e-01</leafValues></_>
    <_>
      <internalNodes>
        0 -1 47042 -1.8840564414858818e-02</internalNodes>
      <leafValues>
        4.4896647334098816e-01 -1.4260505139827728e-01</leafValues></_>
    <_>
      <internalNodes>
        0 -1 49609 5.5381748825311661e-04</internalNodes>
      <leafValues>
        1.6086077690124512e-01 -3.5821104049682617e-01</leafValues></_>
    <_>
      <internalNodes>
        0 -1 8146 1.7359722405672073e-02</internalNodes>
      <leafValues>
        -1.1374778300523758e-01 5.0730448961257935e-01</leafValues></_>
    <_>
      <internalNodes>
        0 -1 18324 5.4422961547970772e-03</internalNodes>
      <leafValues>
        -1.4979538321495056e-01 3.8432088494300842e-01</leafValues></_>
    <_>
      <internalNodes>
        0 -1 33229 -3.2598786056041718e-02</internalNodes>
      <leafValues>
        5.8364105224609375e-01 -9.9985383450984955e-02</leafValues></_>
    <_>
      <internalNodes>
        0 -1 21987 4.5795971527695656e-03</internalNodes>
      <leafValues>
        -1.7400285601615906e-01 3.5607871413230896e-01</leafValues></_>
    <_>
      <internalNodes>
        0 -1 24020 -4.8546746373176575e-02</internalNodes>
      <leafValues>
        -2.6407775282859802e-01 2.2413727641105652e-01</leafValues></_></weakClassifiers></stage6>
</opencv_storage>
