<?xml version="1.0"?>
<opencv_storage>
<stage2>
  <maxWeakCount>12</maxWeakCount>
  <stageThreshold>-1.0585482120513916e+00</stageThreshold>
  <weakClassifiers>
    <_>
      <internalNodes>
        0 -1 30022 -3.0064833164215088e-01</internalNodes>
      <leafValues>
        6.0931289196014404e-01 -4.2723006010055542e-01</leafValues></_>
    <_>
      <internalNodes>
        0 -1 32295 -1.0403369553387165e-02</internalNodes>
      <leafValues>
        7.0859694480895996e-01 -2.0663185417652130e-01</leafValues></_>
    <_>
      <internalNodes>
        0 -1 10771 1.4297142624855042e-02</internalNodes>
      <leafValues>
        -2.0358979701995850e-01 7.0575904846191406e-01</leafValues></_>
    <_>
      <internalNodes>
        0 -1 36422 5.5397925898432732e-03</internalNodes>
      <leafValues>
        -1.8738950788974762e-01 6.3860738277435303e-01</leafValues></_>
    <_>
      <internalNodes>
        0 -1 29958 -8.8442210108041763e-03</internalNodes>
      <leafValues>
        6.6390174627304077e-01 -1.9427122175693512e-01</leafValues></_>
    <_>
      <internalNodes>
        0 -1 10719 1.7298994585871696e-02</internalNodes>
      <leafValues>
        -1.3370765745639801e-01 7.8125822544097900e-01</leafValues></_>
    <_>
      <internalNodes>
        0 -1 26158 3.0625361949205399e-02</internalNodes>
      <leafValues>
        -1.2251076847314835e-01 6.9854563474655151e-01</leafValues></_>
    <_>
      <internalNodes>
        0 -1 9267 -9.1467127203941345e-03</internalNodes>
      <leafValues>
        3.6463078856468201e-01 -2.9565230011940002e-01</leafValues></_>
    <_>
      <internalNodes>
        0 -1 28244 5.0334714353084564e-02</internalNodes>
      <leafValues>
        -1.1466749757528305e-01 8.4736990928649902e-01</leafValues></_>
    <_>
      <internalNodes>
        0 -1 32221 -1.0689098387956619e-02</internalNodes>
      <leafValues>
        6.8828451633453369e-01 -1.5090481936931610e-01</leafValues></_>
    <_>
      <internalNodes>
        0 -1 32018 -1.3545747846364975e-02</internalNodes>
      <leafValues>
        8.6649215221405029e-01 -1.1444230377674103e-01</leafValues></_>
    <_>
      <internalNodes>
        0 -1 21045 -3.5824519395828247e-01</internalNodes>
      <leafValues>
        2.3427663743495941e-01 -5.0301301479339600e-01</leafValues></_></weakClassifiers></stage2>
</opencv_storage>
