<?xml version="1.0"?>
<opencv_storage>
<stage4>
  <maxWeakCount>9</maxWeakCount>
  <stageThreshold>-1.1496222019195557e+00</stageThreshold>
  <weakClassifiers>
    <_>
      <internalNodes>
        0 -1 4408 -5.7680737972259521e-01</internalNodes>
      <leafValues>
        -6.8347823619842529e-01 6.5369862318038940e-01</leafValues></_>
    <_>
      <internalNodes>
        0 -1 9501 -3.7850146181881428e-03</internalNodes>
      <leafValues>
        5.2302253246307373e-01 -3.5524871945381165e-01</leafValues></_>
    <_>
      <internalNodes>
        0 -1 49724 -5.1510976627469063e-03</internalNodes>
      <leafValues>
        4.3288648128509521e-01 -4.0712133049964905e-01</leafValues></_>
    <_>
      <internalNodes>
        0 -1 7711 -8.0859228968620300e-02</internalNodes>
      <leafValues>
        -5.5167907476425171e-01 3.1423750519752502e-01</leafValues></_>
    <_>
      <internalNodes>
        0 -1 13233 2.9406689107418060e-02</internalNodes>
      <leafValues>
        -3.7198826670646667e-01 4.3371570110321045e-01</leafValues></_>
    <_>
      <internalNodes>
        0 -1 2272 -1.1613446287810802e-02</internalNodes>
      <leafValues>
        3.6853888630867004e-01 -3.4785351157188416e-01</leafValues></_>
    <_>
      <internalNodes>
        0 -1 23580 1.1482750996947289e-03</internalNodes>
      <leafValues>
        -4.8194336891174316e-01 2.4517071247100830e-01</leafValues></_>
    <_>
      <internalNodes>
        0 -1 9307 4.1331332176923752e-02</internalNodes>
      <leafValues>
        -1.8689674139022827e-01 6.6204297542572021e-01</leafValues></_>
    <_>
      <internalNodes>
        0 -1 51400 9.9734086543321609e-03</internalNodes>
      <leafValues>
        -2.4438753724098206e-01 5.3066277503967285e-01</leafValues></_></weakClassifiers></stage4>
</opencv_storage>
