<?xml version="1.0"?>
<opencv_storage>
<stage9>
  <maxWeakCount>26</maxWeakCount>
  <stageThreshold>-9.0204381942749023e-01</stageThreshold>
  <weakClassifiers>
    <_>
      <internalNodes>
        0 -1 37791 -1.9583472609519958e-01</internalNodes>
      <leafValues>
        -6.4999997615814209e-01 4.2272728681564331e-01</leafValues></_>
    <_>
      <internalNodes>
        0 -1 24010 1.7979636322706938e-03</internalNodes>
      <leafValues>
        -3.5832297801971436e-01 3.2140108942985535e-01</leafValues></_>
    <_>
      <internalNodes>
        0 -1 50808 -8.5580954328179359e-04</internalNodes>
      <leafValues>
        1.8167859315872192e-01 -4.6286123991012573e-01</leafValues></_>
    <_>
      <internalNodes>
        0 -1 12408 1.2279165908694267e-02</internalNodes>
      <leafValues>
        -1.8386562168598175e-01 4.4990274310112000e-01</leafValues></_>
    <_>
      <internalNodes>
        0 -1 6852 2.9377978295087814e-02</internalNodes>
      <leafValues>
        -1.1798443645238876e-01 6.6453438997268677e-01</leafValues></_>
    <_>
      <internalNodes>
        0 -1 3569 -1.3814859092235565e-02</internalNodes>
      <leafValues>
        3.5449349880218506e-01 -2.3881253600120544e-01</leafValues></_>
    <_>
      <internalNodes>
        0 -1 49639 -1.2676520273089409e-02</internalNodes>
      <leafValues>
        3.4307613968849182e-01 -1.7727720737457275e-01</leafValues></_>
    <_>
      <internalNodes>
        0 -1 24173 4.4471141882240772e-03</internalNodes>
      <leafValues>
        6.5285377204418182e-02 -8.9944934844970703e-01</leafValues></_>
    <_>
      <internalNodes>
        0 -1 18932 9.3889865092933178e-04</internalNodes>
      <leafValues>
        -3.5331267118453979e-01 1.6556505858898163e-01</leafValues></_>
    <_>
      <internalNodes>
        0 -1 23323 1.0501064825803041e-03</internalNodes>
      <leafValues>
        -3.8136589527130127e-01 1.8239933252334595e-01</leafValues></_>
    <_>
      <internalNodes>
        0 -1 23323 3.7594393361359835e-03</internalNodes>
      <leafValues>
        8.9942991733551025e-02 -6.4931756258010864e-01</leafValues></_>
    <_>
      <internalNodes>
        0 -1 13544 6.9121941924095154e-03</internalNodes>
      <leafValues>
        -1.1934416741132736e-01 5.7710307836532593e-01</leafValues></_>
    <_>
      <internalNodes>
        0 -1 19453 2.5239503011107445e-03</internalNodes>
      <leafValues>
        -2.7489861845970154e-01 2.1687218546867371e-01</leafValues></_>
    <_>
      <internalNodes>
        0 -1 42402 -1.4874817430973053e-01</internalNodes>
      <leafValues>
        -3.6240896582603455e-01 1.8298783898353577e-01</leafValues></_>
    <_>
      <internalNodes>
        0 -1 35671 1.6305446624755859e-02</internalNodes>
      <leafValues>
        1.9291831552982330e-01 -3.4387627243995667e-01</leafValues></_>
    <_>
      <internalNodes>
        0 -1 27799 2.2906721569597721e-03</internalNodes>
      <leafValues>
        -2.5828295946121216e-01 2.9352989792823792e-01</leafValues></_>
    <_>
      <internalNodes>
        0 -1 10074 -9.9487602710723877e-03</internalNodes>
      <leafValues>
        4.4546157121658325e-01 -1.5829785168170929e-01</leafValues></_>
    <_>
      <internalNodes>
        0 -1 51417 2.3888363502919674e-03</internalNodes>
      <leafValues>
        -2.1795511245727539e-01 2.9774796962738037e-01</leafValues></_>
    <_>
      <internalNodes>
        0 -1 38408 1.5127288177609444e-02</internalNodes>
      <leafValues>
        -8.0228351056575775e-02 7.1021443605422974e-01</leafValues></_>
    <_>
      <internalNodes>
        0 -1 10119 -4.9851670861244202e-02</internalNodes>
      <leafValues>
        6.8810635805130005e-01 -7.9895228147506714e-02</leafValues></_>
    <_>
      <internalNodes>
        0 -1 47045 -3.1351275742053986e-02</internalNodes>
      <leafValues>
        5.0503593683242798e-01 -9.8018124699592590e-02</leafValues></_>
    <_>
      <internalNodes>
        0 -1 38513 -2.3881397210061550e-03</internalNodes>
      <leafValues>
        -5.6173872947692871e-01 9.8869003355503082e-02</leafValues></_>
    <_>
      <internalNodes>
        0 -1 19004 -1.2499637901782990e-02</internalNodes>
      <leafValues>
        -5.8003920316696167e-01 7.6020464301109314e-02</leafValues></_>
    <_>
      <internalNodes>
        0 -1 14222 -3.7237266078591347e-03</internalNodes>
      <leafValues>
        3.9094477891921997e-01 -1.4445827901363373e-01</leafValues></_>
    <_>
      <internalNodes>
        0 -1 14782 6.6857729107141495e-03</internalNodes>
      <leafValues>
        -1.4894057810306549e-01 4.1186726093292236e-01</leafValues></_>
    <_>
      <internalNodes>
        0 -1 35580 9.8017300479114056e-04</internalNodes>
      <leafValues>
        1.5130856633186340e-01 -4.1931617259979248e-01</leafValues></_></weakClassifiers></stage9>
</opencv_storage>
