<?xml version="1.0"?>
<opencv_storage>
<stage9>
  <maxWeakCount>18</maxWeakCount>
  <stageThreshold>-1.0668970346450806e+00</stageThreshold>
  <weakClassifiers>
    <_>
      <internalNodes>
        0 -1 28169 -2.1161470795050263e-04</internalNodes>
      <leafValues>
        -3.2075470685958862e-01 5.1871657371520996e-01</leafValues></_>
    <_>
      <internalNodes>
        0 -1 24174 -6.9980556145310402e-04</internalNodes>
      <leafValues>
        3.6249464750289917e-01 -3.7952408194541931e-01</leafValues></_>
    <_>
      <internalNodes>
        0 -1 3948 -2.2855445742607117e-02</internalNodes>
      <leafValues>
        6.4774513244628906e-01 -2.1000650525093079e-01</leafValues></_>
    <_>
      <internalNodes>
        0 -1 19117 1.0617783665657043e-01</internalNodes>
      <leafValues>
        1.7524974048137665e-01 -7.8534525632858276e-01</leafValues></_>
    <_>
      <internalNodes>
        0 -1 49882 -4.5346412807703018e-03</internalNodes>
      <leafValues>
        2.5042492151260376e-01 -3.9462763071060181e-01</leafValues></_>
    <_>
      <internalNodes>
        0 -1 35571 1.8043819814920425e-02</internalNodes>
      <leafValues>
        -1.4795912802219391e-01 6.1662977933883667e-01</leafValues></_>
    <_>
      <internalNodes>
        0 -1 15018 4.5085214078426361e-03</internalNodes>
      <leafValues>
        -2.1460272371768951e-01 4.6748211979866028e-01</leafValues></_>
    <_>
      <internalNodes>
        0 -1 51094 7.6446970924735069e-03</internalNodes>
      <leafValues>
        -2.3758716881275177e-01 4.0806278586387634e-01</leafValues></_>
    <_>
      <internalNodes>
        0 -1 45585 -3.7692291662096977e-03</internalNodes>
      <leafValues>
        -8.3221852779388428e-01 1.1663440614938736e-01</leafValues></_>
    <_>
      <internalNodes>
        0 -1 39787 -3.8390373811125755e-03</internalNodes>
      <leafValues>
        6.2726670503616333e-01 -1.8483307957649231e-01</leafValues></_>
    <_>
      <internalNodes>
        0 -1 23581 3.7370831705629826e-04</internalNodes>
      <leafValues>
        1.6132403910160065e-01 -6.5774863958358765e-01</leafValues></_>
    <_>
      <internalNodes>
        0 -1 3157 -9.1001736000180244e-03</internalNodes>
      <leafValues>
        -3.5244303941726685e-01 2.3082478344440460e-01</leafValues></_>
    <_>
      <internalNodes>
        0 -1 9199 1.2668163981288671e-03</internalNodes>
      <leafValues>
        -2.1408709883689880e-01 3.7952685356140137e-01</leafValues></_>
    <_>
      <internalNodes>
        0 -1 40990 -2.7290924917906523e-03</internalNodes>
      <leafValues>
        3.9141243696212769e-01 -2.0578233897686005e-01</leafValues></_>
    <_>
      <internalNodes>
        0 -1 43217 5.7448404841125011e-03</internalNodes>
      <leafValues>
        -1.6538031399250031e-01 5.7283222675323486e-01</leafValues></_>
    <_>
      <internalNodes>
        0 -1 18651 1.9185170531272888e-03</internalNodes>
      <leafValues>
        1.6702948510646820e-01 -6.7748904228210449e-01</leafValues></_>
    <_>
      <internalNodes>
        0 -1 47002 -2.4459981359541416e-03</internalNodes>
      <leafValues>
        3.2156100869178772e-01 -2.7013686299324036e-01</leafValues></_>
    <_>
      <internalNodes>
        0 -1 50964 -1.6123536042869091e-03</internalNodes>
      <leafValues>
        4.5917618274688721e-01 -1.8718677759170532e-01</leafValues></_></weakClassifiers></stage9>
</opencv_storage>
