<?xml version="1.0"?>
<opencv_storage>
<stage3>
  <maxWeakCount>7</maxWeakCount>
  <stageThreshold>-7.7296072244644165e-01</stageThreshold>
  <weakClassifiers>
    <_>
      <internalNodes>
        0 -1 28190 -2.2444513160735369e-03</internalNodes>
      <leafValues>
        7.1253073215484619e-01 -4.6632122993469238e-01</leafValues></_>
    <_>
      <internalNodes>
        0 -1 15753 1.0667959228157997e-02</internalNodes>
      <leafValues>
        -2.4055074155330658e-01 7.8613835573196411e-01</leafValues></_>
    <_>
      <internalNodes>
        0 -1 48706 -1.3412977568805218e-03</internalNodes>
      <leafValues>
        4.0390124917030334e-01 -5.8947318792343140e-01</leafValues></_>
    <_>
      <internalNodes>
        0 -1 9618 -1.2972000986337662e-02</internalNodes>
      <leafValues>
        5.1263189315795898e-01 -4.0767937898635864e-01</leafValues></_>
    <_>
      <internalNodes>
        0 -1 41157 -4.8480476252734661e-03</internalNodes>
      <leafValues>
        4.3967765569686890e-01 -4.0104496479034424e-01</leafValues></_>
    <_>
      <internalNodes>
        0 -1 19841 6.3792675733566284e-02</internalNodes>
      <leafValues>
        -2.1780204772949219e-01 8.0315804481506348e-01</leafValues></_>
    <_>
      <internalNodes>
        0 -1 32232 -8.3515495061874390e-03</internalNodes>
      <leafValues>
        6.8709927797317505e-01 -2.8418627381324768e-01</leafValues></_></weakClassifiers></stage3>
</opencv_storage>
