<?xml version="1.0"?>
<opencv_storage>
<cascade>
  <stageType>BOOST</stageType>
  <featureType>HAAR</featureType>
  <height>18</height>
  <width>18</width>
  <stageParams>
    <boostType>GAB</boostType>
    <minHitRate>9.9500000476837158e-01</minHitRate>
    <maxFalseAlarm>5.0000000000000000e-01</maxFalseAlarm>
    <weightTrimRate>9.4999999999999996e-01</weightTrimRate>
    <maxDepth>1</maxDepth>
    <maxWeakCount>100</maxWeakCount></stageParams>
  <featureParams>
    <maxCatCount>0</maxCatCount>
    <featSize>1</featSize>
    <mode>BASIC</mode></featureParams>
  <stageNum>10</stageNum>
  <stages>
    <!-- stage 0 -->
    <_>
      <maxWeakCount>9</maxWeakCount>
      <stageThreshold>-7.9292690753936768e-01</stageThreshold>
      <weakClassifiers>
        <_>
          <internalNodes>
            0 -1 115 1.2048307806253433e-02</internalNodes>
          <leafValues>
            -6.6770188510417938e-02 7.9676258563995361e-01</leafValues></_>
        <_>
          <internalNodes>
            0 -1 145 -4.5544728636741638e-03</internalNodes>
          <leafValues>
            7.6981979608535767e-01 -2.0069743692874908e-01</leafValues></_>
        <_>
          <internalNodes>
            0 -1 16 -3.8619893789291382e-01</internalNodes>
          <leafValues>
            2.7301272749900818e-01 -8.1495279073715210e-01</leafValues></_>
        <_>
          <internalNodes>
            0 -1 110 -1.1515254527330399e-01</internalNodes>
          <leafValues>
            -7.1137034893035889e-01 2.8616765141487122e-01</leafValues></_>
        <_>
          <internalNodes>
            0 -1 3 -1.0777786374092102e-02</internalNodes>
          <leafValues>
            7.2570008039474487e-01 -3.5755854845046997e-01</leafValues></_>
        <_>
          <internalNodes>
            0 -1 30 7.0931827649474144e-03</internalNodes>
          <leafValues>
            -1.9893218576908112e-01 7.4920111894607544e-01</leafValues></_>
        <_>
          <internalNodes>
            0 -1 153 4.3501472100615501e-03</internalNodes>
          <leafValues>
            -2.1239490807056427e-01 6.4841514825820923e-01</leafValues></_>
        <_>
          <internalNodes>
            0 -1 17 -3.7767732143402100e-01</internalNodes>
          <leafValues>
            2.4238771200180054e-01 -7.3101669549942017e-01</leafValues></_>
        <_>
          <internalNodes>
            0 -1 165 1.0589587502181530e-02</internalNodes>
          <leafValues>
            -2.2111459076404572e-01 7.4288928508758545e-01</leafValues></_></weakClassifiers></_>
    <!-- stage 1 -->
    <_>
      <maxWeakCount>8</maxWeakCount>
      <stageThreshold>-6.3186728954315186e-01</stageThreshold>
      <weakClassifiers>
        <_>
          <internalNodes>
            0 -1 135 -9.0695172548294067e-02</internalNodes>
          <leafValues>
            -8.3606559038162231e-01 5.0357997417449951e-01</leafValues></_>
        <_>
          <internalNodes>
            0 -1 46 2.0158877596259117e-03</internalNodes>
          <leafValues>
            -2.9593119025230408e-01 6.7765188217163086e-01</leafValues></_>
        <_>
          <internalNodes>
            0 -1 143 -6.9654909893870354e-03</internalNodes>
          <leafValues>
            7.0679664611816406e-01 -2.6106211543083191e-01</leafValues></_>
        <_>
          <internalNodes>
            0 -1 4 -6.9326828233897686e-03</internalNodes>
          <leafValues>
            6.1955219507217407e-01 -3.2119852304458618e-01</leafValues></_>
        <_>
          <internalNodes>
            0 -1 101 1.0105041787028313e-02</internalNodes>
          <leafValues>
            -1.9297930598258972e-01 7.5801032781600952e-01</leafValues></_>
        <_>
          <internalNodes>
            0 -1 62 -4.6179998666048050e-02</internalNodes>
          <leafValues>
            3.7661564350128174e-01 -3.8394197821617126e-01</leafValues></_>
        <_>
          <internalNodes>
            0 -1 15 1.0703336447477341e-02</internalNodes>
          <leafValues>
            -2.1954531967639923e-01 7.4263519048690796e-01</leafValues></_>
        <_>
          <internalNodes>
            0 -1 19 -2.3811575956642628e-03</internalNodes>
          <leafValues>
            7.0008450746536255e-01 -2.2134643793106079e-01</leafValues></_></weakClassifiers></_>
    <!-- stage 2 -->
    <_>
      <maxWeakCount>12</maxWeakCount>
      <stageThreshold>-1.1933801174163818e+00</stageThreshold>
      <weakClassifiers>
        <_>
          <internalNodes>
            0 -1 126 -1.2170717120170593e-01</internalNodes>
          <leafValues>
            6.3986408710479736e-01 -5.2050471305847168e-01</leafValues></_>
        <_>
          <internalNodes>
            0 -1 75 -8.3813909441232681e-03</internalNodes>
          <leafValues>
            7.7848845720291138e-01 -3.1741553544998169e-01</leafValues></_>
        <_>
          <internalNodes>
            0 -1 91 -8.9675551280379295e-03</internalNodes>
          <leafValues>
            7.6877725124359131e-01 -1.5035861730575562e-01</leafValues></_>
        <_>
          <internalNodes>
            0 -1 38 3.3724263310432434e-02</internalNodes>
          <leafValues>
            -2.5321462750434875e-01 6.8047678470611572e-01</leafValues></_>
        <_>
          <internalNodes>
            0 -1 107 8.4153972566127777e-03</internalNodes>
          <leafValues>
            -1.3077804446220398e-01 7.5482362508773804e-01</leafValues></_>
        <_>
          <internalNodes>
            0 -1 72 -1.1513271369040012e-02</internalNodes>
          <leafValues>
            6.6393411159515381e-01 -1.6133598983287811e-01</leafValues></_>
        <_>
          <internalNodes>
            0 -1 55 -2.5915199890732765e-02</internalNodes>
          <leafValues>
            5.6132781505584717e-01 -2.0147743821144104e-01</leafValues></_>
        <_>
          <internalNodes>
            0 -1 66 -1.4673981815576553e-02</internalNodes>
          <leafValues>
            8.1013065576553345e-01 -1.2716390192508698e-01</leafValues></_>
        <_>
          <internalNodes>
            0 -1 53 -1.5410394407808781e-02</internalNodes>
          <leafValues>
            6.3140428066253662e-01 -1.7646998167037964e-01</leafValues></_>
        <_>
          <internalNodes>
            0 -1 2 2.4149553477764130e-01</internalNodes>
          <leafValues>
            1.7142055928707123e-01 -8.5369622707366943e-01</leafValues></_>
        <_>
          <internalNodes>
            0 -1 51 2.0475033670663834e-02</internalNodes>
          <leafValues>
            -1.4882051944732666e-01 9.1491150856018066e-01</leafValues></_>
        <_>
          <internalNodes>
            0 -1 89 -1.6173370182514191e-02</internalNodes>
          <leafValues>
            6.9891166687011719e-01 -1.1455586552619934e-01</leafValues></_></weakClassifiers></_>
    <!-- stage 3 -->
    <_>
      <maxWeakCount>10</maxWeakCount>
      <stageThreshold>-9.7759938240051270e-01</stageThreshold>
      <weakClassifiers>
        <_>
          <internalNodes>
            0 -1 75 -7.4261184781789780e-03</internalNodes>
          <leafValues>
            8.6654132604598999e-01 -9.1317363083362579e-02</leafValues></_>
        <_>
          <internalNodes>
            0 -1 42 1.3174060732126236e-02</internalNodes>
          <leafValues>
            -1.4795812964439392e-01 8.0445253849029541e-01</leafValues></_>
        <_>
          <internalNodes>
            0 -1 92 -8.5624102503061295e-03</internalNodes>
          <leafValues>
            8.1103289127349854e-01 -1.7498019337654114e-01</leafValues></_>
        <_>
          <internalNodes>
            0 -1 98 8.9662671089172363e-03</internalNodes>
          <leafValues>
            -2.4992980062961578e-01 8.3743214607238770e-01</leafValues></_>
        <_>
          <internalNodes>
            0 -1 72 -1.0886495932936668e-02</internalNodes>
          <leafValues>
            7.8201055526733398e-01 -1.8831823766231537e-01</leafValues></_>
        <_>
          <internalNodes>
            0 -1 71 9.9821146577596664e-03</internalNodes>
          <leafValues>
            -1.5421988070011139e-01 7.6149123907089233e-01</leafValues></_>
        <_>
          <internalNodes>
            0 -1 50 -7.5027667917311192e-03</internalNodes>
          <leafValues>
            6.8368083238601685e-01 -1.3273231685161591e-01</leafValues></_>
        <_>
          <internalNodes>
            0 -1 156 -7.9462584108114243e-03</internalNodes>
          <leafValues>
            3.8716131448745728e-01 -3.2155576348304749e-01</leafValues></_>
        <_>
          <internalNodes>
            0 -1 57 5.5193267762660980e-03</internalNodes>
          <leafValues>
            -1.4043855667114258e-01 8.2608294486999512e-01</leafValues></_>
        <_>
          <internalNodes>
            0 -1 147 -1.7712377011775970e-03</internalNodes>
          <leafValues>
            5.0449544191360474e-01 -1.9256232678890228e-01</leafValues></_></weakClassifiers></_>
    <!-- stage 4 -->
    <_>
      <maxWeakCount>12</maxWeakCount>
      <stageThreshold>-1.0796235799789429e+00</stageThreshold>
      <weakClassifiers>
        <_>
          <internalNodes>
            0 -1 27 -2.4163340032100677e-01</internalNodes>
          <leafValues>
            -5.7585644721984863e-01 6.4521545171737671e-01</leafValues></_>
        <_>
          <internalNodes>
            0 -1 76 -1.4786133542656898e-02</internalNodes>
          <leafValues>
            7.0206868648529053e-01 -2.2072461247444153e-01</leafValues></_>
        <_>
          <internalNodes>
            0 -1 54 2.7540352195501328e-02</internalNodes>
          <leafValues>
            -1.2586495280265808e-01 8.3918035030364990e-01</leafValues></_>
        <_>
          <internalNodes>
            0 -1 163 9.4458349049091339e-03</internalNodes>
          <leafValues>
            -2.2078268229961395e-01 5.6050020456314087e-01</leafValues></_>
        <_>
          <internalNodes>
            0 -1 39 -4.2921163141727448e-02</internalNodes>
          <leafValues>
            -2.3643113672733307e-01 5.2029699087142944e-01</leafValues></_>
        <_>
          <internalNodes>
            0 -1 76 1.9236631691455841e-02</internalNodes>
          <leafValues>
            -1.4681833982467651e-01 8.6417943239212036e-01</leafValues></_>
        <_>
          <internalNodes>
            0 -1 8 -1.0385360568761826e-02</internalNodes>
          <leafValues>
            5.2717703580856323e-01 -1.3015078008174896e-01</leafValues></_>
        <_>
          <internalNodes>
            0 -1 85 1.5636794269084930e-02</internalNodes>
          <leafValues>
            -1.2374362349510193e-01 7.6114135980606079e-01</leafValues></_>
        <_>
          <internalNodes>
            0 -1 58 -1.2985121458768845e-02</internalNodes>
          <leafValues>
            5.8827692270278931e-01 -1.4200949668884277e-01</leafValues></_>
        <_>
          <internalNodes>
            0 -1 92 -1.3144597411155701e-02</internalNodes>
          <leafValues>
            6.5383172035217285e-01 -1.4120267331600189e-01</leafValues></_>
        <_>
          <internalNodes>
            0 -1 24 -7.3259994387626648e-02</internalNodes>
          <leafValues>
            -2.5579634308815002e-01 3.5686060786247253e-01</leafValues></_>
        <_>
          <internalNodes>
            0 -1 162 9.8789203912019730e-03</internalNodes>
          <leafValues>
            -1.7702119052410126e-01 4.5847460627555847e-01</leafValues></_></weakClassifiers></_>
    <!-- stage 5 -->
    <_>
      <maxWeakCount>14</maxWeakCount>
      <stageThreshold>-1.2112619876861572e+00</stageThreshold>
      <weakClassifiers>
        <_>
          <internalNodes>
            0 -1 77 -5.9611827135086060e-02</internalNodes>
          <leafValues>
            -5.1025992631912231e-01 7.0281606912612915e-01</leafValues></_>
        <_>
          <internalNodes>
            0 -1 87 4.4456319883465767e-03</internalNodes>
          <leafValues>
            2.6764789223670959e-01 -6.3155692815780640e-01</leafValues></_>
        <_>
          <internalNodes>
            0 -1 60 -2.0551528781652451e-02</internalNodes>
          <leafValues>
            6.9351798295974731e-01 -1.6415922343730927e-01</leafValues></_>
        <_>
          <internalNodes>
            0 -1 123 -7.0451177656650543e-02</internalNodes>
          <leafValues>
            -2.8818434476852417e-01 3.8367328047752380e-01</leafValues></_>
        <_>
          <internalNodes>
            0 -1 94 -3.1597059220075607e-02</internalNodes>
          <leafValues>
            5.5879700183868408e-01 -1.8970838189125061e-01</leafValues></_>
        <_>
          <internalNodes>
            0 -1 119 -5.3624818101525307e-03</internalNodes>
          <leafValues>
            5.3873705863952637e-01 -1.9825182855129242e-01</leafValues></_>
        <_>
          <internalNodes>
            0 -1 47 5.2291631698608398e-02</internalNodes>
          <leafValues>
            -1.3661326467990875e-01 5.7739835977554321e-01</leafValues></_>
        <_>
          <internalNodes>
            0 -1 67 5.0410054624080658e-02</internalNodes>
          <leafValues>
            -9.5852456986904144e-02 7.5834310054779053e-01</leafValues></_>
        <_>
          <internalNodes>
            0 -1 22 -1.3280010782182217e-02</internalNodes>
          <leafValues>
            4.1894853115081787e-01 -1.8325987458229065e-01</leafValues></_>
        <_>
          <internalNodes>
            0 -1 73 -5.2639588713645935e-02</internalNodes>
          <leafValues>
            -4.5849317312240601e-01 1.7571908235549927e-01</leafValues></_>
        <_>
          <internalNodes>
            0 -1 134 -1.5220537781715393e-02</internalNodes>
          <leafValues>
            4.2740398645401001e-01 -2.1108151972293854e-01</leafValues></_>
        <_>
          <internalNodes>
            0 -1 132 1.7367532476782799e-02</internalNodes>
          <leafValues>
            1.6933405399322510e-01 -5.2158498764038086e-01</leafValues></_>
        <_>
          <internalNodes>
            0 -1 108 -4.7090752050280571e-03</internalNodes>
          <leafValues>
            -6.1883401870727539e-01 9.2245168983936310e-02</leafValues></_>
        <_>
          <internalNodes>
            0 -1 129 2.1062567830085754e-02</internalNodes>
          <leafValues>
            -1.0638710111379623e-01 6.9904166460037231e-01</leafValues></_></weakClassifiers></_>
    <!-- stage 6 -->
    <_>
      <maxWeakCount>23</maxWeakCount>
      <stageThreshold>-9.3753570318222046e-01</stageThreshold>
      <weakClassifiers>
        <_>
          <internalNodes>
            0 -1 137 2.4871237576007843e-02</internalNodes>
          <leafValues>
            1.2412177771329880e-01 8.4971100091934204e-01</leafValues></_>
        <_>
          <internalNodes>
            0 -1 61 1.5205461531877518e-02</internalNodes>
          <leafValues>
            -1.2928375601768494e-01 6.1614972352981567e-01</leafValues></_>
        <_>
          <internalNodes>
            0 -1 39 -3.3079206943511963e-02</internalNodes>
          <leafValues>
            -2.4621646106243134e-01 5.5912959575653076e-01</leafValues></_>
        <_>
          <internalNodes>
            0 -1 122 3.8165949285030365e-02</internalNodes>
          <leafValues>
            -1.3058277964591980e-01 6.7561691999435425e-01</leafValues></_>
        <_>
          <internalNodes>
            0 -1 33 9.4638727605342865e-03</internalNodes>
          <leafValues>
            -1.4567662775516510e-01 6.1648768186569214e-01</leafValues></_>
        <_>
          <internalNodes>
            0 -1 157 -3.9900210686028004e-03</internalNodes>
          <leafValues>
            4.1623097658157349e-01 -1.9610053300857544e-01</leafValues></_>
        <_>
          <internalNodes>
            0 -1 148 -7.2190269827842712e-02</internalNodes>
          <leafValues>
            -3.7381404638290405e-01 2.1116986870765686e-01</leafValues></_>
        <_>
          <internalNodes>
            0 -1 78 -1.9379686564207077e-02</internalNodes>
          <leafValues>
            6.2190335988998413e-01 -1.4611838757991791e-01</leafValues></_>
        <_>
          <internalNodes>
            0 -1 25 -2.9357207939028740e-02</internalNodes>
          <leafValues>
            7.6097786426544189e-01 -9.8528183996677399e-02</leafValues></_>
        <_>
          <internalNodes>
            0 -1 34 3.9546471089124680e-03</internalNodes>
          <leafValues>
            -1.4018268883228302e-01 5.2261173725128174e-01</leafValues></_>
        <_>
          <internalNodes>
            0 -1 74 -1.1525051668286324e-02</internalNodes>
          <leafValues>
            5.3452968597412109e-01 -1.2864923477172852e-01</leafValues></_>
        <_>
          <internalNodes>
            0 -1 81 -2.9065888375043869e-02</internalNodes>
          <leafValues>
            5.6512105464935303e-01 -1.2134884297847748e-01</leafValues></_>
        <_>
          <internalNodes>
            0 -1 83 -4.5576423406600952e-02</internalNodes>
          <leafValues>
            7.0824873447418213e-01 -7.6627962291240692e-02</leafValues></_>
        <_>
          <internalNodes>
            0 -1 121 -8.1405397504568100e-03</internalNodes>
          <leafValues>
            3.6090949177742004e-01 -1.3169130682945251e-01</leafValues></_>
        <_>
          <internalNodes>
            0 -1 139 7.6782954856753349e-03</internalNodes>
          <leafValues>
            -1.1867469549179077e-01 5.6996756792068481e-01</leafValues></_>
        <_>
          <internalNodes>
            0 -1 124 -2.4578606709837914e-02</internalNodes>
          <leafValues>
            -9.7026519477367401e-02 6.0919630527496338e-01</leafValues></_>
        <_>
          <internalNodes>
            0 -1 44 -3.8632841315120459e-03</internalNodes>
          <leafValues>
            3.5831516981124878e-01 -1.7631204426288605e-01</leafValues></_>
        <_>
          <internalNodes>
            0 -1 150 1.0886793956160545e-02</internalNodes>
          <leafValues>
            -1.2039452791213989e-01 4.7532436251640320e-01</leafValues></_>
        <_>
          <internalNodes>
            0 -1 26 2.7217282913625240e-03</internalNodes>
          <leafValues>
            -1.4687235653400421e-01 3.7182882428169250e-01</leafValues></_>
        <_>
          <internalNodes>
            0 -1 70 -6.0586282052099705e-03</internalNodes>
          <leafValues>
            4.1008031368255615e-01 -1.3405430316925049e-01</leafValues></_>
        <_>
          <internalNodes>
            0 -1 31 4.6952590346336365e-03</internalNodes>
          <leafValues>
            1.2384574860334396e-01 -4.9138453602790833e-01</leafValues></_>
        <_>
          <internalNodes>
            0 -1 130 -1.6276728361845016e-02</internalNodes>
          <leafValues>
            5.7874637842178345e-01 -1.1467316746711731e-01</leafValues></_>
        <_>
          <internalNodes>
            0 -1 40 -1.3077795505523682e-01</internalNodes>
          <leafValues>
            -6.9310641288757324e-01 9.6918202936649323e-02</leafValues></_></weakClassifiers></_>
    <!-- stage 7 -->
    <_>
      <maxWeakCount>32</maxWeakCount>
      <stageThreshold>-1.0874353647232056e+00</stageThreshold>
      <weakClassifiers>
        <_>
          <internalNodes>
            0 -1 86 -4.0466077625751495e-02</internalNodes>
          <leafValues>
            7.8069132566452026e-01 9.2889174818992615e-02</leafValues></_>
        <_>
          <internalNodes>
            0 -1 146 -6.2398910522460938e-03</internalNodes>
          <leafValues>
            4.7557005286216736e-01 -1.3403819501399994e-01</leafValues></_>
        <_>
          <internalNodes>
            0 -1 166 2.0070139318704605e-02</internalNodes>
          <leafValues>
            -1.1122235655784607e-01 6.1637109518051147e-01</leafValues></_>
        <_>
          <internalNodes>
            0 -1 104 -2.3848105221986771e-02</internalNodes>
          <leafValues>
            -1.2065342813730240e-01 7.0394688844680786e-01</leafValues></_>
        <_>
          <internalNodes>
            0 -1 10 -4.8145338892936707e-02</internalNodes>
          <leafValues>
            5.9471696615219116e-01 -1.2450653314590454e-01</leafValues></_>
        <_>
          <internalNodes>
            0 -1 20 2.0547898486256599e-02</internalNodes>
          <leafValues>
            -1.5240332484245300e-01 4.1021674871444702e-01</leafValues></_>
        <_>
          <internalNodes>
            0 -1 113 2.9344838112592697e-02</internalNodes>
          <leafValues>
            -9.1006293892860413e-02 6.2996441125869751e-01</leafValues></_>
        <_>
          <internalNodes>
            0 -1 79 -2.2516086697578430e-02</internalNodes>
          <leafValues>
            5.4734641313552856e-01 -1.0365087538957596e-01</leafValues></_>
        <_>
          <internalNodes>
            0 -1 41 -1.9246255978941917e-03</internalNodes>
          <leafValues>
            -5.0202244520187378e-01 1.2792932987213135e-01</leafValues></_>
        <_>
          <internalNodes>
            0 -1 120 -9.3471035361289978e-02</internalNodes>
          <leafValues>
            -2.0704427361488342e-01 2.7264937758445740e-01</leafValues></_>
        <_>
          <internalNodes>
            0 -1 49 -3.6317385733127594e-02</internalNodes>
          <leafValues>
            5.7543259859085083e-01 -1.0388452559709549e-01</leafValues></_>
        <_>
          <internalNodes>
            0 -1 93 -4.2623598128557205e-03</internalNodes>
          <leafValues>
            -5.6904035806655884e-01 1.0471961647272110e-01</leafValues></_>
        <_>
          <internalNodes>
            0 -1 111 4.9900817684829235e-03</internalNodes>
          <leafValues>
            6.8643070757389069e-02 -6.6016274690628052e-01</leafValues></_>
        <_>
          <internalNodes>
            0 -1 127 -2.9246289283037186e-02</internalNodes>
          <leafValues>
            5.3520119190216064e-01 -1.0879998654127121e-01</leafValues></_>
        <_>
          <internalNodes>
            0 -1 136 -9.7742993384599686e-03</internalNodes>
          <leafValues>
            4.0250664949417114e-01 -1.1161090433597565e-01</leafValues></_>
        <_>
          <internalNodes>
            0 -1 102 1.4530487358570099e-02</internalNodes>
          <leafValues>
            -7.6388433575630188e-02 6.2928056716918945e-01</leafValues></_>
        <_>
          <internalNodes>
            0 -1 84 2.3074746131896973e-03</internalNodes>
          <leafValues>
            1.0604888945817947e-01 -5.4264026880264282e-01</leafValues></_>
        <_>
          <internalNodes>
            0 -1 63 -4.0313001722097397e-02</internalNodes>
          <leafValues>
            3.6869448423385620e-01 -1.3535481691360474e-01</leafValues></_>
        <_>
          <internalNodes>
            0 -1 168 1.3718242989853024e-03</internalNodes>
          <leafValues>
            1.3552078604698181e-01 -3.8107398152351379e-01</leafValues></_>
        <_>
          <internalNodes>
            0 -1 1 1.5446165343746543e-03</internalNodes>
          <leafValues>
            1.0758035629987717e-01 -4.1253450512886047e-01</leafValues></_>
        <_>
          <internalNodes>
            0 -1 159 -8.1651005893945694e-03</internalNodes>
          <leafValues>
            4.8213908076286316e-01 -9.6934884786605835e-02</leafValues></_>
        <_>
          <internalNodes>
            0 -1 155 1.5134240500628948e-02</internalNodes>
          <leafValues>
            -1.0521822422742844e-01 5.0166755914688110e-01</leafValues></_>
        <_>
          <internalNodes>
            0 -1 141 3.2373681664466858e-02</internalNodes>
          <leafValues>
            -9.3280069530010223e-02 4.6609458327293396e-01</leafValues></_>
        <_>
          <internalNodes>
            0 -1 161 1.3175518251955509e-03</internalNodes>
          <leafValues>
            1.2406352907419205e-01 -3.7883216142654419e-01</leafValues></_>
        <_>
          <internalNodes>
            0 -1 12 -2.2039191797375679e-02</internalNodes>
          <leafValues>
            -7.5761216878890991e-01 5.9572335332632065e-02</leafValues></_>
        <_>
          <internalNodes>
            0 -1 99 1.8043839372694492e-03</internalNodes>
          <leafValues>
            7.8518249094486237e-02 -5.0318282842636108e-01</leafValues></_>
        <_>
          <internalNodes>
            0 -1 29 1.5161233022809029e-02</internalNodes>
          <leafValues>
            -1.5095211565494537e-01 3.1540670990943909e-01</leafValues></_>
        <_>
          <internalNodes>
            0 -1 125 6.3076880760490894e-03</internalNodes>
          <leafValues>
            -8.3873800933361053e-02 5.2404576539993286e-01</leafValues></_>
        <_>
          <internalNodes>
            0 -1 6 -8.2419058308005333e-03</internalNodes>
          <leafValues>
            2.9369139671325684e-01 -1.4525189995765686e-01</leafValues></_>
        <_>
          <internalNodes>
            0 -1 103 2.4002332240343094e-02</internalNodes>
          <leafValues>
            -8.3804100751876831e-02 6.0254961252212524e-01</leafValues></_>
        <_>
          <internalNodes>
            0 -1 117 -8.9881420135498047e-03</internalNodes>
          <leafValues>
            4.2514699697494507e-01 -1.1068446934223175e-01</leafValues></_>
        <_>
          <internalNodes>
            0 -1 37 -8.1001622602343559e-03</internalNodes>
          <leafValues>
            5.6616359949111938e-01 -8.1300511956214905e-02</leafValues></_></weakClassifiers></_>
    <!-- stage 8 -->
    <_>
      <maxWeakCount>29</maxWeakCount>
      <stageThreshold>-1.1323844194412231e+00</stageThreshold>
      <weakClassifiers>
        <_>
          <internalNodes>
            0 -1 59 -7.2619491256773472e-03</internalNodes>
          <leafValues>
            6.6251200437545776e-01 8.0324247479438782e-02</leafValues></_>
        <_>
          <internalNodes>
            0 -1 118 5.7487696176394820e-04</internalNodes>
          <leafValues>
            2.5841918587684631e-01 -4.0024381875991821e-01</leafValues></_>
        <_>
          <internalNodes>
            0 -1 137 3.4374073147773743e-02</internalNodes>
          <leafValues>
            -1.2629707157611847e-01 6.7161321640014648e-01</leafValues></_>
        <_>
          <internalNodes>
            0 -1 48 -2.6265114545822144e-02</internalNodes>
          <leafValues>
            6.3716179132461548e-01 -1.4652125537395477e-01</leafValues></_>
        <_>
          <internalNodes>
            0 -1 68 4.8558814451098442e-03</internalNodes>
          <leafValues>
            1.4034380018711090e-01 -5.0168311595916748e-01</leafValues></_>
        <_>
          <internalNodes>
            0 -1 151 -3.5767208784818649e-02</internalNodes>
          <leafValues>
            3.2547160983085632e-01 -2.0633444190025330e-01</leafValues></_>
        <_>
          <internalNodes>
            0 -1 7 3.3692359924316406e-02</internalNodes>
          <leafValues>
            -1.2347056716680527e-01 5.4206222295761108e-01</leafValues></_>
        <_>
          <internalNodes>
            0 -1 9 -3.1932108104228973e-02</internalNodes>
          <leafValues>
            5.2670669555664063e-01 -1.4583660662174225e-01</leafValues></_>
        <_>
          <internalNodes>
            0 -1 0 7.7203923137858510e-04</internalNodes>
          <leafValues>
            1.8110607564449310e-01 -3.4154656529426575e-01</leafValues></_>
        <_>
          <internalNodes>
            0 -1 133 1.8887781770899892e-03</internalNodes>
          <leafValues>
            1.1695670336484909e-01 -5.0918132066726685e-01</leafValues></_>
        <_>
          <internalNodes>
            0 -1 128 3.8684021681547165e-02</internalNodes>
          <leafValues>
            -1.0995773226022720e-01 5.9070152044296265e-01</leafValues></_>
        <_>
          <internalNodes>
            0 -1 112 -8.2847289741039276e-03</internalNodes>
          <leafValues>
            4.3833976984024048e-01 -1.3756342232227325e-01</leafValues></_>
        <_>
          <internalNodes>
            0 -1 114 -7.7453115954995155e-03</internalNodes>
          <leafValues>
            -6.3517749309539795e-01 9.8497472703456879e-02</leafValues></_>
        <_>
          <internalNodes>
            0 -1 149 1.1904039420187473e-03</internalNodes>
          <leafValues>
            1.2702894210815430e-01 -4.1795510053634644e-01</leafValues></_>
        <_>
          <internalNodes>
            0 -1 105 -6.2347026541829109e-03</internalNodes>
          <leafValues>
            -5.6697112321853638e-01 1.0209574550390244e-01</leafValues></_>
        <_>
          <internalNodes>
            0 -1 160 2.7664401568472385e-03</internalNodes>
          <leafValues>
            8.5466377437114716e-02 -5.6669718027114868e-01</leafValues></_>
        <_>
          <internalNodes>
            0 -1 52 2.1895002573728561e-02</internalNodes>
          <leafValues>
            -1.6677191853523254e-01 3.3196589350700378e-01</leafValues></_>
        <_>
          <internalNodes>
            0 -1 142 -3.3285640180110931e-02</internalNodes>
          <leafValues>
            5.6062984466552734e-01 -9.1951899230480194e-02</leafValues></_>
        <_>
          <internalNodes>
            0 -1 153 1.5584791079163551e-02</internalNodes>
          <leafValues>
            -7.1340426802635193e-02 6.6816037893295288e-01</leafValues></_>
        <_>
          <internalNodes>
            0 -1 111 1.6863570781424642e-03</internalNodes>
          <leafValues>
            1.6707947850227356e-01 -4.0899160504341125e-01</leafValues></_>
        <_>
          <internalNodes>
            0 -1 28 -4.4014438986778259e-02</internalNodes>
          <leafValues>
            4.9326428771018982e-01 -1.2037578225135803e-01</leafValues></_>
        <_>
          <internalNodes>
            0 -1 95 -3.0124108307063580e-03</internalNodes>
          <leafValues>
            -5.8652245998382568e-01 1.0451307892799377e-01</leafValues></_>
        <_>
          <internalNodes>
            0 -1 90 4.6726097352802753e-03</internalNodes>
          <leafValues>
            7.0194818079471588e-02 -6.3051128387451172e-01</leafValues></_>
        <_>
          <internalNodes>
            0 -1 109 1.3419758528470993e-02</internalNodes>
          <leafValues>
            -9.8761491477489471e-02 6.3945877552032471e-01</leafValues></_>
        <_>
          <internalNodes>
            0 -1 167 2.1204464137554169e-03</internalNodes>
          <leafValues>
            1.4120222628116608e-01 -4.1348138451576233e-01</leafValues></_>
        <_>
          <internalNodes>
            0 -1 140 -1.7143737524747849e-02</internalNodes>
          <leafValues>
            5.6201952695846558e-01 -1.0485085844993591e-01</leafValues></_>
        <_>
          <internalNodes>
            0 -1 21 9.3154199421405792e-03</internalNodes>
          <leafValues>
            -1.4633512496948242e-01 3.5270234942436218e-01</leafValues></_>
        <_>
          <internalNodes>
            0 -1 91 -9.2349760234355927e-03</internalNodes>
          <leafValues>
            4.2590054869651794e-01 -1.1437515914440155e-01</leafValues></_>
        <_>
          <internalNodes>
            0 -1 82 4.5434562489390373e-03</internalNodes>
          <leafValues>
            1.0832656919956207e-01 -4.7683894634246826e-01</leafValues></_></weakClassifiers></_>
    <!-- stage 9 -->
    <_>
      <maxWeakCount>30</maxWeakCount>
      <stageThreshold>-9.8994964361190796e-01</stageThreshold>
      <weakClassifiers>
        <_>
          <internalNodes>
            0 -1 80 2.2887043654918671e-02</internalNodes>
          <leafValues>
            1.4336493611335754e-01 7.8370785713195801e-01</leafValues></_>
        <_>
          <internalNodes>
            0 -1 100 -2.5233742780983448e-03</internalNodes>
          <leafValues>
            4.4934028387069702e-01 -1.5445962548255920e-01</leafValues></_>
        <_>
          <internalNodes>
            0 -1 131 -3.1659728847444057e-03</internalNodes>
          <leafValues>
            3.8915714621543884e-01 -2.1230641007423401e-01</leafValues></_>
        <_>
          <internalNodes>
            0 -1 164 1.1814480647444725e-02</internalNodes>
          <leafValues>
            -2.0194429159164429e-01 4.4952592253684998e-01</leafValues></_>
        <_>
          <internalNodes>
            0 -1 106 8.0062989145517349e-03</internalNodes>
          <leafValues>
            -1.1268513649702072e-01 5.1476281881332397e-01</leafValues></_>
        <_>
          <internalNodes>
            0 -1 35 -8.9523382484912872e-03</internalNodes>
          <leafValues>
            4.7182300686836243e-01 -1.4243185520172119e-01</leafValues></_>
        <_>
          <internalNodes>
            0 -1 14 -1.6151003539562225e-01</internalNodes>
          <leafValues>
            2.3256786167621613e-01 -2.1815884113311768e-01</leafValues></_>
        <_>
          <internalNodes>
            0 -1 116 9.1103203594684601e-03</internalNodes>
          <leafValues>
            -8.0888733267784119e-02 6.0405778884887695e-01</leafValues></_>
        <_>
          <internalNodes>
            0 -1 96 -4.9290750175714493e-03</internalNodes>
          <leafValues>
            3.4476926922798157e-01 -1.5513396263122559e-01</leafValues></_>
        <_>
          <internalNodes>
            0 -1 36 5.3309337235987186e-03</internalNodes>
          <leafValues>
            -1.1534503847360611e-01 5.0830060243606567e-01</leafValues></_>
        <_>
          <internalNodes>
            0 -1 11 -1.3268424198031425e-02</internalNodes>
          <leafValues>
            -6.0203179717063904e-02 6.8607884645462036e-01</leafValues></_>
        <_>
          <internalNodes>
            0 -1 5 -1.7152369022369385e-02</internalNodes>
          <leafValues>
            3.9605316519737244e-01 -1.2109266966581345e-01</leafValues></_>
        <_>
          <internalNodes>
            0 -1 158 1.3214718550443649e-02</internalNodes>
          <leafValues>
            -5.2195895463228226e-02 8.0622631311416626e-01</leafValues></_>
        <_>
          <internalNodes>
            0 -1 88 9.8592964932322502e-03</internalNodes>
          <leafValues>
            1.1547766625881195e-01 -4.6606913208961487e-01</leafValues></_>
        <_>
          <internalNodes>
            0 -1 154 9.7471587359905243e-03</internalNodes>
          <leafValues>
            -1.4337958395481110e-01 3.9127451181411743e-01</leafValues></_>
        <_>
          <internalNodes>
            0 -1 152 -9.8270680755376816e-03</internalNodes>
          <leafValues>
            4.4106981158256531e-01 -1.2663157284259796e-01</leafValues></_>
        <_>
          <internalNodes>
            0 -1 65 -2.5891641154885292e-02</internalNodes>
          <leafValues>
            -4.8087278008460999e-01 1.1546219140291214e-01</leafValues></_>
        <_>
          <internalNodes>
            0 -1 97 -6.8073673173785210e-03</internalNodes>
          <leafValues>
            3.7652978301048279e-01 -1.4579004049301147e-01</leafValues></_>
        <_>
          <internalNodes>
            0 -1 69 -4.7842906787991524e-03</internalNodes>
          <leafValues>
            3.9582049846649170e-01 -1.4142908155918121e-01</leafValues></_>
        <_>
          <internalNodes>
            0 -1 45 2.7284990064799786e-03</internalNodes>
          <leafValues>
            -1.6854774951934814e-01 2.6081493496894836e-01</leafValues></_>
        <_>
          <internalNodes>
            0 -1 64 -2.0205979235470295e-03</internalNodes>
          <leafValues>
            3.4387379884719849e-01 -1.5611052513122559e-01</leafValues></_>
        <_>
          <internalNodes>
            0 -1 138 -9.3021001666784286e-03</internalNodes>
          <leafValues>
            -1.9206790626049042e-01 2.5626382231712341e-01</leafValues></_>
        <_>
          <internalNodes>
            0 -1 32 1.4274541754275560e-03</internalNodes>
          <leafValues>
            -1.4914287626743317e-01 3.1781941652297974e-01</leafValues></_>
        <_>
          <internalNodes>
            0 -1 56 -1.0203789919614792e-02</internalNodes>
          <leafValues>
            3.9758554100990295e-01 -1.0745165497064590e-01</leafValues></_>
        <_>
          <internalNodes>
            0 -1 99 1.9472399726510048e-03</internalNodes>
          <leafValues>
            8.9052960276603699e-02 -5.4228806495666504e-01</leafValues></_>
        <_>
          <internalNodes>
            0 -1 144 1.0112707503139973e-02</internalNodes>
          <leafValues>
            -7.0639371871948242e-02 7.2849667072296143e-01</leafValues></_>
        <_>
          <internalNodes>
            0 -1 13 1.0584345087409019e-02</internalNodes>
          <leafValues>
            -9.7292780876159668e-02 4.3128463625907898e-01</leafValues></_>
        <_>
          <internalNodes>
            0 -1 43 1.0222757235169411e-02</internalNodes>
          <leafValues>
            -1.0103612393140793e-01 5.1884937286376953e-01</leafValues></_>
        <_>
          <internalNodes>
            0 -1 18 -3.9750874042510986e-02</internalNodes>
          <leafValues>
            -3.6574801802635193e-01 1.4884535968303680e-01</leafValues></_>
        <_>
          <internalNodes>
            0 -1 23 -1.1135866865515709e-02</internalNodes>
          <leafValues>
            7.1644616127014160e-01 -5.6360378861427307e-02</leafValues></_></weakClassifiers></_></stages>
  <features>
    <_>
      <rects>
        <_>
          0 0 2 1 -1.</_>
        <_>
          1 0 1 1 2.</_></rects>
      <tilted>0</tilted></_>
    <_>
      <rects>
        <_>
          0 0 2 2 -1.</_>
        <_>
          0 0 1 1 2.</_>
        <_>
          1 1 1 1 2.</_></rects>
      <tilted>0</tilted></_>
    <_>
      <rects>
        <_>
          0 1 12 16 -1.</_>
        <_>
          0 1 6 8 2.</_>
        <_>
          6 9 6 8 2.</_></rects>
      <tilted>0</tilted></_>
    <_>
      <rects>
        <_>
          0 3 2 12 -1.</_>
        <_>
          1 3 1 12 2.</_></rects>
      <tilted>0</tilted></_>
    <_>
      <rects>
        <_>
          0 3 2 14 -1.</_>
        <_>
          1 3 1 14 2.</_></rects>
      <tilted>0</tilted></_>
    <_>
      <rects>
        <_>
          0 4 2 13 -1.</_>
        <_>
          1 4 1 13 2.</_></rects>
      <tilted>0</tilted></_>
    <_>
      <rects>
        <_>
          0 4 2 14 -1.</_>
        <_>
          1 4 1 14 2.</_></rects>
      <tilted>0</tilted></_>
    <_>
      <rects>
        <_>
          0 4 4 9 -1.</_>
        <_>
          2 4 2 9 2.</_></rects>
      <tilted>0</tilted></_>
    <_>
      <rects>
        <_>
          0 5 2 8 -1.</_>
        <_>
          1 5 1 8 2.</_></rects>
      <tilted>0</tilted></_>
    <_>
      <rects>
        <_>
          0 5 4 10 -1.</_>
        <_>
          2 5 2 10 2.</_></rects>
      <tilted>0</tilted></_>
    <_>
      <rects>
        <_>
          0 6 4 12 -1.</_>
        <_>
          2 6 2 12 2.</_></rects>
      <tilted>0</tilted></_>
    <_>
      <rects>
        <_>
          0 8 6 2 -1.</_>
        <_>
          2 8 2 2 2.</_></rects>
      <tilted>0</tilted></_>
    <_>
      <rects>
        <_>
          0 9 16 2 -1.</_>
        <_>
          0 9 8 1 2.</_>
        <_>
          8 10 8 1 2.</_></rects>
      <tilted>0</tilted></_>
    <_>
      <rects>
        <_>
          0 13 10 2 -1.</_>
        <_>
          0 13 5 1 2.</_>
        <_>
          5 14 5 1 2.</_></rects>
      <tilted>0</tilted></_>
    <_>
      <rects>
        <_>
          1 0 16 18 -1.</_>
        <_>
          1 9 16 9 2.</_></rects>
      <tilted>0</tilted></_>
    <_>
      <rects>
        <_>
          1 2 2 13 -1.</_>
        <_>
          2 2 1 13 2.</_></rects>
      <tilted>0</tilted></_>
    <_>
      <rects>
        <_>
          1 2 15 13 -1.</_>
        <_>
          6 2 5 13 2.</_></rects>
      <tilted>0</tilted></_>
    <_>
      <rects>
        <_>
          1 3 15 12 -1.</_>
        <_>
          1 7 15 4 2.</_></rects>
      <tilted>0</tilted></_>
    <_>
      <rects>
        <_>
          1 4 10 12 -1.</_>
        <_>
          1 4 5 6 2.</_>
        <_>
          6 10 5 6 2.</_></rects>
      <tilted>0</tilted></_>
    <_>
      <rects>
        <_>
          1 8 2 2 -1.</_>
        <_>
          2 8 1 2 2.</_></rects>
      <tilted>0</tilted></_>
    <_>
      <rects>
        <_>
          1 8 4 5 -1.</_>
        <_>
          3 8 2 5 2.</_></rects>
      <tilted>0</tilted></_>
    <_>
      <rects>
        <_>
          1 10 4 2 -1.</_>
        <_>
          3 10 2 2 2.</_></rects>
      <tilted>0</tilted></_>
    <_>
      <rects>
        <_>
          1 10 4 6 -1.</_>
        <_>
          1 10 2 3 2.</_>
        <_>
          3 13 2 3 2.</_></rects>
      <tilted>0</tilted></_>
    <_>
      <rects>
        <_>
          1 11 2 4 -1.</_>
        <_>
          1 11 1 2 2.</_>
        <_>
          2 13 1 2 2.</_></rects>
      <tilted>0</tilted></_>
    <_>
      <rects>
        <_>
          1 11 9 2 -1.</_>
        <_>
          4 11 3 2 2.</_></rects>
      <tilted>0</tilted></_>
    <_>
      <rects>
        <_>
          1 11 6 4 -1.</_>
        <_>
          1 11 3 2 2.</_>
        <_>
          4 13 3 2 2.</_></rects>
      <tilted>0</tilted></_>
    <_>
      <rects>
        <_>
          1 12 4 2 -1.</_>
        <_>
          1 12 2 1 2.</_>
        <_>
          3 13 2 1 2.</_></rects>
      <tilted>0</tilted></_>
    <_>
      <rects>
        <_>
          1 12 15 3 -1.</_>
        <_>
          6 12 5 3 2.</_></rects>
      <tilted>0</tilted></_>
    <_>
      <rects>
        <_>
          2 4 8 4 -1.</_>
        <_>
          6 4 4 4 2.</_></rects>
      <tilted>0</tilted></_>
    <_>
      <rects>
        <_>
          2 7 4 8 -1.</_>
        <_>
          2 7 2 4 2.</_>
        <_>
          4 11 2 4 2.</_></rects>
      <tilted>0</tilted></_>
    <_>
      <rects>
        <_>
          2 8 2 6 -1.</_>
        <_>
          3 8 1 6 2.</_></rects>
      <tilted>0</tilted></_>
    <_>
      <rects>
        <_>
          2 8 4 2 -1.</_>
        <_>
          2 9 4 1 2.</_></rects>
      <tilted>0</tilted></_>
    <_>
      <rects>
        <_>
          2 9 2 1 -1.</_>
        <_>
          3 9 1 1 2.</_></rects>
      <tilted>0</tilted></_>
    <_>
      <rects>
        <_>
          2 9 2 4 -1.</_>
        <_>
          3 9 1 4 2.</_></rects>
      <tilted>0</tilted></_>
    <_>
      <rects>
        <_>
          2 10 2 4 -1.</_>
        <_>
          2 10 1 2 2.</_>
        <_>
          3 12 1 2 2.</_></rects>
      <tilted>0</tilted></_>
    <_>
      <rects>
        <_>
          2 10 2 6 -1.</_>
        <_>
          2 10 1 3 2.</_>
        <_>
          3 13 1 3 2.</_></rects>
      <tilted>0</tilted></_>
    <_>
      <rects>
        <_>
          2 11 2 4 -1.</_>
        <_>
          2 11 1 2 2.</_>
        <_>
          3 13 1 2 2.</_></rects>
      <tilted>0</tilted></_>
    <_>
      <rects>
        <_>
          2 12 4 1 -1.</_>
        <_>
          4 12 2 1 2.</_></rects>
      <tilted>0</tilted></_>
    <_>
      <rects>
        <_>
          2 14 14 4 -1.</_>
        <_>
          2 16 14 2 2.</_></rects>
      <tilted>0</tilted></_>
    <_>
      <rects>
        <_>
          2 15 15 1 -1.</_>
        <_>
          7 15 5 1 2.</_></rects>
      <tilted>0</tilted></_>
    <_>
      <rects>
        <_>
          2 15 6 3 -1.</_>
        <_>
          2 16 6 1 2.</_></rects>
      <tilted>0</tilted></_>
    <_>
      <rects>
        <_>
          2 16 2 2 -1.</_>
        <_>
          2 16 1 1 2.</_>
        <_>
          3 17 1 1 2.</_></rects>
      <tilted>0</tilted></_>
    <_>
      <rects>
        <_>
          2 16 14 2 -1.</_>
        <_>
          2 17 14 1 2.</_></rects>
      <tilted>0</tilted></_>
    <_>
      <rects>
        <_>
          3 6 2 5 -1.</_>
        <_>
          4 6 1 5 2.</_></rects>
      <tilted>0</tilted></_>
    <_>
      <rects>
        <_>
          3 10 1 4 -1.</_>
        <_>
          3 12 1 2 2.</_></rects>
      <tilted>0</tilted></_>
    <_>
      <rects>
        <_>
          3 11 4 4 -1.</_>
        <_>
          3 11 2 2 2.</_>
        <_>
          5 13 2 2 2.</_></rects>
      <tilted>0</tilted></_>
    <_>
      <rects>
        <_>
          3 12 2 2 -1.</_>
        <_>
          4 12 1 2 2.</_></rects>
      <tilted>0</tilted></_>
    <_>
      <rects>
        <_>
          3 14 11 4 -1.</_>
        <_>
          3 16 11 2 2.</_></rects>
      <tilted>0</tilted></_>
    <_>
      <rects>
        <_>
          4 11 3 4 -1.</_>
        <_>
          4 13 3 2 2.</_></rects>
      <tilted>0</tilted></_>
    <_>
      <rects>
        <_>
          4 11 5 4 -1.</_>
        <_>
          4 13 5 2 2.</_></rects>
      <tilted>0</tilted></_>
    <_>
      <rects>
        <_>
          4 12 4 2 -1.</_>
        <_>
          4 13 4 1 2.</_></rects>
      <tilted>0</tilted></_>
    <_>
      <rects>
        <_>
          4 14 10 2 -1.</_>
        <_>
          4 15 10 1 2.</_></rects>
      <tilted>0</tilted></_>
    <_>
      <rects>
        <_>
          4 14 10 4 -1.</_>
        <_>
          4 16 10 2 2.</_></rects>
      <tilted>0</tilted></_>
    <_>
      <rects>
        <_>
          4 15 9 2 -1.</_>
        <_>
          4 16 9 1 2.</_></rects>
      <tilted>0</tilted></_>
    <_>
      <rects>
        <_>
          4 16 12 2 -1.</_>
        <_>
          4 17 12 1 2.</_></rects>
      <tilted>0</tilted></_>
    <_>
      <rects>
        <_>
          5 2 5 6 -1.</_>
        <_>
          5 5 5 3 2.</_></rects>
      <tilted>0</tilted></_>
    <_>
      <rects>
        <_>
          5 3 8 2 -1.</_>
        <_>
          5 4 8 1 2.</_></rects>
      <tilted>0</tilted></_>
    <_>
      <rects>
        <_>
          5 12 2 2 -1.</_>
        <_>
          5 13 2 1 2.</_></rects>
      <tilted>0</tilted></_>
    <_>
      <rects>
        <_>
          5 13 6 2 -1.</_>
        <_>
          5 14 6 1 2.</_></rects>
      <tilted>0</tilted></_>
    <_>
      <rects>
        <_>
          5 14 4 2 -1.</_>
        <_>
          5 15 4 1 2.</_></rects>
      <tilted>0</tilted></_>
    <_>
      <rects>
        <_>
          5 14 7 2 -1.</_>
        <_>
          5 15 7 1 2.</_></rects>
      <tilted>0</tilted></_>
    <_>
      <rects>
        <_>
          5 16 7 2 -1.</_>
        <_>
          5 17 7 1 2.</_></rects>
      <tilted>0</tilted></_>
    <_>
      <rects>
        <_>
          6 1 12 16 -1.</_>
        <_>
          6 9 12 8 2.</_></rects>
      <tilted>0</tilted></_>
    <_>
      <rects>
        <_>
          6 2 6 6 -1.</_>
        <_>
          6 5 6 3 2.</_></rects>
      <tilted>0</tilted></_>
    <_>
      <rects>
        <_>
          6 12 1 2 -1.</_>
        <_>
          6 13 1 1 2.</_></rects>
      <tilted>0</tilted></_>
    <_>
      <rects>
        <_>
          6 12 6 4 -1.</_>
        <_>
          9 12 3 4 2.</_></rects>
      <tilted>0</tilted></_>
    <_>
      <rects>
        <_>
          6 12 7 2 -1.</_>
        <_>
          6 13 7 1 2.</_></rects>
      <tilted>0</tilted></_>
    <_>
      <rects>
        <_>
          6 12 7 4 -1.</_>
        <_>
          6 14 7 2 2.</_></rects>
      <tilted>0</tilted></_>
    <_>
      <rects>
        <_>
          6 13 2 4 -1.</_>
        <_>
          7 13 1 4 2.</_></rects>
      <tilted>0</tilted></_>
    <_>
      <rects>
        <_>
          6 13 2 2 -1.</_>
        <_>
          6 14 2 1 2.</_></rects>
      <tilted>0</tilted></_>
    <_>
      <rects>
        <_>
          6 13 3 2 -1.</_>
        <_>
          6 14 3 1 2.</_></rects>
      <tilted>0</tilted></_>
    <_>
      <rects>
        <_>
          6 13 5 2 -1.</_>
        <_>
          6 14 5 1 2.</_></rects>
      <tilted>0</tilted></_>
    <_>
      <rects>
        <_>
          6 13 7 2 -1.</_>
        <_>
          6 14 7 1 2.</_></rects>
      <tilted>0</tilted></_>
    <_>
      <rects>
        <_>
          6 14 3 3 -1.</_>
        <_>
          6 15 3 1 2.</_></rects>
      <tilted>0</tilted></_>
    <_>
      <rects>
        <_>
          6 14 4 2 -1.</_>
        <_>
          6 15 4 1 2.</_></rects>
      <tilted>0</tilted></_>
    <_>
      <rects>
        <_>
          6 14 6 2 -1.</_>
        <_>
          6 15 6 1 2.</_></rects>
      <tilted>0</tilted></_>
    <_>
      <rects>
        <_>
          6 14 7 2 -1.</_>
        <_>
          6 15 7 1 2.</_></rects>
      <tilted>0</tilted></_>
    <_>
      <rects>
        <_>
          6 15 6 2 -1.</_>
        <_>
          8 15 2 2 2.</_></rects>
      <tilted>0</tilted></_>
    <_>
      <rects>
        <_>
          6 15 6 2 -1.</_>
        <_>
          6 16 6 1 2.</_></rects>
      <tilted>0</tilted></_>
    <_>
      <rects>
        <_>
          6 15 7 2 -1.</_>
        <_>
          6 16 7 1 2.</_></rects>
      <tilted>0</tilted></_>
    <_>
      <rects>
        <_>
          6 16 9 2 -1.</_>
        <_>
          6 17 9 1 2.</_></rects>
      <tilted>0</tilted></_>
    <_>
      <rects>
        <_>
          7 2 6 4 -1.</_>
        <_>
          7 4 6 2 2.</_></rects>
      <tilted>0</tilted></_>
    <_>
      <rects>
        <_>
          7 6 4 2 -1.</_>
        <_>
          7 6 2 1 2.</_>
        <_>
          9 7 2 1 2.</_></rects>
      <tilted>0</tilted></_>
    <_>
      <rects>
        <_>
          7 10 6 4 -1.</_>
        <_>
          7 12 6 2 2.</_></rects>
      <tilted>0</tilted></_>
    <_>
      <rects>
        <_>
          7 13 2 1 -1.</_>
        <_>
          8 13 1 1 2.</_></rects>
      <tilted>0</tilted></_>
    <_>
      <rects>
        <_>
          7 13 5 2 -1.</_>
        <_>
          7 14 5 1 2.</_></rects>
      <tilted>0</tilted></_>
    <_>
      <rects>
        <_>
          7 13 6 4 -1.</_>
        <_>
          7 15 6 2 2.</_></rects>
      <tilted>0</tilted></_>
    <_>
      <rects>
        <_>
          7 14 2 3 -1.</_>
        <_>
          8 14 1 3 2.</_></rects>
      <tilted>0</tilted></_>
    <_>
      <rects>
        <_>
          7 14 4 3 -1.</_>
        <_>
          9 14 2 3 2.</_></rects>
      <tilted>0</tilted></_>
    <_>
      <rects>
        <_>
          7 14 10 2 -1.</_>
        <_>
          7 15 10 1 2.</_></rects>
      <tilted>0</tilted></_>
    <_>
      <rects>
        <_>
          7 15 2 2 -1.</_>
        <_>
          8 15 1 2 2.</_></rects>
      <tilted>0</tilted></_>
    <_>
      <rects>
        <_>
          7 15 3 2 -1.</_>
        <_>
          7 16 3 1 2.</_></rects>
      <tilted>0</tilted></_>
    <_>
      <rects>
        <_>
          7 15 4 2 -1.</_>
        <_>
          7 16 4 1 2.</_></rects>
      <tilted>0</tilted></_>
    <_>
      <rects>
        <_>
          8 1 2 2 -1.</_>
        <_>
          9 1 1 2 2.</_></rects>
      <tilted>0</tilted></_>
    <_>
      <rects>
        <_>
          8 11 6 4 -1.</_>
        <_>
          8 13 6 2 2.</_></rects>
      <tilted>0</tilted></_>
    <_>
      <rects>
        <_>
          8 14 2 1 -1.</_>
        <_>
          9 14 1 1 2.</_></rects>
      <tilted>0</tilted></_>
    <_>
      <rects>
        <_>
          8 14 2 2 -1.</_>
        <_>
          8 15 2 1 2.</_></rects>
      <tilted>0</tilted></_>
    <_>
      <rects>
        <_>
          8 14 8 2 -1.</_>
        <_>
          8 14 4 1 2.</_>
        <_>
          12 15 4 1 2.</_></rects>
      <tilted>0</tilted></_>
    <_>
      <rects>
        <_>
          8 14 5 2 -1.</_>
        <_>
          8 15 5 1 2.</_></rects>
      <tilted>0</tilted></_>
    <_>
      <rects>
        <_>
          8 15 2 1 -1.</_>
        <_>
          9 15 1 1 2.</_></rects>
      <tilted>0</tilted></_>
    <_>
      <rects>
        <_>
          8 15 1 2 -1.</_>
        <_>
          8 16 1 1 2.</_></rects>
      <tilted>0</tilted></_>
    <_>
      <rects>
        <_>
          8 15 10 2 -1.</_>
        <_>
          8 15 5 1 2.</_>
        <_>
          13 16 5 1 2.</_></rects>
      <tilted>0</tilted></_>
    <_>
      <rects>
        <_>
          8 16 3 2 -1.</_>
        <_>
          8 17 3 1 2.</_></rects>
      <tilted>0</tilted></_>
    <_>
      <rects>
        <_>
          9 1 4 4 -1.</_>
        <_>
          9 3 4 2 2.</_></rects>
      <tilted>0</tilted></_>
    <_>
      <rects>
        <_>
          9 12 3 6 -1.</_>
        <_>
          9 14 3 2 2.</_></rects>
      <tilted>0</tilted></_>
    <_>
      <rects>
        <_>
          9 13 2 4 -1.</_>
        <_>
          10 13 1 4 2.</_></rects>
      <tilted>0</tilted></_>
    <_>
      <rects>
        <_>
          9 13 4 2 -1.</_>
        <_>
          9 14 4 1 2.</_></rects>
      <tilted>0</tilted></_>
    <_>
      <rects>
        <_>
          9 13 5 2 -1.</_>
        <_>
          9 14 5 1 2.</_></rects>
      <tilted>0</tilted></_>
    <_>
      <rects>
        <_>
          9 14 2 3 -1.</_>
        <_>
          10 14 1 3 2.</_></rects>
      <tilted>0</tilted></_>
    <_>
      <rects>
        <_>
          9 14 4 2 -1.</_>
        <_>
          9 15 4 1 2.</_></rects>
      <tilted>0</tilted></_>
    <_>
      <rects>
        <_>
          9 14 7 3 -1.</_>
        <_>
          9 15 7 1 2.</_></rects>
      <tilted>0</tilted></_>
    <_>
      <rects>
        <_>
          9 15 2 2 -1.</_>
        <_>
          10 15 1 2 2.</_></rects>
      <tilted>0</tilted></_>
    <_>
      <rects>
        <_>
          9 15 3 2 -1.</_>
        <_>
          9 16 3 1 2.</_></rects>
      <tilted>0</tilted></_>
    <_>
      <rects>
        <_>
          10 12 6 4 -1.</_>
        <_>
          10 12 3 2 2.</_>
        <_>
          13 14 3 2 2.</_></rects>
      <tilted>0</tilted></_>
    <_>
      <rects>
        <_>
          10 13 2 4 -1.</_>
        <_>
          11 13 1 4 2.</_></rects>
      <tilted>0</tilted></_>
    <_>
      <rects>
        <_>
          10 13 8 4 -1.</_>
        <_>
          10 13 4 2 2.</_>
        <_>
          14 15 4 2 2.</_></rects>
      <tilted>0</tilted></_>
    <_>
      <rects>
        <_>
          10 14 2 2 -1.</_>
        <_>
          10 15 2 1 2.</_></rects>
      <tilted>0</tilted></_>
    <_>
      <rects>
        <_>
          10 14 3 2 -1.</_>
        <_>
          10 15 3 1 2.</_></rects>
      <tilted>0</tilted></_>
    <_>
      <rects>
        <_>
          10 15 2 1 -1.</_>
        <_>
          11 15 1 1 2.</_></rects>
      <tilted>0</tilted></_>
    <_>
      <rects>
        <_>
          10 15 2 2 -1.</_>
        <_>
          10 16 2 1 2.</_></rects>
      <tilted>0</tilted></_>
    <_>
      <rects>
        <_>
          11 10 6 5 -1.</_>
        <_>
          13 10 2 5 2.</_></rects>
      <tilted>0</tilted></_>
    <_>
      <rects>
        <_>
          11 10 6 4 -1.</_>
        <_>
          11 10 3 2 2.</_>
        <_>
          14 12 3 2 2.</_></rects>
      <tilted>0</tilted></_>
    <_>
      <rects>
        <_>
          11 10 6 6 -1.</_>
        <_>
          11 10 3 3 2.</_>
        <_>
          14 13 3 3 2.</_></rects>
      <tilted>0</tilted></_>
    <_>
      <rects>
        <_>
          11 11 6 3 -1.</_>
        <_>
          13 11 2 3 2.</_></rects>
      <tilted>0</tilted></_>
    <_>
      <rects>
        <_>
          11 12 2 6 -1.</_>
        <_>
          11 14 2 2 2.</_></rects>
      <tilted>0</tilted></_>
    <_>
      <rects>
        <_>
          11 14 2 2 -1.</_>
        <_>
          11 15 2 1 2.</_></rects>
      <tilted>0</tilted></_>
    <_>
      <rects>
        <_>
          12 0 3 17 -1.</_>
        <_>
          13 0 1 17 2.</_></rects>
      <tilted>0</tilted></_>
    <_>
      <rects>
        <_>
          12 4 4 8 -1.</_>
        <_>
          12 4 2 4 2.</_>
        <_>
          14 8 2 4 2.</_></rects>
      <tilted>0</tilted></_>
    <_>
      <rects>
        <_>
          12 9 4 8 -1.</_>
        <_>
          12 9 2 4 2.</_>
        <_>
          14 13 2 4 2.</_></rects>
      <tilted>0</tilted></_>
    <_>
      <rects>
        <_>
          12 10 4 4 -1.</_>
        <_>
          12 10 2 2 2.</_>
        <_>
          14 12 2 2 2.</_></rects>
      <tilted>0</tilted></_>
    <_>
      <rects>
        <_>
          12 12 4 4 -1.</_>
        <_>
          12 12 2 2 2.</_>
        <_>
          14 14 2 2 2.</_></rects>
      <tilted>0</tilted></_>
    <_>
      <rects>
        <_>
          12 13 2 2 -1.</_>
        <_>
          12 14 2 1 2.</_></rects>
      <tilted>0</tilted></_>
    <_>
      <rects>
        <_>
          13 0 1 18 -1.</_>
        <_>
          13 9 1 9 2.</_></rects>
      <tilted>0</tilted></_>
    <_>
      <rects>
        <_>
          13 1 2 2 -1.</_>
        <_>
          13 1 1 1 2.</_>
        <_>
          14 2 1 1 2.</_></rects>
      <tilted>0</tilted></_>
    <_>
      <rects>
        <_>
          13 10 4 4 -1.</_>
        <_>
          15 10 2 4 2.</_></rects>
      <tilted>0</tilted></_>
    <_>
      <rects>
        <_>
          13 10 4 3 -1.</_>
        <_>
          13 11 4 1 2.</_></rects>
      <tilted>0</tilted></_>
    <_>
      <rects>
        <_>
          13 11 4 4 -1.</_>
        <_>
          13 11 2 2 2.</_>
        <_>
          15 13 2 2 2.</_></rects>
      <tilted>0</tilted></_>
    <_>
      <rects>
        <_>
          13 11 4 6 -1.</_>
        <_>
          13 11 2 3 2.</_>
        <_>
          15 14 2 3 2.</_></rects>
      <tilted>0</tilted></_>
    <_>
      <rects>
        <_>
          13 12 3 1 -1.</_>
        <_>
          14 12 1 1 2.</_></rects>
      <tilted>0</tilted></_>
    <_>
      <rects>
        <_>
          13 13 1 4 -1.</_>
        <_>
          13 15 1 2 2.</_></rects>
      <tilted>0</tilted></_>
    <_>
      <rects>
        <_>
          14 7 2 7 -1.</_>
        <_>
          15 7 1 7 2.</_></rects>
      <tilted>0</tilted></_>
    <_>
      <rects>
        <_>
          14 7 4 10 -1.</_>
        <_>
          14 7 2 5 2.</_>
        <_>
          16 12 2 5 2.</_></rects>
      <tilted>0</tilted></_>
    <_>
      <rects>
        <_>
          14 7 4 7 -1.</_>
        <_>
          16 7 2 7 2.</_></rects>
      <tilted>0</tilted></_>
    <_>
      <rects>
        <_>
          14 8 2 7 -1.</_>
        <_>
          15 8 1 7 2.</_></rects>
      <tilted>0</tilted></_>
    <_>
      <rects>
        <_>
          14 9 2 4 -1.</_>
        <_>
          14 9 1 2 2.</_>
        <_>
          15 11 1 2 2.</_></rects>
      <tilted>0</tilted></_>
    <_>
      <rects>
        <_>
          14 10 2 4 -1.</_>
        <_>
          15 10 1 4 2.</_></rects>
      <tilted>0</tilted></_>
    <_>
      <rects>
        <_>
          14 11 1 4 -1.</_>
        <_>
          14 13 1 2 2.</_></rects>
      <tilted>0</tilted></_>
    <_>
      <rects>
        <_>
          14 13 1 2 -1.</_>
        <_>
          14 14 1 1 2.</_></rects>
      <tilted>0</tilted></_>
    <_>
      <rects>
        <_>
          15 0 1 15 -1.</_>
        <_>
          15 5 1 5 2.</_></rects>
      <tilted>0</tilted></_>
    <_>
      <rects>
        <_>
          15 1 2 2 -1.</_>
        <_>
          15 1 1 1 2.</_>
        <_>
          16 2 1 1 2.</_></rects>
      <tilted>0</tilted></_>
    <_>
      <rects>
        <_>
          15 4 2 10 -1.</_>
        <_>
          15 4 1 5 2.</_>
        <_>
          16 9 1 5 2.</_></rects>
      <tilted>0</tilted></_>
    <_>
      <rects>
        <_>
          15 4 2 12 -1.</_>
        <_>
          15 10 2 6 2.</_></rects>
      <tilted>0</tilted></_>
    <_>
      <rects>
        <_>
          15 5 2 8 -1.</_>
        <_>
          16 5 1 8 2.</_></rects>
      <tilted>0</tilted></_>
    <_>
      <rects>
        <_>
          15 7 2 5 -1.</_>
        <_>
          16 7 1 5 2.</_></rects>
      <tilted>0</tilted></_>
    <_>
      <rects>
        <_>
          15 7 2 6 -1.</_>
        <_>
          16 7 1 6 2.</_></rects>
      <tilted>0</tilted></_>
    <_>
      <rects>
        <_>
          15 7 2 7 -1.</_>
        <_>
          16 7 1 7 2.</_></rects>
      <tilted>0</tilted></_>
    <_>
      <rects>
        <_>
          15 7 3 6 -1.</_>
        <_>
          15 10 3 3 2.</_></rects>
      <tilted>0</tilted></_>
    <_>
      <rects>
        <_>
          15 8 2 6 -1.</_>
        <_>
          15 8 1 3 2.</_>
        <_>
          16 11 1 3 2.</_></rects>
      <tilted>0</tilted></_>
    <_>
      <rects>
        <_>
          15 11 2 4 -1.</_>
        <_>
          15 11 1 2 2.</_>
        <_>
          16 13 1 2 2.</_></rects>
      <tilted>0</tilted></_>
    <_>
      <rects>
        <_>
          15 11 2 3 -1.</_>
        <_>
          16 11 1 3 2.</_></rects>
      <tilted>0</tilted></_>
    <_>
      <rects>
        <_>
          15 16 2 2 -1.</_>
        <_>
          15 16 1 1 2.</_>
        <_>
          16 17 1 1 2.</_></rects>
      <tilted>0</tilted></_>
    <_>
      <rects>
        <_>
          16 0 2 1 -1.</_>
        <_>
          17 0 1 1 2.</_></rects>
      <tilted>0</tilted></_>
    <_>
      <rects>
        <_>
          16 2 2 12 -1.</_>
        <_>
          17 2 1 12 2.</_></rects>
      <tilted>0</tilted></_>
    <_>
      <rects>
        <_>
          16 4 2 10 -1.</_>
        <_>
          16 4 1 5 2.</_>
        <_>
          17 9 1 5 2.</_></rects>
      <tilted>0</tilted></_>
    <_>
      <rects>
        <_>
          16 6 2 7 -1.</_>
        <_>
          17 6 1 7 2.</_></rects>
      <tilted>0</tilted></_>
    <_>
      <rects>
        <_>
          16 8 2 10 -1.</_>
        <_>
          17 8 1 10 2.</_></rects>
      <tilted>0</tilted></_>
    <_>
      <rects>
        <_>
          16 9 2 7 -1.</_>
        <_>
          17 9 1 7 2.</_></rects>
      <tilted>0</tilted></_>
    <_>
      <rects>
        <_>
          16 9 2 2 -1.</_>
        <_>
          16 10 2 1 2.</_></rects>
      <tilted>0</tilted></_>
    <_>
      <rects>
        <_>
          16 16 2 2 -1.</_>
        <_>
          16 16 1 1 2.</_>
        <_>
          17 17 1 1 2.</_></rects>
      <tilted>0</tilted></_></features></cascade>
</opencv_storage>
