<?xml version="1.0"?>
<opencv_storage>
<stage8>
  <maxWeakCount>29</maxWeakCount>
  <stageThreshold>-1.1323844194412231e+00</stageThreshold>
  <weakClassifiers>
    <_>
      <internalNodes>
        0 -1 28413 -7.2619491256773472e-03</internalNodes>
      <leafValues>
        6.6251200437545776e-01 8.0324247479438782e-02</leafValues></_>
    <_>
      <internalNodes>
        0 -1 43720 5.7487696176394820e-04</internalNodes>
      <leafValues>
        2.5841918587684631e-01 -4.0024381875991821e-01</leafValues></_>
    <_>
      <internalNodes>
        0 -1 48864 3.4374073147773743e-02</internalNodes>
      <leafValues>
        -1.2629707157611847e-01 6.7161321640014648e-01</leafValues></_>
    <_>
      <internalNodes>
        0 -1 24055 -2.6265114545822144e-02</internalNodes>
      <leafValues>
        6.3716179132461548e-01 -1.4652125537395477e-01</leafValues></_>
    <_>
      <internalNodes>
        0 -1 32072 4.8558814451098442e-03</internalNodes>
      <leafValues>
        1.4034380018711090e-01 -5.0168311595916748e-01</leafValues></_>
    <_>
      <internalNodes>
        0 -1 50616 -3.5767208784818649e-02</internalNodes>
      <leafValues>
        3.2547160983085632e-01 -2.0633444190025330e-01</leafValues></_>
    <_>
      <internalNodes>
        0 -1 2312 3.3692359924316406e-02</internalNodes>
      <leafValues>
        -1.2347056716680527e-01 5.4206222295761108e-01</leafValues></_>
    <_>
      <internalNodes>
        0 -1 2779 -3.1932108104228973e-02</internalNodes>
      <leafValues>
        5.2670669555664063e-01 -1.4583660662174225e-01</leafValues></_>
    <_>
      <internalNodes>
        0 -1 0 7.7203923137858510e-04</internalNodes>
      <leafValues>
        1.8110607564449310e-01 -3.4154656529426575e-01</leafValues></_>
    <_>
      <internalNodes>
        0 -1 47851 1.8887781770899892e-03</internalNodes>
      <leafValues>
        1.1695670336484909e-01 -5.0918132066726685e-01</leafValues></_>
    <_>
      <internalNodes>
        0 -1 47270 3.8684021681547165e-02</internalNodes>
      <leafValues>
        -1.0995773226022720e-01 5.9070152044296265e-01</leafValues></_>
    <_>
      <internalNodes>
        0 -1 41324 -8.2847289741039276e-03</internalNodes>
      <leafValues>
        4.3833976984024048e-01 -1.3756342232227325e-01</leafValues></_>
    <_>
      <internalNodes>
        0 -1 43613 -7.7453115954995155e-03</internalNodes>
      <leafValues>
        -6.3517749309539795e-01 9.8497472703456879e-02</leafValues></_>
    <_>
      <internalNodes>
        0 -1 50332 1.1904039420187473e-03</internalNodes>
      <leafValues>
        1.2702894210815430e-01 -4.1795510053634644e-01</leafValues></_>
    <_>
      <internalNodes>
        0 -1 41183 -6.2347026541829109e-03</internalNodes>
      <leafValues>
        -5.6697112321853638e-01 1.0209574550390244e-01</leafValues></_>
    <_>
      <internalNodes>
        0 -1 51050 2.7664401568472385e-03</internalNodes>
      <leafValues>
        8.5466377437114716e-02 -5.6669718027114868e-01</leafValues></_>
    <_>
      <internalNodes>
        0 -1 24528 2.1895002573728561e-02</internalNodes>
      <leafValues>
        -1.6677191853523254e-01 3.3196589350700378e-01</leafValues></_>
    <_>
      <internalNodes>
        0 -1 49842 -3.3285640180110931e-02</internalNodes>
      <leafValues>
        5.6062984466552734e-01 -9.1951899230480194e-02</leafValues></_>
    <_>
      <internalNodes>
        0 -1 50770 1.5584791079163551e-02</internalNodes>
      <leafValues>
        -7.1340426802635193e-02 6.6816037893295288e-01</leafValues></_>
    <_>
      <internalNodes>
        0 -1 41310 1.6863570781424642e-03</internalNodes>
      <leafValues>
        1.6707947850227356e-01 -4.0899160504341125e-01</leafValues></_>
    <_>
      <internalNodes>
        0 -1 12900 -4.4014438986778259e-02</internalNodes>
      <leafValues>
        4.9326428771018982e-01 -1.2037578225135803e-01</leafValues></_>
    <_>
      <internalNodes>
        0 -1 38513 -3.0124108307063580e-03</internalNodes>
      <leafValues>
        -5.8652245998382568e-01 1.0451307892799377e-01</leafValues></_>
    <_>
      <internalNodes>
        0 -1 35494 4.6726097352802753e-03</internalNodes>
      <leafValues>
        7.0194818079471588e-02 -6.3051128387451172e-01</leafValues></_>
    <_>
      <internalNodes>
        0 -1 41282 1.3419758528470993e-02</internalNodes>
      <leafValues>
        -9.8761491477489471e-02 6.3945877552032471e-01</leafValues></_>
    <_>
      <internalNodes>
        0 -1 51464 2.1204464137554169e-03</internalNodes>
      <leafValues>
        1.4120222628116608e-01 -4.1348138451576233e-01</leafValues></_>
    <_>
      <internalNodes>
        0 -1 49813 -1.7143737524747849e-02</internalNodes>
      <leafValues>
        5.6201952695846558e-01 -1.0485085844993591e-01</leafValues></_>
    <_>
      <internalNodes>
        0 -1 9795 9.3154199421405792e-03</internalNodes>
      <leafValues>
        -1.4633512496948242e-01 3.5270234942436218e-01</leafValues></_>
    <_>
      <internalNodes>
        0 -1 35508 -9.2349760234355927e-03</internalNodes>
      <leafValues>
        4.2590054869651794e-01 -1.1437515914440155e-01</leafValues></_>
    <_>
      <internalNodes>
        0 -1 34182 4.5434562489390373e-03</internalNodes>
      <leafValues>
        1.0832656919956207e-01 -4.7683894634246826e-01</leafValues></_></weakClassifiers></stage8>
</opencv_storage>
