<?xml version="1.0"?>
<opencv_storage>
<stage9>
  <maxWeakCount>30</maxWeakCount>
  <stageThreshold>-9.8994964361190796e-01</stageThreshold>
  <weakClassifiers>
    <_>
      <internalNodes>
        0 -1 32341 2.2887043654918671e-02</internalNodes>
      <leafValues>
        1.4336493611335754e-01 7.8370785713195801e-01</leafValues></_>
    <_>
      <internalNodes>
        0 -1 38586 -2.5233742780983448e-03</internalNodes>
      <leafValues>
        4.4934028387069702e-01 -1.5445962548255920e-01</leafValues></_>
    <_>
      <internalNodes>
        0 -1 47569 -3.1659728847444057e-03</internalNodes>
      <leafValues>
        3.8915714621543884e-01 -2.1230641007423401e-01</leafValues></_>
    <_>
      <internalNodes>
        0 -1 51365 1.1814480647444725e-02</internalNodes>
      <leafValues>
        -2.0194429159164429e-01 4.4952592253684998e-01</leafValues></_>
    <_>
      <internalNodes>
        0 -1 41218 8.0062989145517349e-03</internalNodes>
      <leafValues>
        -1.1268513649702072e-01 5.1476281881332397e-01</leafValues></_>
    <_>
      <internalNodes>
        0 -1 14785 -8.9523382484912872e-03</internalNodes>
      <leafValues>
        4.7182300686836243e-01 -1.4243185520172119e-01</leafValues></_>
    <_>
      <internalNodes>
        0 -1 6215 -1.6151003539562225e-01</internalNodes>
      <leafValues>
        2.3256786167621613e-01 -2.1815884113311768e-01</leafValues></_>
    <_>
      <internalNodes>
        0 -1 43678 9.1103203594684601e-03</internalNodes>
      <leafValues>
        -8.0888733267784119e-02 6.0405778884887695e-01</leafValues></_>
    <_>
      <internalNodes>
        0 -1 38527 -4.9290750175714493e-03</internalNodes>
      <leafValues>
        3.4476926922798157e-01 -1.5513396263122559e-01</leafValues></_>
    <_>
      <internalNodes>
        0 -1 15013 5.3309337235987186e-03</internalNodes>
      <leafValues>
        -1.1534503847360611e-01 5.0830060243606567e-01</leafValues></_>
    <_>
      <internalNodes>
        0 -1 3940 -1.3268424198031425e-02</internalNodes>
      <leafValues>
        -6.0203179717063904e-02 6.8607884645462036e-01</leafValues></_>
    <_>
      <internalNodes>
        0 -1 2274 -1.7152369022369385e-02</internalNodes>
      <leafValues>
        3.9605316519737244e-01 -1.2109266966581345e-01</leafValues></_>
    <_>
      <internalNodes>
        0 -1 50941 1.3214718550443649e-02</internalNodes>
      <leafValues>
        -5.2195895463228226e-02 8.0622631311416626e-01</leafValues></_>
    <_>
      <internalNodes>
        0 -1 35436 9.8592964932322502e-03</internalNodes>
      <leafValues>
        1.1547766625881195e-01 -4.6606913208961487e-01</leafValues></_>
    <_>
      <internalNodes>
        0 -1 50774 9.7471587359905243e-03</internalNodes>
      <leafValues>
        -1.4337958395481110e-01 3.9127451181411743e-01</leafValues></_>
    <_>
      <internalNodes>
        0 -1 50659 -9.8270680755376816e-03</internalNodes>
      <leafValues>
        4.4106981158256531e-01 -1.2663157284259796e-01</leafValues></_>
    <_>
      <internalNodes>
        0 -1 31977 -2.5891641154885292e-02</internalNodes>
      <leafValues>
        -4.8087278008460999e-01 1.1546219140291214e-01</leafValues></_>
    <_>
      <internalNodes>
        0 -1 38555 -6.8073673173785210e-03</internalNodes>
      <leafValues>
        3.7652978301048279e-01 -1.4579004049301147e-01</leafValues></_>
    <_>
      <internalNodes>
        0 -1 32077 -4.7842906787991524e-03</internalNodes>
      <leafValues>
        3.9582049846649170e-01 -1.4142908155918121e-01</leafValues></_>
    <_>
      <internalNodes>
        0 -1 19693 2.7284990064799786e-03</internalNodes>
      <leafValues>
        -1.6854774951934814e-01 2.6081493496894836e-01</leafValues></_>
    <_>
      <internalNodes>
        0 -1 31924 -2.0205979235470295e-03</internalNodes>
      <leafValues>
        3.4387379884719849e-01 -1.5611052513122559e-01</leafValues></_>
    <_>
      <internalNodes>
        0 -1 48886 -9.3021001666784286e-03</internalNodes>
      <leafValues>
        -1.9206790626049042e-01 2.5626382231712341e-01</leafValues></_>
    <_>
      <internalNodes>
        0 -1 14511 1.4274541754275560e-03</internalNodes>
      <leafValues>
        -1.4914287626743317e-01 3.1781941652297974e-01</leafValues></_>
    <_>
      <internalNodes>
        0 -1 26132 -1.0203789919614792e-02</internalNodes>
      <leafValues>
        3.9758554100990295e-01 -1.0745165497064590e-01</leafValues></_>
    <_>
      <internalNodes>
        0 -1 38585 1.9472399726510048e-03</internalNodes>
      <leafValues>
        8.9052960276603699e-02 -5.4228806495666504e-01</leafValues></_>
    <_>
      <internalNodes>
        0 -1 49944 1.0112707503139973e-02</internalNodes>
      <leafValues>
        -7.0639371871948242e-02 7.2849667072296143e-01</leafValues></_>
    <_>
      <internalNodes>
        0 -1 5293 1.0584345087409019e-02</internalNodes>
      <leafValues>
        -9.7292780876159668e-02 4.3128463625907898e-01</leafValues></_>
    <_>
      <internalNodes>
        0 -1 18329 1.0222757235169411e-02</internalNodes>
      <leafValues>
        -1.0103612393140793e-01 5.1884937286376953e-01</leafValues></_>
    <_>
      <internalNodes>
        0 -1 7896 -3.9750874042510986e-02</internalNodes>
      <leafValues>
        -3.6574801802635193e-01 1.4884535968303680e-01</leafValues></_>
    <_>
      <internalNodes>
        0 -1 10011 -1.1135866865515709e-02</internalNodes>
      <leafValues>
        7.1644616127014160e-01 -5.6360378861427307e-02</leafValues></_></weakClassifiers></stage9>
</opencv_storage>
