<?xml version="1.0"?>
<opencv_storage>
<stage2>
  <maxWeakCount>12</maxWeakCount>
  <stageThreshold>-1.1933801174163818e+00</stageThreshold>
  <weakClassifiers>
    <_>
      <internalNodes>
        0 -1 45867 -1.2170717120170593e-01</internalNodes>
      <leafValues>
        6.3986408710479736e-01 -5.2050471305847168e-01</leafValues></_>
    <_>
      <internalNodes>
        0 -1 32221 -8.3813909441232681e-03</internalNodes>
      <leafValues>
        7.7848845720291138e-01 -3.1741553544998169e-01</leafValues></_>
    <_>
      <internalNodes>
        0 -1 35508 -8.9675551280379295e-03</internalNodes>
      <leafValues>
        7.6877725124359131e-01 -1.5035861730575562e-01</leafValues></_>
    <_>
      <internalNodes>
        0 -1 15619 3.3724263310432434e-02</internalNodes>
      <leafValues>
        -2.5321462750434875e-01 6.8047678470611572e-01</leafValues></_>
    <_>
      <internalNodes>
        0 -1 41227 8.4153972566127777e-03</internalNodes>
      <leafValues>
        -1.3077804446220398e-01 7.5482362508773804e-01</leafValues></_>
    <_>
      <internalNodes>
        0 -1 32141 -1.1513271369040012e-02</internalNodes>
      <leafValues>
        6.6393411159515381e-01 -1.6133598983287811e-01</leafValues></_>
    <_>
      <internalNodes>
        0 -1 25700 -2.5915199890732765e-02</internalNodes>
      <leafValues>
        5.6132781505584717e-01 -2.0147743821144104e-01</leafValues></_>
    <_>
      <internalNodes>
        0 -1 32031 -1.4673981815576553e-02</internalNodes>
      <leafValues>
        8.1013065576553345e-01 -1.2716390192508698e-01</leafValues></_>
    <_>
      <internalNodes>
        0 -1 24597 -1.5410394407808781e-02</internalNodes>
      <leafValues>
        6.3140428066253662e-01 -1.7646998167037964e-01</leafValues></_>
    <_>
      <internalNodes>
        0 -1 932 2.4149553477764130e-01</internalNodes>
      <leafValues>
        1.7142055928707123e-01 -8.5369622707366943e-01</leafValues></_>
    <_>
      <internalNodes>
        0 -1 24526 2.0475033670663834e-02</internalNodes>
      <leafValues>
        -1.4882051944732666e-01 9.1491150856018066e-01</leafValues></_>
    <_>
      <internalNodes>
        0 -1 35483 -1.6173370182514191e-02</internalNodes>
      <leafValues>
        6.9891166687011719e-01 -1.1455586552619934e-01</leafValues></_></weakClassifiers></stage2>
</opencv_storage>
