<?xml version="1.0"?>
<opencv_storage>
<stage6>
  <maxWeakCount>23</maxWeakCount>
  <stageThreshold>-9.3753570318222046e-01</stageThreshold>
  <weakClassifiers>
    <_>
      <internalNodes>
        0 -1 48864 2.4871237576007843e-02</internalNodes>
      <leafValues>
        1.2412177771329880e-01 8.4971100091934204e-01</leafValues></_>
    <_>
      <internalNodes>
        0 -1 28558 1.5205461531877518e-02</internalNodes>
      <leafValues>
        -1.2928375601768494e-01 6.1614972352981567e-01</leafValues></_>
    <_>
      <internalNodes>
        0 -1 15664 -3.3079206943511963e-02</internalNodes>
      <leafValues>
        -2.4621646106243134e-01 5.5912959575653076e-01</leafValues></_>
    <_>
      <internalNodes>
        0 -1 45469 3.8165949285030365e-02</internalNodes>
      <leafValues>
        -1.3058277964591980e-01 6.7561691999435425e-01</leafValues></_>
    <_>
      <internalNodes>
        0 -1 14526 9.4638727605342865e-03</internalNodes>
      <leafValues>
        -1.4567662775516510e-01 6.1648768186569214e-01</leafValues></_>
    <_>
      <internalNodes>
        0 -1 50816 -3.9900210686028004e-03</internalNodes>
      <leafValues>
        4.1623097658157349e-01 -1.9610053300857544e-01</leafValues></_>
    <_>
      <internalNodes>
        0 -1 50261 -7.2190269827842712e-02</internalNodes>
      <leafValues>
        -3.7381404638290405e-01 2.1116986870765686e-01</leafValues></_>
    <_>
      <internalNodes>
        0 -1 32290 -1.9379686564207077e-02</internalNodes>
      <leafValues>
        6.2190335988998413e-01 -1.4611838757991791e-01</leafValues></_>
    <_>
      <internalNodes>
        0 -1 10055 -2.9357207939028740e-02</internalNodes>
      <leafValues>
        7.6097786426544189e-01 -9.8528183996677399e-02</leafValues></_>
    <_>
      <internalNodes>
        0 -1 14781 3.9546471089124680e-03</internalNodes>
      <leafValues>
        -1.4018268883228302e-01 5.2261173725128174e-01</leafValues></_>
    <_>
      <internalNodes>
        0 -1 32199 -1.1525051668286324e-02</internalNodes>
      <leafValues>
        5.3452968597412109e-01 -1.2864923477172852e-01</leafValues></_>
    <_>
      <internalNodes>
        0 -1 33263 -2.9065888375043869e-02</internalNodes>
      <leafValues>
        5.6512105464935303e-01 -1.2134884297847748e-01</leafValues></_>
    <_>
      <internalNodes>
        0 -1 35053 -4.5576423406600952e-02</internalNodes>
      <leafValues>
        7.0824873447418213e-01 -7.6627962291240692e-02</leafValues></_>
    <_>
      <internalNodes>
        0 -1 45466 -8.1405397504568100e-03</internalNodes>
      <leafValues>
        3.6090949177742004e-01 -1.3169130682945251e-01</leafValues></_>
    <_>
      <internalNodes>
        0 -1 48939 7.6782954856753349e-03</internalNodes>
      <leafValues>
        -1.1867469549179077e-01 5.6996756792068481e-01</leafValues></_>
    <_>
      <internalNodes>
        0 -1 45608 -2.4578606709837914e-02</internalNodes>
      <leafValues>
        -9.7026519477367401e-02 6.0919630527496338e-01</leafValues></_>
    <_>
      <internalNodes>
        0 -1 19454 -3.8632841315120459e-03</internalNodes>
      <leafValues>
        3.5831516981124878e-01 -1.7631204426288605e-01</leafValues></_>
    <_>
      <internalNodes>
        0 -1 50584 1.0886793956160545e-02</internalNodes>
      <leafValues>
        -1.2039452791213989e-01 4.7532436251640320e-01</leafValues></_>
    <_>
      <internalNodes>
        0 -1 10226 2.7217282913625240e-03</internalNodes>
      <leafValues>
        -1.4687235653400421e-01 3.7182882428169250e-01</leafValues></_>
    <_>
      <internalNodes>
        0 -1 32092 -6.0586282052099705e-03</internalNodes>
      <leafValues>
        4.1008031368255615e-01 -1.3405430316925049e-01</leafValues></_>
    <_>
      <internalNodes>
        0 -1 14313 4.6952590346336365e-03</internalNodes>
      <leafValues>
        1.2384574860334396e-01 -4.9138453602790833e-01</leafValues></_>
    <_>
      <internalNodes>
        0 -1 47513 -1.6276728361845016e-02</internalNodes>
      <leafValues>
        5.7874637842178345e-01 -1.1467316746711731e-01</leafValues></_>
    <_>
      <internalNodes>
        0 -1 15673 -1.3077795505523682e-01</internalNodes>
      <leafValues>
        -6.9310641288757324e-01 9.6918202936649323e-02</leafValues></_></weakClassifiers></stage6>
</opencv_storage>
