<?xml version="1.0"?>
<opencv_storage>
<stage5>
  <maxWeakCount>14</maxWeakCount>
  <stageThreshold>-1.2112619876861572e+00</stageThreshold>
  <weakClassifiers>
    <_>
      <internalNodes>
        0 -1 32262 -5.9611827135086060e-02</internalNodes>
      <leafValues>
        -5.1025992631912231e-01 7.0281606912612915e-01</leafValues></_>
    <_>
      <internalNodes>
        0 -1 35423 4.4456319883465767e-03</internalNodes>
      <leafValues>
        2.6764789223670959e-01 -6.3155692815780640e-01</leafValues></_>
    <_>
      <internalNodes>
        0 -1 28443 -2.0551528781652451e-02</internalNodes>
      <leafValues>
        6.9351798295974731e-01 -1.6415922343730927e-01</leafValues></_>
    <_>
      <internalNodes>
        0 -1 45535 -7.0451177656650543e-02</internalNodes>
      <leafValues>
        -2.8818434476852417e-01 3.8367328047752380e-01</leafValues></_>
    <_>
      <internalNodes>
        0 -1 38297 -3.1597059220075607e-02</internalNodes>
      <leafValues>
        5.5879700183868408e-01 -1.8970838189125061e-01</leafValues></_>
    <_>
      <internalNodes>
        0 -1 43730 -5.3624818101525307e-03</internalNodes>
      <leafValues>
        5.3873705863952637e-01 -1.9825182855129242e-01</leafValues></_>
    <_>
      <internalNodes>
        0 -1 20223 5.2291631698608398e-02</internalNodes>
      <leafValues>
        -1.3661326467990875e-01 5.7739835977554321e-01</leafValues></_>
    <_>
      <internalNodes>
        0 -1 32033 5.0410054624080658e-02</internalNodes>
      <leafValues>
        -9.5852456986904144e-02 7.5834310054779053e-01</leafValues></_>
    <_>
      <internalNodes>
        0 -1 9803 -1.3280010782182217e-02</internalNodes>
      <leafValues>
        4.1894853115081787e-01 -1.8325987458229065e-01</leafValues></_>
    <_>
      <internalNodes>
        0 -1 32188 -5.2639588713645935e-02</internalNodes>
      <leafValues>
        -4.5849317312240601e-01 1.7571908235549927e-01</leafValues></_>
    <_>
      <internalNodes>
        0 -1 48807 -1.5220537781715393e-02</internalNodes>
      <leafValues>
        4.2740398645401001e-01 -2.1108151972293854e-01</leafValues></_>
    <_>
      <internalNodes>
        0 -1 47739 1.7367532476782799e-02</internalNodes>
      <leafValues>
        1.6933405399322510e-01 -5.2158498764038086e-01</leafValues></_>
    <_>
      <internalNodes>
        0 -1 41251 -4.7090752050280571e-03</internalNodes>
      <leafValues>
        -6.1883401870727539e-01 9.2245168983936310e-02</leafValues></_>
    <_>
      <internalNodes>
        0 -1 47357 2.1062567830085754e-02</internalNodes>
      <leafValues>
        -1.0638710111379623e-01 6.9904166460037231e-01</leafValues></_></weakClassifiers></stage5>
</opencv_storage>
