<?xml version="1.0"?>
<opencv_storage>
<stage2>
  <maxWeakCount>7</maxWeakCount>
  <stageThreshold>-1.1496307849884033e+00</stageThreshold>
  <weakClassifiers>
    <_>
      <internalNodes>
        0 -1 8488 -1.2840336561203003e-01</internalNodes>
      <leafValues>
        6.9946330785751343e-01 -5.1590597629547119e-01</leafValues></_>
    <_>
      <internalNodes>
        0 -1 32173 -4.6275099739432335e-03</internalNodes>
      <leafValues>
        8.1682145595550537e-01 -3.0388721823692322e-01</leafValues></_>
    <_>
      <internalNodes>
        0 -1 32141 -1.2023529037833214e-02</internalNodes>
      <leafValues>
        7.4657922983169556e-01 -1.7769777774810791e-01</leafValues></_>
    <_>
      <internalNodes>
        0 -1 41188 3.1832174863666296e-03</internalNodes>
      <leafValues>
        -2.6610964536666870e-01 6.8573313951492310e-01</leafValues></_>
    <_>
      <internalNodes>
        0 -1 20229 3.9732046425342560e-02</internalNodes>
      <leafValues>
        -1.7878817021846771e-01 6.9327872991561890e-01</leafValues></_>
    <_>
      <internalNodes>
        0 -1 33192 -2.1808886900544167e-02</internalNodes>
      <leafValues>
        7.3112893104553223e-01 -1.9642017781734467e-01</leafValues></_>
    <_>
      <internalNodes>
        0 -1 48382 -1.2774933129549026e-02</internalNodes>
      <leafValues>
        2.8773996233940125e-01 -6.3153058290481567e-01</leafValues></_></weakClassifiers></stage2>
</opencv_storage>
