<?xml version="1.0"?>
<opencv_storage>
<stage5>
  <maxWeakCount>15</maxWeakCount>
  <stageThreshold>-9.8312598466873169e-01</stageThreshold>
  <weakClassifiers>
    <_>
      <internalNodes>
        0 -1 41252 -4.4372476637363434e-02</internalNodes>
      <leafValues>
        -6.5397924184799194e-01 6.4654225111007690e-01</leafValues></_>
    <_>
      <internalNodes>
        0 -1 48806 1.7316900193691254e-02</internalNodes>
      <leafValues>
        -2.0923428237438202e-01 6.4130651950836182e-01</leafValues></_>
    <_>
      <internalNodes>
        0 -1 20170 -2.3908633738756180e-02</internalNodes>
      <leafValues>
        -1.7836466431617737e-01 6.7836511135101318e-01</leafValues></_>
    <_>
      <internalNodes>
        0 -1 47357 1.8606700003147125e-02</internalNodes>
      <leafValues>
        -1.8315257132053375e-01 7.4714756011962891e-01</leafValues></_>
    <_>
      <internalNodes>
        0 -1 28443 -1.9151762127876282e-02</internalNodes>
      <leafValues>
        6.3247889280319214e-01 -1.2323015928268433e-01</leafValues></_>
    <_>
      <internalNodes>
        0 -1 33229 -2.6661571115255356e-02</internalNodes>
      <leafValues>
        6.2904858589172363e-01 -1.7006601393222809e-01</leafValues></_>
    <_>
      <internalNodes>
        0 -1 43687 -1.2475196272134781e-01</internalNodes>
      <leafValues>
        -7.7592313289642334e-01 1.5613591670989990e-01</leafValues></_>
    <_>
      <internalNodes>
        0 -1 32221 1.7613083124160767e-02</internalNodes>
      <leafValues>
        -1.4580462872982025e-01 8.0983638763427734e-01</leafValues></_>
    <_>
      <internalNodes>
        0 -1 9790 1.8179069738835096e-03</internalNodes>
      <leafValues>
        -2.4659647047519684e-01 3.7259677052497864e-01</leafValues></_>
    <_>
      <internalNodes>
        0 -1 2775 -3.9674498140811920e-02</internalNodes>
      <leafValues>
        6.2354773283004761e-01 -1.5216521918773651e-01</leafValues></_>
    <_>
      <internalNodes>
        0 -1 32290 -2.4571910500526428e-02</internalNodes>
      <leafValues>
        8.1585717201232910e-01 -1.0758464783430099e-01</leafValues></_>
    <_>
      <internalNodes>
        0 -1 28355 -2.3378113284707069e-02</internalNodes>
      <leafValues>
        7.1727913618087769e-01 -1.1227612942457199e-01</leafValues></_>
    <_>
      <internalNodes>
        0 -1 32132 1.8992014229297638e-02</internalNodes>
      <leafValues>
        -1.3334724307060242e-01 7.6303720474243164e-01</leafValues></_>
    <_>
      <internalNodes>
        0 -1 41175 -6.7778164520859718e-03</internalNodes>
      <leafValues>
        -1.2527599930763245e-01 5.6055337190628052e-01</leafValues></_>
    <_>
      <internalNodes>
        0 -1 8890 9.2313503846526146e-03</internalNodes>
      <leafValues>
        -1.1376230418682098e-01 6.0441684722900391e-01</leafValues></_></weakClassifiers></stage5>
</opencv_storage>
