<?xml version="1.0"?>
<opencv_storage>
<stage0>
  <maxWeakCount>6</maxWeakCount>
  <stageThreshold>-6.2720471620559692e-01</stageThreshold>
  <weakClassifiers>
    <_>
      <internalNodes>
        0 -1 32212 -1.1301767081022263e-02</internalNodes>
      <leafValues>
        8.7103176116943359e-01 -5.6034483015537262e-02</leafValues></_>
    <_>
      <internalNodes>
        0 -1 49983 2.1078608930110931e-02</internalNodes>
      <leafValues>
        -2.2434175014495850e-01 8.3115428686141968e-01</leafValues></_>
    <_>
      <internalNodes>
        0 -1 38445 -6.8009912967681885e-02</internalNodes>
      <leafValues>
        -7.7958291769027710e-01 2.7676969766616821e-01</leafValues></_>
    <_>
      <internalNodes>
        0 -1 12491 -2.6996034383773804e-01</internalNodes>
      <leafValues>
        2.7497309446334839e-01 -8.5149943828582764e-01</leafValues></_>
    <_>
      <internalNodes>
        0 -1 1769 -1.0682141408324242e-02</internalNodes>
      <leafValues>
        7.0643150806427002e-01 -3.7009483575820923e-01</leafValues></_>
    <_>
      <internalNodes>
        0 -1 45135 -1.3689082115888596e-02</internalNodes>
      <leafValues>
        5.9799605607986450e-01 -2.9814067482948303e-01</leafValues></_></weakClassifiers></stage0>
</opencv_storage>
