<?xml version="1.0"?>
<opencv_storage>
<stage7>
  <maxWeakCount>23</maxWeakCount>
  <stageThreshold>-9.8022121191024780e-01</stageThreshold>
  <weakClassifiers>
    <_>
      <internalNodes>
        0 -1 24307 -5.5627204477787018e-02</internalNodes>
      <leafValues>
        8.2138657569885254e-01 6.5203353762626648e-02</leafValues></_>
    <_>
      <internalNodes>
        0 -1 28446 -1.7415419220924377e-02</internalNodes>
      <leafValues>
        5.3911811113357544e-01 -1.6461101174354553e-01</leafValues></_>
    <_>
      <internalNodes>
        0 -1 49842 5.4545156657695770e-02</internalNodes>
      <leafValues>
        -1.1172375828027725e-01 7.9659080505371094e-01</leafValues></_>
    <_>
      <internalNodes>
        0 -1 41305 9.9829887039959431e-04</internalNodes>
      <leafValues>
        1.8211397528648376e-01 -4.8764154314994812e-01</leafValues></_>
    <_>
      <internalNodes>
        0 -1 24528 7.4521861970424652e-02</internalNodes>
      <leafValues>
        -1.2761323153972626e-01 7.0965892076492310e-01</leafValues></_>
    <_>
      <internalNodes>
        0 -1 35293 -4.8091560602188110e-02</internalNodes>
      <leafValues>
        -1.3921692967414856e-01 6.8805831670761108e-01</leafValues></_>
    <_>
      <internalNodes>
        0 -1 48804 -2.4652209132909775e-02</internalNodes>
      <leafValues>
        6.4565241336822510e-01 -8.6521506309509277e-02</leafValues></_>
    <_>
      <internalNodes>
        0 -1 48676 5.3935982286930084e-03</internalNodes>
      <leafValues>
        1.0645131021738052e-01 -7.9467207193374634e-01</leafValues></_>
    <_>
      <internalNodes>
        0 -1 9540 2.1648356691002846e-02</internalNodes>
      <leafValues>
        -1.5495458245277405e-01 4.8338994383811951e-01</leafValues></_>
    <_>
      <internalNodes>
        0 -1 2779 -3.8360111415386200e-02</internalNodes>
      <leafValues>
        5.4413163661956787e-01 -1.5020835399627686e-01</leafValues></_>
    <_>
      <internalNodes>
        0 -1 49290 2.3628151975572109e-03</internalNodes>
      <leafValues>
        1.0681419819593430e-01 -6.0711753368377686e-01</leafValues></_>
    <_>
      <internalNodes>
        0 -1 39238 1.0307065676897764e-03</internalNodes>
      <leafValues>
        1.5713995695114136e-01 -4.3808227777481079e-01</leafValues></_>
    <_>
      <internalNodes>
        0 -1 49768 4.6040453016757965e-03</internalNodes>
      <leafValues>
        1.0103266686201096e-01 -6.1595475673675537e-01</leafValues></_>
    <_>
      <internalNodes>
        0 -1 38395 -1.5220509842038155e-02</internalNodes>
      <leafValues>
        5.4112249612808228e-01 -1.2965296208858490e-01</leafValues></_>
    <_>
      <internalNodes>
        0 -1 32284 -1.9585281610488892e-02</internalNodes>
      <leafValues>
        6.4113295078277588e-01 -9.1046363115310669e-02</leafValues></_>
    <_>
      <internalNodes>
        0 -1 38513 -2.9799425974488258e-03</internalNodes>
      <leafValues>
        -7.0901924371719360e-01 1.1064956337213516e-01</leafValues></_>
    <_>
      <internalNodes>
        0 -1 41085 -3.3362478017807007e-02</internalNodes>
      <leafValues>
        -3.5318732261657715e-01 1.7168073356151581e-01</leafValues></_>
    <_>
      <internalNodes>
        0 -1 29727 1.6443778295069933e-03</internalNodes>
      <leafValues>
        1.3498288393020630e-01 -4.9096521735191345e-01</leafValues></_>
    <_>
      <internalNodes>
        0 -1 9592 6.4310571178793907e-03</internalNodes>
      <leafValues>
        -2.1413633227348328e-01 2.9883340001106262e-01</leafValues></_>
    <_>
      <internalNodes>
        0 -1 48738 -1.7456300556659698e-02</internalNodes>
      <leafValues>
        4.1506630182266235e-01 -1.5887300670146942e-01</leafValues></_>
    <_>
      <internalNodes>
        0 -1 49841 1.8553121015429497e-02</internalNodes>
      <leafValues>
        -1.7301441729068756e-01 3.9409106969833374e-01</leafValues></_>
    <_>
      <internalNodes>
        0 -1 50691 4.1831369162537158e-04</internalNodes>
      <leafValues>
        1.9476507604122162e-01 -3.3610743284225464e-01</leafValues></_>
    <_>
      <internalNodes>
        0 -1 50492 -1.7487609293311834e-03</internalNodes>
      <leafValues>
        -4.7093886137008667e-01 1.2614113092422485e-01</leafValues></_></weakClassifiers></stage7>
</opencv_storage>
