<?xml version="1.0"?>
<opencv_storage>
<stage3>
  <maxWeakCount>11</maxWeakCount>
  <stageThreshold>-1.0606406927108765e+00</stageThreshold>
  <weakClassifiers>
    <_>
      <internalNodes>
        0 -1 32221 -1.0647461749613285e-02</internalNodes>
      <leafValues>
        9.1452991962432861e-01 -1.2100964784622192e-01</leafValues></_>
    <_>
      <internalNodes>
        0 -1 15616 4.9029409885406494e-02</internalNodes>
      <leafValues>
        -1.0237286239862442e-01 8.8099730014801025e-01</leafValues></_>
    <_>
      <internalNodes>
        0 -1 35517 -8.7901502847671509e-03</internalNodes>
      <leafValues>
        8.5718256235122681e-01 -2.4276247620582581e-01</leafValues></_>
    <_>
      <internalNodes>
        0 -1 38297 -2.5989960879087448e-02</internalNodes>
      <leafValues>
        7.5432425737380981e-01 -1.6958464682102203e-01</leafValues></_>
    <_>
      <internalNodes>
        0 -1 32141 9.1405697166919708e-03</internalNodes>
      <leafValues>
        -1.9763173162937164e-01 7.4431091547012329e-01</leafValues></_>
    <_>
      <internalNodes>
        0 -1 45655 -2.5826990604400635e-03</internalNodes>
      <leafValues>
        7.8104227781295776e-01 -2.3225770890712738e-01</leafValues></_>
    <_>
      <internalNodes>
        0 -1 32092 -7.1439198218286037e-03</internalNodes>
      <leafValues>
        7.6607340574264526e-01 -1.5062139928340912e-01</leafValues></_>
    <_>
      <internalNodes>
        0 -1 46830 -1.2789675034582615e-02</internalNodes>
      <leafValues>
        3.8402837514877319e-01 -3.5267689824104309e-01</leafValues></_>
    <_>
      <internalNodes>
        0 -1 32292 2.2985322400927544e-02</internalNodes>
      <leafValues>
        -1.4459703862667084e-01 9.3908917903900146e-01</leafValues></_>
    <_>
      <internalNodes>
        0 -1 28190 -9.6260635182261467e-03</internalNodes>
      <leafValues>
        7.8689491748809814e-01 -1.4504836499691010e-01</leafValues></_>
    <_>
      <internalNodes>
        0 -1 28252 8.0179981887340546e-03</internalNodes>
      <leafValues>
        -1.8544808030128479e-01 7.3323255777359009e-01</leafValues></_></weakClassifiers></stage3>
</opencv_storage>
