<?xml version="1.0"?>
<opencv_storage>
<stage6>
  <maxWeakCount>10</maxWeakCount>
  <stageThreshold>-8.5473322868347168e-01</stageThreshold>
  <weakClassifiers>
    <_>
      <internalNodes>
        0 -1 45260 2.9878530651330948e-02</internalNodes>
      <leafValues>
        -2.1881838142871857e-01 6.7294752597808838e-01</leafValues></_>
    <_>
      <internalNodes>
        0 -1 3610 -4.1484855115413666e-02</internalNodes>
      <leafValues>
        5.8274096250534058e-01 -3.1857234239578247e-01</leafValues></_>
    <_>
      <internalNodes>
        0 -1 27794 2.6136077940464020e-04</internalNodes>
      <leafValues>
        -8.9455193281173706e-01 2.1542087197303772e-01</leafValues></_>
    <_>
      <internalNodes>
        0 -1 19685 -8.0309715121984482e-04</internalNodes>
      <leafValues>
        3.9037948846817017e-01 -4.6151825785636902e-01</leafValues></_>
    <_>
      <internalNodes>
        0 -1 50581 2.1946164779365063e-03</internalNodes>
      <leafValues>
        -4.7489392757415771e-01 3.1040292978286743e-01</leafValues></_>
    <_>
      <internalNodes>
        0 -1 43420 5.7522574206814170e-04</internalNodes>
      <leafValues>
        1.3909007608890533e-01 -7.9159396886825562e-01</leafValues></_>
    <_>
      <internalNodes>
        0 -1 22924 -3.0980695039033890e-02</internalNodes>
      <leafValues>
        -7.8987735509872437e-01 1.5952318906784058e-01</leafValues></_>
    <_>
      <internalNodes>
        0 -1 28003 1.3172261416912079e-02</internalNodes>
      <leafValues>
        1.3878117501735687e-01 -9.1565960645675659e-01</leafValues></_>
    <_>
      <internalNodes>
        0 -1 19631 1.0706929862499237e-01</internalNodes>
      <leafValues>
        -2.4305231869220734e-01 6.5150362253189087e-01</leafValues></_>
    <_>
      <internalNodes>
        0 -1 32077 -1.7505207797512412e-03</internalNodes>
      <leafValues>
        4.9675250053405762e-01 -3.2688024640083313e-01</leafValues></_></weakClassifiers></stage6>
</opencv_storage>
