<?xml version="1.0"?>
<opencv_storage>
<stage7>
  <maxWeakCount>11</maxWeakCount>
  <stageThreshold>-1.1577163934707642e+00</stageThreshold>
  <weakClassifiers>
    <_>
      <internalNodes>
        0 -1 27589 5.4537999676540494e-04</internalNodes>
      <leafValues>
        -5.9689921140670776e-01 5.1217091083526611e-01</leafValues></_>
    <_>
      <internalNodes>
        0 -1 42808 -3.0379168689250946e-02</internalNodes>
      <leafValues>
        3.5268229246139526e-01 -5.8286631107330322e-01</leafValues></_>
    <_>
      <internalNodes>
        0 -1 9200 -9.7707696259021759e-03</internalNodes>
      <leafValues>
        7.3743528127670288e-01 -2.5674548745155334e-01</leafValues></_>
    <_>
      <internalNodes>
        0 -1 23329 -2.5862598704406992e-05</internalNodes>
      <leafValues>
        2.0549923181533813e-01 -8.6243152618408203e-01</leafValues></_>
    <_>
      <internalNodes>
        0 -1 42935 -6.0591083019971848e-02</internalNodes>
      <leafValues>
        -5.4489028453826904e-01 2.6847413182258606e-01</leafValues></_>
    <_>
      <internalNodes>
        0 -1 24194 -1.2182084610685706e-03</internalNodes>
      <leafValues>
        3.4871745109558105e-01 -3.8923656940460205e-01</leafValues></_>
    <_>
      <internalNodes>
        0 -1 2733 -1.2648096308112144e-02</internalNodes>
      <leafValues>
        5.0283330678939819e-01 -2.9434514045715332e-01</leafValues></_>
    <_>
      <internalNodes>
        0 -1 27872 -3.0193873681128025e-03</internalNodes>
      <leafValues>
        -7.6727253198623657e-01 1.6475228965282440e-01</leafValues></_>
    <_>
      <internalNodes>
        0 -1 38199 1.2201835634186864e-03</internalNodes>
      <leafValues>
        1.7759412527084351e-01 -7.1857768297195435e-01</leafValues></_>
    <_>
      <internalNodes>
        0 -1 48863 1.6430659219622612e-02</internalNodes>
      <leafValues>
        -2.6532322168350220e-01 4.9025574326515198e-01</leafValues></_>
    <_>
      <internalNodes>
        0 -1 23060 9.7119109705090523e-04</internalNodes>
      <leafValues>
        -5.1167607307434082e-01 2.5052049756050110e-01</leafValues></_></weakClassifiers></stage7>
</opencv_storage>
