<?xml version="1.0"?>
<opencv_storage>
<stage8>
  <maxWeakCount>13</maxWeakCount>
  <stageThreshold>-1.0219360589981079e+00</stageThreshold>
  <weakClassifiers>
    <_>
      <internalNodes>
        0 -1 40972 1.4008420985192060e-03</internalNodes>
      <leafValues>
        4.9442017078399658e-01 -6.4601767063140869e-01</leafValues></_>
    <_>
      <internalNodes>
        0 -1 15613 5.9039190411567688e-02</internalNodes>
      <leafValues>
        -2.2233651578426361e-01 6.5847134590148926e-01</leafValues></_>
    <_>
      <internalNodes>
        0 -1 19448 1.5449413331225514e-04</internalNodes>
      <leafValues>
        -5.7825011014938354e-01 2.8798276185989380e-01</leafValues></_>
    <_>
      <internalNodes>
        0 -1 38199 -2.5009008822962642e-04</internalNodes>
      <leafValues>
        -6.6910505294799805e-01 2.2281560301780701e-01</leafValues></_>
    <_>
      <internalNodes>
        0 -1 2266 -1.4210645109415054e-02</internalNodes>
      <leafValues>
        4.1689640283584595e-01 -3.1706523895263672e-01</leafValues></_>
    <_>
      <internalNodes>
        0 -1 51386 -3.8373079150915146e-03</internalNodes>
      <leafValues>
        4.5107817649841309e-01 -2.8457164764404297e-01</leafValues></_>
    <_>
      <internalNodes>
        0 -1 31599 -1.1580338468775153e-04</internalNodes>
      <leafValues>
        -8.2376104593276978e-01 1.6420184075832367e-01</leafValues></_>
    <_>
      <internalNodes>
        0 -1 8722 2.4790641665458679e-01</internalNodes>
      <leafValues>
        1.1159219592809677e-01 -8.0903458595275879e-01</leafValues></_>
    <_>
      <internalNodes>
        0 -1 23323 2.5807385100051761e-04</internalNodes>
      <leafValues>
        -6.5970361232757568e-01 1.6476005315780640e-01</leafValues></_>
    <_>
      <internalNodes>
        0 -1 47027 -3.8635758683085442e-03</internalNodes>
      <leafValues>
        2.2681662440299988e-01 -5.0832808017730713e-01</leafValues></_>
    <_>
      <internalNodes>
        0 -1 41094 5.9903226792812347e-03</internalNodes>
      <leafValues>
        -1.5694476664066315e-01 8.6446040868759155e-01</leafValues></_>
    <_>
      <internalNodes>
        0 -1 23581 1.4279750757850707e-04</internalNodes>
      <leafValues>
        2.0547315478324890e-01 -6.8783181905746460e-01</leafValues></_>
    <_>
      <internalNodes>
        0 -1 35104 -5.8040045201778412e-02</internalNodes>
      <leafValues>
        -6.1121624708175659e-01 1.7809242010116577e-01</leafValues></_></weakClassifiers></stage8>
</opencv_storage>
