<?xml version="1.0"?>
<opencv_storage>
<stage7>
  <maxWeakCount>9</maxWeakCount>
  <stageThreshold>-1.0181406736373901e+00</stageThreshold>
  <weakClassifiers>
    <_>
      <internalNodes>
        0 -1 14865 2.2109983488917351e-02</internalNodes>
      <leafValues>
        -4.7770699858665466e-01 6.2076747417449951e-01</leafValues></_>
    <_>
      <internalNodes>
        0 -1 30248 5.6632179766893387e-03</internalNodes>
      <leafValues>
        -3.5912001132965088e-01 6.2071335315704346e-01</leafValues></_>
    <_>
      <internalNodes>
        0 -1 11305 -6.4898878335952759e-02</internalNodes>
      <leafValues>
        6.1685913801193237e-01 -3.2887503504753113e-01</leafValues></_>
    <_>
      <internalNodes>
        0 -1 47116 -1.4731071423739195e-03</internalNodes>
      <leafValues>
        3.2002934813499451e-01 -7.0441406965255737e-01</leafValues></_>
    <_>
      <internalNodes>
        0 -1 23580 2.4601615223218687e-05</internalNodes>
      <leafValues>
        -8.7262022495269775e-01 1.3980974256992340e-01</leafValues></_>
    <_>
      <internalNodes>
        0 -1 51425 1.1654399335384369e-02</internalNodes>
      <leafValues>
        -3.0180969834327698e-01 6.3058573007583618e-01</leafValues></_>
    <_>
      <internalNodes>
        0 -1 40972 -1.4316056622192264e-03</internalNodes>
      <leafValues>
        -9.0566641092300415e-01 2.3970808088779449e-01</leafValues></_>
    <_>
      <internalNodes>
        0 -1 30824 3.9411145262420177e-03</internalNodes>
      <leafValues>
        -3.9402216672897339e-01 4.0763500332832336e-01</leafValues></_>
    <_>
      <internalNodes>
        0 -1 40867 8.7033188901841640e-04</internalNodes>
      <leafValues>
        2.4662935733795166e-01 -6.5781110525131226e-01</leafValues></_></weakClassifiers></stage7>
</opencv_storage>
