<?xml version="1.0"?>
<opencv_storage>
<stage2>
  <maxWeakCount>6</maxWeakCount>
  <stageThreshold>-8.4397149085998535e-01</stageThreshold>
  <weakClassifiers>
    <_>
      <internalNodes>
        0 -1 23287 -4.7057665884494781e-02</internalNodes>
      <leafValues>
        7.8223842382431030e-01 -6.4285713434219360e-01</leafValues></_>
    <_>
      <internalNodes>
        0 -1 15503 2.7321055531501770e-02</internalNodes>
      <leafValues>
        -5.1790326833724976e-01 8.5429644584655762e-01</leafValues></_>
    <_>
      <internalNodes>
        0 -1 7769 -1.6173589974641800e-02</internalNodes>
      <leafValues>
        4.9039921164512634e-01 -6.5472793579101563e-01</leafValues></_>
    <_>
      <internalNodes>
        0 -1 31625 4.6262785326689482e-04</internalNodes>
      <leafValues>
        -8.5048836469650269e-01 3.0402693152427673e-01</leafValues></_>
    <_>
      <internalNodes>
        0 -1 23323 2.5760167045518756e-04</internalNodes>
      <leafValues>
        -8.1112396717071533e-01 2.9054382443428040e-01</leafValues></_>
    <_>
      <internalNodes>
        0 -1 51286 3.0199410393834114e-03</internalNodes>
      <leafValues>
        -6.1521875858306885e-01 3.8633427023887634e-01</leafValues></_></weakClassifiers></stage2>
</opencv_storage>
