<?xml version="1.0"?>
<opencv_storage>
<stage4>
  <maxWeakCount>7</maxWeakCount>
  <stageThreshold>-1.0194181203842163e+00</stageThreshold>
  <weakClassifiers>
    <_>
      <internalNodes>
        0 -1 12080 -5.2699589729309082e-01</internalNodes>
      <leafValues>
        -5.9370076656341553e-01 6.6685551404953003e-01</leafValues></_>
    <_>
      <internalNodes>
        0 -1 19207 7.2500226087868214e-04</internalNodes>
      <leafValues>
        -7.7891802787780762e-01 4.4777691364288330e-01</leafValues></_>
    <_>
      <internalNodes>
        0 -1 47258 -4.5851562172174454e-03</internalNodes>
      <leafValues>
        3.8314285874366760e-01 -7.3880356550216675e-01</leafValues></_>
    <_>
      <internalNodes>
        0 -1 51245 1.1861866340041161e-02</internalNodes>
      <leafValues>
        -4.7306120395660400e-01 5.5476576089859009e-01</leafValues></_>
    <_>
      <internalNodes>
        0 -1 23590 2.6180318091064692e-03</internalNodes>
      <leafValues>
        -6.2105965614318848e-01 3.6668568849563599e-01</leafValues></_>
    <_>
      <internalNodes>
        0 -1 45550 -1.3496076688170433e-02</internalNodes>
      <leafValues>
        4.9180433154106140e-01 -4.5319104194641113e-01</leafValues></_>
    <_>
      <internalNodes>
        0 -1 1771 -8.5288677364587784e-03</internalNodes>
      <leafValues>
        4.2487591505050659e-01 -4.6689140796661377e-01</leafValues></_></weakClassifiers></stage4>
</opencv_storage>
