<?xml version="1.0"?>
<opencv_storage>
<cascade>
  <stageType>BOOST</stageType>
  <featureType>HAAR</featureType>
  <height>18</height>
  <width>18</width>
  <stageParams>
    <boostType>GAB</boostType>
    <minHitRate>9.9500000476837158e-01</minHitRate>
    <maxFalseAlarm>5.0000000000000000e-01</maxFalseAlarm>
    <weightTrimRate>9.4999999999999996e-01</weightTrimRate>
    <maxDepth>1</maxDepth>
    <maxWeakCount>100</maxWeakCount></stageParams>
  <featureParams>
    <maxCatCount>0</maxCatCount>
    <featSize>1</featSize>
    <mode>BASIC</mode></featureParams>
  <stageNum>10</stageNum>
  <stages>
    <!-- stage 0 -->
    <_>
      <maxWeakCount>3</maxWeakCount>
      <stageThreshold>-6.8468588590621948e-01</stageThreshold>
      <weakClassifiers>
        <_>
          <internalNodes>
            0 -1 55 -1.8565729260444641e-02</internalNodes>
          <leafValues>
            8.5714286565780640e-01 -7.3417723178863525e-01</leafValues></_>
        <_>
          <internalNodes>
            0 -1 25 5.5739702656865120e-03</internalNodes>
          <leafValues>
            -7.7840518951416016e-01 7.1941709518432617e-01</leafValues></_>
        <_>
          <internalNodes>
            0 -1 70 2.3649085313081741e-02</internalNodes>
          <leafValues>
            -6.6992580890655518e-01 8.4957444667816162e-01</leafValues></_></weakClassifiers></_>
    <!-- stage 1 -->
    <_>
      <maxWeakCount>3</maxWeakCount>
      <stageThreshold>-5.6690531969070435e-01</stageThreshold>
      <weakClassifiers>
        <_>
          <internalNodes>
            0 -1 18 -5.8387733995914459e-02</internalNodes>
          <leafValues>
            -8.4326016902923584e-01 7.5936436653137207e-01</leafValues></_>
        <_>
          <internalNodes>
            0 -1 1 -2.9710603877902031e-02</internalNodes>
          <leafValues>
            8.5802632570266724e-01 -5.1966422796249390e-01</leafValues></_>
        <_>
          <internalNodes>
            0 -1 32 -7.9444840550422668e-02</internalNodes>
          <leafValues>
            7.9601913690567017e-01 -5.1449018716812134e-01</leafValues></_></weakClassifiers></_>
    <!-- stage 2 -->
    <_>
      <maxWeakCount>5</maxWeakCount>
      <stageThreshold>-7.1950244903564453e-01</stageThreshold>
      <weakClassifiers>
        <_>
          <internalNodes>
            0 -1 41 -1.1627810075879097e-02</internalNodes>
          <leafValues>
            7.1623158454895020e-01 -7.2413790225982666e-01</leafValues></_>
        <_>
          <internalNodes>
            0 -1 12 3.0176015570759773e-02</internalNodes>
          <leafValues>
            -5.3242021799087524e-01 8.1435036659240723e-01</leafValues></_>
        <_>
          <internalNodes>
            0 -1 24 1.0788759682327509e-03</internalNodes>
          <leafValues>
            -7.4871283769607544e-01 4.7492021322250366e-01</leafValues></_>
        <_>
          <internalNodes>
            0 -1 68 3.0234564095735550e-02</internalNodes>
          <leafValues>
            -6.0805559158325195e-01 5.6363171339035034e-01</leafValues></_>
        <_>
          <internalNodes>
            0 -1 53 1.6973877325654030e-02</internalNodes>
          <leafValues>
            -4.3057250976562500e-01 6.7019110918045044e-01</leafValues></_></weakClassifiers></_>
    <!-- stage 3 -->
    <_>
      <maxWeakCount>3</maxWeakCount>
      <stageThreshold>-8.8071703910827637e-01</stageThreshold>
      <weakClassifiers>
        <_>
          <internalNodes>
            0 -1 22 -2.9265114665031433e-01</internalNodes>
          <leafValues>
            -8.0421310663223267e-01 9.0960454940795898e-01</leafValues></_>
        <_>
          <internalNodes>
            0 -1 11 -3.0976372957229614e-01</internalNodes>
          <leafValues>
            -8.5214632749557495e-01 6.1123418807983398e-01</leafValues></_>
        <_>
          <internalNodes>
            0 -1 30 8.7703745812177658e-03</internalNodes>
          <leafValues>
            -4.6141281723976135e-01 7.7564245462417603e-01</leafValues></_></weakClassifiers></_>
    <!-- stage 4 -->
    <_>
      <maxWeakCount>6</maxWeakCount>
      <stageThreshold>-1.2579538822174072e+00</stageThreshold>
      <weakClassifiers>
        <_>
          <internalNodes>
            0 -1 28 -2.2361186146736145e-01</internalNodes>
          <leafValues>
            -5.6062424182891846e-01 8.0855137109756470e-01</leafValues></_>
        <_>
          <internalNodes>
            0 -1 10 -2.1269273757934570e-01</internalNodes>
          <leafValues>
            -5.5081915855407715e-01 6.3504058122634888e-01</leafValues></_>
        <_>
          <internalNodes>
            0 -1 2 -3.4062057733535767e-02</internalNodes>
          <leafValues>
            5.9716761112213135e-01 -4.3367123603820801e-01</leafValues></_>
        <_>
          <internalNodes>
            0 -1 64 -1.3176153879612684e-03</internalNodes>
          <leafValues>
            4.1531515121459961e-01 -6.6597640514373779e-01</leafValues></_>
        <_>
          <internalNodes>
            0 -1 9 -3.6323159933090210e-02</internalNodes>
          <leafValues>
            5.6788378953933716e-01 -4.2464607954025269e-01</leafValues></_>
        <_>
          <internalNodes>
            0 -1 61 -1.3551769079640508e-03</internalNodes>
          <leafValues>
            2.9649171233177185e-01 -5.8522450923919678e-01</leafValues></_></weakClassifiers></_>
    <!-- stage 5 -->
    <_>
      <maxWeakCount>9</maxWeakCount>
      <stageThreshold>-9.7626835107803345e-01</stageThreshold>
      <weakClassifiers>
        <_>
          <internalNodes>
            0 -1 38 -1.5926221013069153e-01</internalNodes>
          <leafValues>
            -3.8255032896995544e-01 7.5830012559890747e-01</leafValues></_>
        <_>
          <internalNodes>
            0 -1 35 2.3751142725814134e-04</internalNodes>
          <leafValues>
            -7.1772789955139160e-01 4.3303787708282471e-01</leafValues></_>
        <_>
          <internalNodes>
            0 -1 21 -5.5139347910881042e-02</internalNodes>
          <leafValues>
            7.3962008953094482e-01 -3.3150878548622131e-01</leafValues></_>
        <_>
          <internalNodes>
            0 -1 56 -3.6643669009208679e-03</internalNodes>
          <leafValues>
            3.2417297363281250e-01 -6.4454811811447144e-01</leafValues></_>
        <_>
          <internalNodes>
            0 -1 71 4.0557220578193665e-02</internalNodes>
          <leafValues>
            -3.9313775300979614e-01 4.8042005300521851e-01</leafValues></_>
        <_>
          <internalNodes>
            0 -1 23 4.9656769260764122e-04</internalNodes>
          <leafValues>
            -6.8595552444458008e-01 2.1003231406211853e-01</leafValues></_>
        <_>
          <internalNodes>
            0 -1 46 -3.2414782792329788e-02</internalNodes>
          <leafValues>
            8.4822553396224976e-01 -1.9667148590087891e-01</leafValues></_>
        <_>
          <internalNodes>
            0 -1 39 1.0721393628045917e-03</internalNodes>
          <leafValues>
            2.0973512530326843e-01 -8.2573807239532471e-01</leafValues></_>
        <_>
          <internalNodes>
            0 -1 42 -7.2353400290012360e-02</internalNodes>
          <leafValues>
            -7.4162393808364868e-01 2.2140972316265106e-01</leafValues></_></weakClassifiers></_>
    <!-- stage 6 -->
    <_>
      <maxWeakCount>10</maxWeakCount>
      <stageThreshold>-1.4216043949127197e+00</stageThreshold>
      <weakClassifiers>
        <_>
          <internalNodes>
            0 -1 20 2.7363307774066925e-02</internalNodes>
          <leafValues>
            -3.0839002132415771e-01 7.0619237422943115e-01</leafValues></_>
        <_>
          <internalNodes>
            0 -1 51 -8.0084931105375290e-03</internalNodes>
          <leafValues>
            8.5755777359008789e-01 -2.6705163717269897e-01</leafValues></_>
        <_>
          <internalNodes>
            0 -1 62 -8.3673931658267975e-04</internalNodes>
          <leafValues>
            3.2875281572341919e-01 -7.0188641548156738e-01</leafValues></_>
        <_>
          <internalNodes>
            0 -1 0 -4.1410107165575027e-02</internalNodes>
          <leafValues>
            5.0095003843307495e-01 -4.0682226419448853e-01</leafValues></_>
        <_>
          <internalNodes>
            0 -1 29 -1.9025745987892151e-01</internalNodes>
          <leafValues>
            -4.4983687996864319e-01 3.8153645396232605e-01</leafValues></_>
        <_>
          <internalNodes>
            0 -1 33 5.8675615582615137e-04</internalNodes>
          <leafValues>
            -6.5435254573822021e-01 2.8558000922203064e-01</leafValues></_>
        <_>
          <internalNodes>
            0 -1 15 -4.2439825832843781e-02</internalNodes>
          <leafValues>
            5.6994676589965820e-01 -3.6528047919273376e-01</leafValues></_>
        <_>
          <internalNodes>
            0 -1 47 3.3457465469837189e-03</internalNodes>
          <leafValues>
            -3.1373330950737000e-01 5.0365465879440308e-01</leafValues></_>
        <_>
          <internalNodes>
            0 -1 48 -1.1045245453715324e-02</internalNodes>
          <leafValues>
            8.0112624168395996e-01 -1.6870445013046265e-01</leafValues></_>
        <_>
          <internalNodes>
            0 -1 59 -6.9877684116363525e-02</internalNodes>
          <leafValues>
            -6.9265097379684448e-01 2.4388188123703003e-01</leafValues></_></weakClassifiers></_>
    <!-- stage 7 -->
    <_>
      <maxWeakCount>10</maxWeakCount>
      <stageThreshold>-8.5334432125091553e-01</stageThreshold>
      <weakClassifiers>
        <_>
          <internalNodes>
            0 -1 69 3.7345804274082184e-02</internalNodes>
          <leafValues>
            -2.8222995996475220e-01 6.7771279811859131e-01</leafValues></_>
        <_>
          <internalNodes>
            0 -1 45 2.9123701155185699e-02</internalNodes>
          <leafValues>
            -3.2236322760581970e-01 7.0538806915283203e-01</leafValues></_>
        <_>
          <internalNodes>
            0 -1 20 5.3278755396604538e-02</internalNodes>
          <leafValues>
            -3.0881547927856445e-01 5.9249877929687500e-01</leafValues></_>
        <_>
          <internalNodes>
            0 -1 65 -1.1689434759318829e-03</internalNodes>
          <leafValues>
            3.3857664465904236e-01 -6.1547750234603882e-01</leafValues></_>
        <_>
          <internalNodes>
            0 -1 17 -1.6491059213876724e-02</internalNodes>
          <leafValues>
            -5.2243548631668091e-01 3.0196070671081543e-01</leafValues></_>
        <_>
          <internalNodes>
            0 -1 26 3.8308947114273906e-04</internalNodes>
          <leafValues>
            -7.6267915964126587e-01 2.1696260571479797e-01</leafValues></_>
        <_>
          <internalNodes>
            0 -1 13 -4.8152945935726166e-02</internalNodes>
          <leafValues>
            4.0205663442611694e-01 -3.9965471625328064e-01</leafValues></_>
        <_>
          <internalNodes>
            0 -1 36 -2.0601210053428076e-05</internalNodes>
          <leafValues>
            2.9816290736198425e-01 -5.6715953350067139e-01</leafValues></_>
        <_>
          <internalNodes>
            0 -1 50 -2.1376233547925949e-02</internalNodes>
          <leafValues>
            5.0738483667373657e-01 -2.8350409865379333e-01</leafValues></_>
        <_>
          <internalNodes>
            0 -1 5 -6.3597440719604492e-02</internalNodes>
          <leafValues>
            5.7581275701522827e-01 -2.6009690761566162e-01</leafValues></_></weakClassifiers></_>
    <!-- stage 8 -->
    <_>
      <maxWeakCount>12</maxWeakCount>
      <stageThreshold>-9.0898013114929199e-01</stageThreshold>
      <weakClassifiers>
        <_>
          <internalNodes>
            0 -1 44 7.9693272709846497e-03</internalNodes>
          <leafValues>
            -1.1663807928562164e-01 7.5850892066955566e-01</leafValues></_>
        <_>
          <internalNodes>
            0 -1 31 -4.7336064279079437e-02</internalNodes>
          <leafValues>
            4.1622975468635559e-01 -5.1370900869369507e-01</leafValues></_>
        <_>
          <internalNodes>
            0 -1 63 -1.0574635816738009e-03</internalNodes>
          <leafValues>
            2.4217185378074646e-01 -6.5040695667266846e-01</leafValues></_>
        <_>
          <internalNodes>
            0 -1 14 -3.8695290684700012e-02</internalNodes>
          <leafValues>
            3.9672434329986572e-01 -4.2868390679359436e-01</leafValues></_>
        <_>
          <internalNodes>
            0 -1 3 -4.2353406548500061e-02</internalNodes>
          <leafValues>
            3.9548879861831665e-01 -3.4630110859870911e-01</leafValues></_>
        <_>
          <internalNodes>
            0 -1 7 -9.1435164213180542e-02</internalNodes>
          <leafValues>
            -7.4195235967636108e-01 1.4772091805934906e-01</leafValues></_>
        <_>
          <internalNodes>
            0 -1 52 2.1099273115396500e-02</internalNodes>
          <leafValues>
            -2.6081156730651855e-01 5.3779351711273193e-01</leafValues></_>
        <_>
          <internalNodes>
            0 -1 34 4.2954186210408807e-04</internalNodes>
          <leafValues>
            -6.8468266725540161e-01 2.0739543437957764e-01</leafValues></_>
        <_>
          <internalNodes>
            0 -1 8 1.0150661319494247e-01</internalNodes>
          <leafValues>
            -2.6105034351348877e-01 6.3237488269805908e-01</leafValues></_>
        <_>
          <internalNodes>
            0 -1 43 -5.3720930591225624e-03</internalNodes>
          <leafValues>
            5.0862646102905273e-01 -2.8931060433387756e-01</leafValues></_>
        <_>
          <internalNodes>
            0 -1 6 -6.0037888586521149e-02</internalNodes>
          <leafValues>
            6.3999766111373901e-01 -2.0033068954944611e-01</leafValues></_>
        <_>
          <internalNodes>
            0 -1 49 -1.1392250657081604e-02</internalNodes>
          <leafValues>
            -7.6347428560256958e-01 2.0610295236110687e-01</leafValues></_></weakClassifiers></_>
    <!-- stage 9 -->
    <_>
      <maxWeakCount>12</maxWeakCount>
      <stageThreshold>-1.0565611124038696e+00</stageThreshold>
      <weakClassifiers>
        <_>
          <internalNodes>
            0 -1 37 -5.0833716988563538e-02</internalNodes>
          <leafValues>
            -3.3734938502311707e-01 5.8986175060272217e-01</leafValues></_>
        <_>
          <internalNodes>
            0 -1 57 -9.4816402997821569e-04</internalNodes>
          <leafValues>
            3.0718788504600525e-01 -6.7415028810501099e-01</leafValues></_>
        <_>
          <internalNodes>
            0 -1 4 -6.4158655703067780e-02</internalNodes>
          <leafValues>
            4.1915249824523926e-01 -4.2642620205879211e-01</leafValues></_>
        <_>
          <internalNodes>
            0 -1 40 2.0486628272919916e-05</internalNodes>
          <leafValues>
            -7.0265460014343262e-01 1.8246525526046753e-01</leafValues></_>
        <_>
          <internalNodes>
            0 -1 67 3.3828698098659515e-02</internalNodes>
          <leafValues>
            -3.2169711589813232e-01 4.3888887763023376e-01</leafValues></_>
        <_>
          <internalNodes>
            0 -1 27 3.6624108906835318e-04</internalNodes>
          <leafValues>
            -5.9457701444625854e-01 2.1098023653030396e-01</leafValues></_>
        <_>
          <internalNodes>
            0 -1 66 -3.5080302041023970e-03</internalNodes>
          <leafValues>
            3.5162577033042908e-01 -3.6369845271110535e-01</leafValues></_>
        <_>
          <internalNodes>
            0 -1 19 4.2431958019733429e-02</internalNodes>
          <leafValues>
            -4.1789552569389343e-01 3.2246947288513184e-01</leafValues></_>
        <_>
          <internalNodes>
            0 -1 60 -2.2602668032050133e-03</internalNodes>
          <leafValues>
            2.0439746975898743e-01 -5.8099967241287231e-01</leafValues></_>
        <_>
          <internalNodes>
            0 -1 58 6.7053141538053751e-04</internalNodes>
          <leafValues>
            1.2446743994951248e-01 -7.9982304573059082e-01</leafValues></_>
        <_>
          <internalNodes>
            0 -1 16 1.4817151241004467e-03</internalNodes>
          <leafValues>
            -2.6828348636627197e-01 4.1838318109512329e-01</leafValues></_>
        <_>
          <internalNodes>
            0 -1 54 -1.7587733268737793e-01</internalNodes>
          <leafValues>
            -6.3950359821319580e-01 2.2230835258960724e-01</leafValues></_></weakClassifiers></_></stages>
  <features>
    <_>
      <rects>
        <_>
          0 3 4 11 -1.</_>
        <_>
          2 3 2 11 2.</_></rects>
      <tilted>0</tilted></_>
    <_>
      <rects>
        <_>
          0 3 4 12 -1.</_>
        <_>
          2 3 2 12 2.</_></rects>
      <tilted>0</tilted></_>
    <_>
      <rects>
        <_>
          0 4 4 10 -1.</_>
        <_>
          2 4 2 10 2.</_></rects>
      <tilted>0</tilted></_>
    <_>
      <rects>
        <_>
          0 4 4 11 -1.</_>
        <_>
          2 4 2 11 2.</_></rects>
      <tilted>0</tilted></_>
    <_>
      <rects>
        <_>
          0 4 6 12 -1.</_>
        <_>
          3 4 3 12 2.</_></rects>
      <tilted>0</tilted></_>
    <_>
      <rects>
        <_>
          0 5 6 8 -1.</_>
        <_>
          3 5 3 8 2.</_></rects>
      <tilted>0</tilted></_>
    <_>
      <rects>
        <_>
          1 2 15 4 -1.</_>
        <_>
          1 4 15 2 2.</_></rects>
      <tilted>0</tilted></_>
    <_>
      <rects>
        <_>
          1 3 3 9 -1.</_>
        <_>
          2 3 1 9 2.</_></rects>
      <tilted>0</tilted></_>
    <_>
      <rects>
        <_>
          1 11 13 6 -1.</_>
        <_>
          1 14 13 3 2.</_></rects>
      <tilted>0</tilted></_>
    <_>
      <rects>
        <_>
          2 0 13 4 -1.</_>
        <_>
          2 2 13 2 2.</_></rects>
      <tilted>0</tilted></_>
    <_>
      <rects>
        <_>
          2 6 15 7 -1.</_>
        <_>
          7 6 5 7 2.</_></rects>
      <tilted>0</tilted></_>
    <_>
      <rects>
        <_>
          2 7 15 7 -1.</_>
        <_>
          7 7 5 7 2.</_></rects>
      <tilted>0</tilted></_>
    <_>
      <rects>
        <_>
          2 14 16 4 -1.</_>
        <_>
          2 16 16 2 2.</_></rects>
      <tilted>0</tilted></_>
    <_>
      <rects>
        <_>
          3 0 12 6 -1.</_>
        <_>
          3 3 12 3 2.</_></rects>
      <tilted>0</tilted></_>
    <_>
      <rects>
        <_>
          3 0 14 4 -1.</_>
        <_>
          3 2 14 2 2.</_></rects>
      <tilted>0</tilted></_>
    <_>
      <rects>
        <_>
          3 1 14 4 -1.</_>
        <_>
          3 3 14 2 2.</_></rects>
      <tilted>0</tilted></_>
    <_>
      <rects>
        <_>
          3 7 2 1 -1.</_>
        <_>
          4 7 1 1 2.</_></rects>
      <tilted>0</tilted></_>
    <_>
      <rects>
        <_>
          3 10 12 1 -1.</_>
        <_>
          7 10 4 1 2.</_></rects>
      <tilted>0</tilted></_>
    <_>
      <rects>
        <_>
          3 10 12 2 -1.</_>
        <_>
          7 10 4 2 2.</_></rects>
      <tilted>0</tilted></_>
    <_>
      <rects>
        <_>
          3 12 13 6 -1.</_>
        <_>
          3 15 13 3 2.</_></rects>
      <tilted>0</tilted></_>
    <_>
      <rects>
        <_>
          3 14 12 4 -1.</_>
        <_>
          3 16 12 2 2.</_></rects>
      <tilted>0</tilted></_>
    <_>
      <rects>
        <_>
          4 0 11 4 -1.</_>
        <_>
          4 2 11 2 2.</_></rects>
      <tilted>0</tilted></_>
    <_>
      <rects>
        <_>
          4 3 10 12 -1.</_>
        <_>
          4 7 10 4 2.</_></rects>
      <tilted>0</tilted></_>
    <_>
      <rects>
        <_>
          4 8 2 1 -1.</_>
        <_>
          5 8 1 1 2.</_></rects>
      <tilted>0</tilted></_>
    <_>
      <rects>
        <_>
          4 8 2 2 -1.</_>
        <_>
          5 8 1 2 2.</_></rects>
      <tilted>0</tilted></_>
    <_>
      <rects>
        <_>
          4 8 4 3 -1.</_>
        <_>
          6 8 2 3 2.</_></rects>
      <tilted>0</tilted></_>
    <_>
      <rects>
        <_>
          4 9 2 1 -1.</_>
        <_>
          5 9 1 1 2.</_></rects>
      <tilted>0</tilted></_>
    <_>
      <rects>
        <_>
          4 10 2 1 -1.</_>
        <_>
          5 10 1 1 2.</_></rects>
      <tilted>0</tilted></_>
    <_>
      <rects>
        <_>
          5 1 8 15 -1.</_>
        <_>
          5 6 8 5 2.</_></rects>
      <tilted>0</tilted></_>
    <_>
      <rects>
        <_>
          5 2 8 15 -1.</_>
        <_>
          5 7 8 5 2.</_></rects>
      <tilted>0</tilted></_>
    <_>
      <rects>
        <_>
          5 3 8 2 -1.</_>
        <_>
          5 4 8 1 2.</_></rects>
      <tilted>0</tilted></_>
    <_>
      <rects>
        <_>
          5 8 8 6 -1.</_>
        <_>
          5 11 8 3 2.</_></rects>
      <tilted>0</tilted></_>
    <_>
      <rects>
        <_>
          5 8 9 8 -1.</_>
        <_>
          5 12 9 4 2.</_></rects>
      <tilted>0</tilted></_>
    <_>
      <rects>
        <_>
          5 10 2 1 -1.</_>
        <_>
          6 10 1 1 2.</_></rects>
      <tilted>0</tilted></_>
    <_>
      <rects>
        <_>
          5 10 2 2 -1.</_>
        <_>
          6 10 1 2 2.</_></rects>
      <tilted>0</tilted></_>
    <_>
      <rects>
        <_>
          5 11 2 1 -1.</_>
        <_>
          6 11 1 1 2.</_></rects>
      <tilted>0</tilted></_>
    <_>
      <rects>
        <_>
          5 11 1 2 -1.</_>
        <_>
          5 12 1 1 2.</_></rects>
      <tilted>0</tilted></_>
    <_>
      <rects>
        <_>
          6 1 2 15 -1.</_>
        <_>
          6 6 2 5 2.</_></rects>
      <tilted>0</tilted></_>
    <_>
      <rects>
        <_>
          6 1 7 15 -1.</_>
        <_>
          6 6 7 5 2.</_></rects>
      <tilted>0</tilted></_>
    <_>
      <rects>
        <_>
          6 5 10 8 -1.</_>
        <_>
          11 5 5 8 2.</_></rects>
      <tilted>0</tilted></_>
    <_>
      <rects>
        <_>
          6 10 2 2 -1.</_>
        <_>
          7 10 1 2 2.</_></rects>
      <tilted>0</tilted></_>
    <_>
      <rects>
        <_>
          6 10 6 4 -1.</_>
        <_>
          6 12 6 2 2.</_></rects>
      <tilted>0</tilted></_>
    <_>
      <rects>
        <_>
          6 12 6 4 -1.</_>
        <_>
          8 12 2 4 2.</_></rects>
      <tilted>0</tilted></_>
    <_>
      <rects>
        <_>
          6 13 6 2 -1.</_>
        <_>
          6 14 6 1 2.</_></rects>
      <tilted>0</tilted></_>
    <_>
      <rects>
        <_>
          6 16 5 2 -1.</_>
        <_>
          6 17 5 1 2.</_></rects>
      <tilted>0</tilted></_>
    <_>
      <rects>
        <_>
          7 2 5 4 -1.</_>
        <_>
          7 4 5 2 2.</_></rects>
      <tilted>0</tilted></_>
    <_>
      <rects>
        <_>
          7 2 6 4 -1.</_>
        <_>
          7 4 6 2 2.</_></rects>
      <tilted>0</tilted></_>
    <_>
      <rects>
        <_>
          7 3 3 2 -1.</_>
        <_>
          7 4 3 1 2.</_></rects>
      <tilted>0</tilted></_>
    <_>
      <rects>
        <_>
          7 3 5 2 -1.</_>
        <_>
          7 4 5 1 2.</_></rects>
      <tilted>0</tilted></_>
    <_>
      <rects>
        <_>
          7 9 4 4 -1.</_>
        <_>
          9 9 2 4 2.</_></rects>
      <tilted>0</tilted></_>
    <_>
      <rects>
        <_>
          7 12 5 4 -1.</_>
        <_>
          7 14 5 2 2.</_></rects>
      <tilted>0</tilted></_>
    <_>
      <rects>
        <_>
          8 0 3 2 -1.</_>
        <_>
          8 1 3 1 2.</_></rects>
      <tilted>0</tilted></_>
    <_>
      <rects>
        <_>
          8 2 3 4 -1.</_>
        <_>
          8 4 3 2 2.</_></rects>
      <tilted>0</tilted></_>
    <_>
      <rects>
        <_>
          8 3 5 4 -1.</_>
        <_>
          8 5 5 2 2.</_></rects>
      <tilted>0</tilted></_>
    <_>
      <rects>
        <_>
          9 5 6 9 -1.</_>
        <_>
          11 5 2 9 2.</_></rects>
      <tilted>0</tilted></_>
    <_>
      <rects>
        <_>
          9 5 6 8 -1.</_>
        <_>
          12 5 3 8 2.</_></rects>
      <tilted>0</tilted></_>
    <_>
      <rects>
        <_>
          9 9 2 4 -1.</_>
        <_>
          9 11 2 2 2.</_></rects>
      <tilted>0</tilted></_>
    <_>
      <rects>
        <_>
          9 11 4 2 -1.</_>
        <_>
          11 11 2 2 2.</_></rects>
      <tilted>0</tilted></_>
    <_>
      <rects>
        <_>
          10 10 2 2 -1.</_>
        <_>
          11 10 1 2 2.</_></rects>
      <tilted>0</tilted></_>
    <_>
      <rects>
        <_>
          11 1 3 7 -1.</_>
        <_>
          12 1 1 7 2.</_></rects>
      <tilted>0</tilted></_>
    <_>
      <rects>
        <_>
          11 8 4 1 -1.</_>
        <_>
          13 8 2 1 2.</_></rects>
      <tilted>0</tilted></_>
    <_>
      <rects>
        <_>
          11 9 2 2 -1.</_>
        <_>
          12 9 1 2 2.</_></rects>
      <tilted>0</tilted></_>
    <_>
      <rects>
        <_>
          11 9 1 4 -1.</_>
        <_>
          11 11 1 2 2.</_></rects>
      <tilted>0</tilted></_>
    <_>
      <rects>
        <_>
          11 9 2 3 -1.</_>
        <_>
          12 9 1 3 2.</_></rects>
      <tilted>0</tilted></_>
    <_>
      <rects>
        <_>
          12 8 2 2 -1.</_>
        <_>
          13 8 1 2 2.</_></rects>
      <tilted>0</tilted></_>
    <_>
      <rects>
        <_>
          12 9 2 2 -1.</_>
        <_>
          13 9 1 2 2.</_></rects>
      <tilted>0</tilted></_>
    <_>
      <rects>
        <_>
          12 10 2 4 -1.</_>
        <_>
          12 12 2 2 2.</_></rects>
      <tilted>0</tilted></_>
    <_>
      <rects>
        <_>
          13 4 4 8 -1.</_>
        <_>
          15 4 2 8 2.</_></rects>
      <tilted>0</tilted></_>
    <_>
      <rects>
        <_>
          14 1 4 13 -1.</_>
        <_>
          16 1 2 13 2.</_></rects>
      <tilted>0</tilted></_>
    <_>
      <rects>
        <_>
          14 2 4 14 -1.</_>
        <_>
          16 2 2 14 2.</_></rects>
      <tilted>0</tilted></_>
    <_>
      <rects>
        <_>
          14 3 4 13 -1.</_>
        <_>
          16 3 2 13 2.</_></rects>
      <tilted>0</tilted></_>
    <_>
      <rects>
        <_>
          14 5 4 10 -1.</_>
        <_>
          16 5 2 10 2.</_></rects>
      <tilted>0</tilted></_></features></cascade>
</opencv_storage>
