<?xml version="1.0"?>
<opencv_storage>
<stage9>
  <maxWeakCount>12</maxWeakCount>
  <stageThreshold>-1.0565611124038696e+00</stageThreshold>
  <weakClassifiers>
    <_>
      <internalNodes>
        0 -1 29067 -5.0833716988563538e-02</internalNodes>
      <leafValues>
        -3.3734938502311707e-01 5.8986175060272217e-01</leafValues></_>
    <_>
      <internalNodes>
        0 -1 40994 -9.4816402997821569e-04</internalNodes>
      <leafValues>
        3.0718788504600525e-01 -6.7415028810501099e-01</leafValues></_>
    <_>
      <internalNodes>
        0 -1 2364 -6.4158655703067780e-02</internalNodes>
      <leafValues>
        4.1915249824523926e-01 -4.2642620205879211e-01</leafValues></_>
    <_>
      <internalNodes>
        0 -1 31604 2.0486628272919916e-05</internalNodes>
      <leafValues>
        -7.0265460014343262e-01 1.8246525526046753e-01</leafValues></_>
    <_>
      <internalNodes>
        0 -1 48298 3.3828698098659515e-02</internalNodes>
      <leafValues>
        -3.2169711589813232e-01 4.3888887763023376e-01</leafValues></_>
    <_>
      <internalNodes>
        0 -1 23805 3.6624108906835318e-04</internalNodes>
      <leafValues>
        -5.9457701444625854e-01 2.1098023653030396e-01</leafValues></_>
    <_>
      <internalNodes>
        0 -1 47354 -3.5080302041023970e-03</internalNodes>
      <leafValues>
        3.5162577033042908e-01 -3.6369845271110535e-01</leafValues></_>
    <_>
      <internalNodes>
        0 -1 19999 4.2431958019733429e-02</internalNodes>
      <leafValues>
        -4.1789552569389343e-01 3.2246947288513184e-01</leafValues></_>
    <_>
      <internalNodes>
        0 -1 45213 -2.2602668032050133e-03</internalNodes>
      <leafValues>
        2.0439746975898743e-01 -5.8099967241287231e-01</leafValues></_>
    <_>
      <internalNodes>
        0 -1 43313 6.7053141538053751e-04</internalNodes>
      <leafValues>
        1.2446743994951248e-01 -7.9982304573059082e-01</leafValues></_>
    <_>
      <internalNodes>
        0 -1 18645 1.4817151241004467e-03</internalNodes>
      <leafValues>
        -2.6828348636627197e-01 4.1838318109512329e-01</leafValues></_>
    <_>
      <internalNodes>
        0 -1 40040 -1.7587733268737793e-01</internalNodes>
      <leafValues>
        -6.3950359821319580e-01 2.2230835258960724e-01</leafValues></_></weakClassifiers></stage9>
</opencv_storage>
