<?xml version="1.0"?>
<opencv_storage>
<stage6>
  <maxWeakCount>10</maxWeakCount>
  <stageThreshold>-1.4216043949127197e+00</stageThreshold>
  <weakClassifiers>
    <_>
      <internalNodes>
        0 -1 20226 2.7363307774066925e-02</internalNodes>
      <leafValues>
        -3.0839002132415771e-01 7.0619237422943115e-01</leafValues></_>
    <_>
      <internalNodes>
        0 -1 35701 -8.0084931105375290e-03</internalNodes>
      <leafValues>
        8.5755777359008789e-01 -2.6705163717269897e-01</leafValues></_>
    <_>
      <internalNodes>
        0 -1 45307 -8.3673931658267975e-04</internalNodes>
      <leafValues>
        3.2875281572341919e-01 -7.0188641548156738e-01</leafValues></_>
    <_>
      <internalNodes>
        0 -1 1816 -4.1410107165575027e-02</internalNodes>
      <leafValues>
        5.0095003843307495e-01 -4.0682226419448853e-01</leafValues></_>
    <_>
      <internalNodes>
        0 -1 25787 -1.9025745987892151e-01</internalNodes>
      <leafValues>
        -4.4983687996864319e-01 3.8153645396232605e-01</leafValues></_>
    <_>
      <internalNodes>
        0 -1 27794 5.8675615582615137e-04</internalNodes>
      <leafValues>
        -6.5435254573822021e-01 2.8558000922203064e-01</leafValues></_>
    <_>
      <internalNodes>
        0 -1 16703 -4.2439825832843781e-02</internalNodes>
      <leafValues>
        5.6994676589965820e-01 -3.6528047919273376e-01</leafValues></_>
    <_>
      <internalNodes>
        0 -1 33438 3.3457465469837189e-03</internalNodes>
      <leafValues>
        -3.1373330950737000e-01 5.0365465879440308e-01</leafValues></_>
    <_>
      <internalNodes>
        0 -1 33521 -1.1045245453715324e-02</internalNodes>
      <leafValues>
        8.0112624168395996e-01 -1.6870445013046265e-01</leafValues></_>
    <_>
      <internalNodes>
        0 -1 44041 -6.9877684116363525e-02</internalNodes>
      <leafValues>
        -6.9265097379684448e-01 2.4388188123703003e-01</leafValues></_></weakClassifiers></stage6>
</opencv_storage>
