<?xml version="1.0"?>
<opencv_storage>
<cascade>
  <stageType>BOOST</stageType>
  <featureType>HAAR</featureType>
  <height>18</height>
  <width>18</width>
  <stageParams>
    <boostType>GAB</boostType>
    <minHitRate>9.9500000476837158e-01</minHitRate>
    <maxFalseAlarm>5.0000000000000000e-01</maxFalseAlarm>
    <weightTrimRate>9.4999999999999996e-01</weightTrimRate>
    <maxDepth>1</maxDepth>
    <maxWeakCount>100</maxWeakCount></stageParams>
  <featureParams>
    <maxCatCount>0</maxCatCount>
    <featSize>1</featSize>
    <mode>BASIC</mode></featureParams>
  <stageNum>9</stageNum>
  <stages>
    <!-- stage 0 -->
    <_>
      <maxWeakCount>2</maxWeakCount>
      <stageThreshold>-5.9897087514400482e-02</stageThreshold>
      <weakClassifiers>
        <_>
          <internalNodes>
            0 -1 31 -2.0763643085956573e-02</internalNodes>
          <leafValues>
            8.6516851186752319e-01 -9.3511986732482910e-01</leafValues></_>
        <_>
          <internalNodes>
            0 -1 53 1.8227338790893555e-02</internalNodes>
          <leafValues>
            -6.4576846361160278e-01 8.7522280216217041e-01</leafValues></_></weakClassifiers></_>
    <!-- stage 1 -->
    <_>
      <maxWeakCount>5</maxWeakCount>
      <stageThreshold>-7.3830157518386841e-01</stageThreshold>
      <weakClassifiers>
        <_>
          <internalNodes>
            0 -1 17 3.8824365474283695e-03</internalNodes>
          <leafValues>
            -7.4655646085739136e-01 8.0167263746261597e-01</leafValues></_>
        <_>
          <internalNodes>
            0 -1 2 -1.7948836088180542e-02</internalNodes>
          <leafValues>
            8.2404577732086182e-01 -5.4163736104965210e-01</leafValues></_>
        <_>
          <internalNodes>
            0 -1 45 -4.3025370687246323e-03</internalNodes>
          <leafValues>
            5.7884675264358521e-01 -7.9911345243453979e-01</leafValues></_>
        <_>
          <internalNodes>
            0 -1 52 3.8809791207313538e-02</internalNodes>
          <leafValues>
            -5.3160750865936279e-01 7.1964091062545776e-01</leafValues></_>
        <_>
          <internalNodes>
            0 -1 9 -1.2510864436626434e-01</internalNodes>
          <leafValues>
            -7.2746312618255615e-01 5.1493012905120850e-01</leafValues></_></weakClassifiers></_>
    <!-- stage 2 -->
    <_>
      <maxWeakCount>3</maxWeakCount>
      <stageThreshold>-5.8370822668075562e-01</stageThreshold>
      <weakClassifiers>
        <_>
          <internalNodes>
            0 -1 41 -3.9878264069557190e-03</internalNodes>
          <leafValues>
            7.1233654022216797e-01 -7.0670825242996216e-01</leafValues></_>
        <_>
          <internalNodes>
            0 -1 19 4.9525480717420578e-02</internalNodes>
          <leafValues>
            -5.4594391584396362e-01 7.6957613229751587e-01</leafValues></_>
        <_>
          <internalNodes>
            0 -1 25 1.9350560382008553e-02</internalNodes>
          <leafValues>
            -4.8375299572944641e-01 6.6894400119781494e-01</leafValues></_></weakClassifiers></_>
    <!-- stage 3 -->
    <_>
      <maxWeakCount>2</maxWeakCount>
      <stageThreshold>-1.3237643241882324e-01</stageThreshold>
      <weakClassifiers>
        <_>
          <internalNodes>
            0 -1 7 -2.3914264142513275e-01</internalNodes>
          <leafValues>
            -9.7883599996566772e-01 9.3673968315124512e-01</leafValues></_>
        <_>
          <internalNodes>
            0 -1 23 -3.1778043508529663e-01</internalNodes>
          <leafValues>
            -8.1199616193771362e-01 8.4645956754684448e-01</leafValues></_></weakClassifiers></_>
    <!-- stage 4 -->
    <_>
      <maxWeakCount>7</maxWeakCount>
      <stageThreshold>-9.4126224517822266e-01</stageThreshold>
      <weakClassifiers>
        <_>
          <internalNodes>
            0 -1 43 -6.1794176697731018e-02</internalNodes>
          <leafValues>
            -3.9609643816947937e-01 7.4885547161102295e-01</leafValues></_>
        <_>
          <internalNodes>
            0 -1 56 6.3839647918939590e-03</internalNodes>
          <leafValues>
            -4.4439619779586792e-01 6.4225560426712036e-01</leafValues></_>
        <_>
          <internalNodes>
            0 -1 27 -1.0945192538201809e-02</internalNodes>
          <leafValues>
            5.0650173425674438e-01 -5.4240459203720093e-01</leafValues></_>
        <_>
          <internalNodes>
            0 -1 3 -2.7869962155818939e-02</internalNodes>
          <leafValues>
            5.9387278556823730e-01 -4.0574026107788086e-01</leafValues></_>
        <_>
          <internalNodes>
            0 -1 16 1.3865774963051081e-03</internalNodes>
          <leafValues>
            -7.5571459531784058e-01 2.6548033952713013e-01</leafValues></_>
        <_>
          <internalNodes>
            0 -1 8 -2.0267716050148010e-01</internalNodes>
          <leafValues>
            -6.3567864894866943e-01 3.2771366834640503e-01</leafValues></_>
        <_>
          <internalNodes>
            0 -1 42 -4.5581767335534096e-03</internalNodes>
          <leafValues>
            2.1796058118343353e-01 -8.2630962133407593e-01</leafValues></_></weakClassifiers></_>
    <!-- stage 5 -->
    <_>
      <maxWeakCount>9</maxWeakCount>
      <stageThreshold>-1.0915123224258423e+00</stageThreshold>
      <weakClassifiers>
        <_>
          <internalNodes>
            0 -1 14 -3.1579561531543732e-02</internalNodes>
          <leafValues>
            8.5402685403823853e-01 -1.8046358227729797e-01</leafValues></_>
        <_>
          <internalNodes>
            0 -1 38 4.8064157366752625e-02</internalNodes>
          <leafValues>
            -2.5678247213363647e-01 6.4370077848434448e-01</leafValues></_>
        <_>
          <internalNodes>
            0 -1 40 2.1606308873742819e-03</internalNodes>
          <leafValues>
            -4.3711826205253601e-01 4.5502600073814392e-01</leafValues></_>
        <_>
          <internalNodes>
            0 -1 41 -3.0565932393074036e-03</internalNodes>
          <leafValues>
            2.4982996284961700e-01 -7.7788668870925903e-01</leafValues></_>
        <_>
          <internalNodes>
            0 -1 11 -6.2811886891722679e-03</internalNodes>
          <leafValues>
            1.7976103723049164e-01 -8.0904191732406616e-01</leafValues></_>
        <_>
          <internalNodes>
            0 -1 17 5.4442463442683220e-03</internalNodes>
          <leafValues>
            -6.2006103992462158e-01 2.2831845283508301e-01</leafValues></_>
        <_>
          <internalNodes>
            0 -1 36 2.8448481112718582e-02</internalNodes>
          <leafValues>
            -3.2216137647628784e-01 6.6731542348861694e-01</leafValues></_>
        <_>
          <internalNodes>
            0 -1 37 -4.7810939140617847e-03</internalNodes>
          <leafValues>
            5.9746748208999634e-01 -2.2904320061206818e-01</leafValues></_>
        <_>
          <internalNodes>
            0 -1 10 -8.1606246531009674e-02</internalNodes>
          <leafValues>
            -3.2385286688804626e-01 5.3398132324218750e-01</leafValues></_></weakClassifiers></_>
    <!-- stage 6 -->
    <_>
      <maxWeakCount>8</maxWeakCount>
      <stageThreshold>-9.4437462091445923e-01</stageThreshold>
      <weakClassifiers>
        <_>
          <internalNodes>
            0 -1 5 -5.3810164332389832e-02</internalNodes>
          <leafValues>
            7.3657840490341187e-01 -2.2831505537033081e-01</leafValues></_>
        <_>
          <internalNodes>
            0 -1 35 2.0001213997602463e-02</internalNodes>
          <leafValues>
            -4.3610531091690063e-01 6.4921987056732178e-01</leafValues></_>
        <_>
          <internalNodes>
            0 -1 13 -1.6008934471756220e-03</internalNodes>
          <leafValues>
            4.4028878211975098e-01 -5.2096122503280640e-01</leafValues></_>
        <_>
          <internalNodes>
            0 -1 54 2.0851658657193184e-02</internalNodes>
          <leafValues>
            -3.8542807102203369e-01 4.9052172899246216e-01</leafValues></_>
        <_>
          <internalNodes>
            0 -1 20 -5.2172657102346420e-02</internalNodes>
          <leafValues>
            8.1774371862411499e-01 -2.6209908723831177e-01</leafValues></_>
        <_>
          <internalNodes>
            0 -1 44 -2.0478922873735428e-02</internalNodes>
          <leafValues>
            4.1459098458290100e-01 -5.5926883220672607e-01</leafValues></_>
        <_>
          <internalNodes>
            0 -1 34 -7.3221817612648010e-02</internalNodes>
          <leafValues>
            -8.2436984777450562e-01 1.4682637155056000e-01</leafValues></_>
        <_>
          <internalNodes>
            0 -1 12 3.0151454266160727e-03</internalNodes>
          <leafValues>
            -4.1266119480133057e-01 3.2711675763130188e-01</leafValues></_></weakClassifiers></_>
    <!-- stage 7 -->
    <_>
      <maxWeakCount>11</maxWeakCount>
      <stageThreshold>-1.0496827363967896e+00</stageThreshold>
      <weakClassifiers>
        <_>
          <internalNodes>
            0 -1 39 3.7915639579296112e-02</internalNodes>
          <leafValues>
            -2.6950353384017944e-01 6.6151863336563110e-01</leafValues></_>
        <_>
          <internalNodes>
            0 -1 26 -3.0741812661290169e-03</internalNodes>
          <leafValues>
            3.7472227215766907e-01 -6.2898635864257813e-01</leafValues></_>
        <_>
          <internalNodes>
            0 -1 46 -2.6858553290367126e-02</internalNodes>
          <leafValues>
            -3.5863670706748962e-01 5.4455912113189697e-01</leafValues></_>
        <_>
          <internalNodes>
            0 -1 51 -2.0278822630643845e-02</internalNodes>
          <leafValues>
            3.2675838470458984e-01 -4.7089534997940063e-01</leafValues></_>
        <_>
          <internalNodes>
            0 -1 21 4.7359153628349304e-02</internalNodes>
          <leafValues>
            -2.6299318671226501e-01 6.2786376476287842e-01</leafValues></_>
        <_>
          <internalNodes>
            0 -1 6 -6.0298047959804535e-02</internalNodes>
          <leafValues>
            7.5914579629898071e-01 -2.1759343147277832e-01</leafValues></_>
        <_>
          <internalNodes>
            0 -1 18 2.3078056983649731e-03</internalNodes>
          <leafValues>
            -5.5304551124572754e-01 2.5763565301895142e-01</leafValues></_>
        <_>
          <internalNodes>
            0 -1 1 -2.2940794005990028e-02</internalNodes>
          <leafValues>
            4.3054273724555969e-01 -3.1648030877113342e-01</leafValues></_>
        <_>
          <internalNodes>
            0 -1 48 2.4750059470534325e-02</internalNodes>
          <leafValues>
            -2.4186486005783081e-01 5.6502515077590942e-01</leafValues></_>
        <_>
          <internalNodes>
            0 -1 47 -5.5886204354465008e-03</internalNodes>
          <leafValues>
            5.1728445291519165e-01 -2.5366875529289246e-01</leafValues></_>
        <_>
          <internalNodes>
            0 -1 30 1.4153272844851017e-02</internalNodes>
          <leafValues>
            1.4855422079563141e-01 -8.5901147127151489e-01</leafValues></_></weakClassifiers></_>
    <!-- stage 8 -->
    <_>
      <maxWeakCount>12</maxWeakCount>
      <stageThreshold>-9.8652786016464233e-01</stageThreshold>
      <weakClassifiers>
        <_>
          <internalNodes>
            0 -1 22 -5.4832533001899719e-02</internalNodes>
          <leafValues>
            -9.0082645416259766e-01 4.7173309326171875e-01</leafValues></_>
        <_>
          <internalNodes>
            0 -1 50 -9.3371830880641937e-03</internalNodes>
          <leafValues>
            -3.3507347106933594e-01 5.3943830728530884e-01</leafValues></_>
        <_>
          <internalNodes>
            0 -1 55 8.5026640444993973e-03</internalNodes>
          <leafValues>
            -4.5586040616035461e-01 3.7510600686073303e-01</leafValues></_>
        <_>
          <internalNodes>
            0 -1 33 -2.8265980072319508e-03</internalNodes>
          <leafValues>
            2.1256877481937408e-01 -8.4015041589736938e-01</leafValues></_>
        <_>
          <internalNodes>
            0 -1 4 -1.8741779029369354e-02</internalNodes>
          <leafValues>
            3.4066998958587646e-01 -4.5293200016021729e-01</leafValues></_>
        <_>
          <internalNodes>
            0 -1 15 1.0787059552967548e-02</internalNodes>
          <leafValues>
            -5.7211303710937500e-01 2.7165797352790833e-01</leafValues></_>
        <_>
          <internalNodes>
            0 -1 29 2.6747794821858406e-02</internalNodes>
          <leafValues>
            1.7108125984668732e-01 -7.1129524707794189e-01</leafValues></_>
        <_>
          <internalNodes>
            0 -1 49 2.2378360852599144e-02</internalNodes>
          <leafValues>
            -2.9385867714881897e-01 6.1100947856903076e-01</leafValues></_>
        <_>
          <internalNodes>
            0 -1 28 -9.9003374576568604e-02</internalNodes>
          <leafValues>
            -8.5977423191070557e-01 1.8534460663795471e-01</leafValues></_>
        <_>
          <internalNodes>
            0 -1 32 -2.4015426635742188e-02</internalNodes>
          <leafValues>
            -6.2317413091659546e-01 1.6410401463508606e-01</leafValues></_>
        <_>
          <internalNodes>
            0 -1 24 2.2287881001830101e-03</internalNodes>
          <leafValues>
            -3.4554579854011536e-01 3.9349082112312317e-01</leafValues></_>
        <_>
          <internalNodes>
            0 -1 0 -1.5700203180313110e-01</internalNodes>
          <leafValues>
            4.8577660322189331e-01 -2.5969967246055603e-01</leafValues></_></weakClassifiers></_></stages>
  <features>
    <_>
      <rects>
        <_>
          0 0 18 8 -1.</_>
        <_>
          0 4 18 4 2.</_></rects>
      <tilted>0</tilted></_>
    <_>
      <rects>
        <_>
          0 4 4 8 -1.</_>
        <_>
          2 4 2 8 2.</_></rects>
      <tilted>0</tilted></_>
    <_>
      <rects>
        <_>
          0 6 4 9 -1.</_>
        <_>
          2 6 2 9 2.</_></rects>
      <tilted>0</tilted></_>
    <_>
      <rects>
        <_>
          0 8 4 7 -1.</_>
        <_>
          2 8 2 7 2.</_></rects>
      <tilted>0</tilted></_>
    <_>
      <rects>
        <_>
          0 9 4 5 -1.</_>
        <_>
          2 9 2 5 2.</_></rects>
      <tilted>0</tilted></_>
    <_>
      <rects>
        <_>
          1 0 15 6 -1.</_>
        <_>
          1 3 15 3 2.</_></rects>
      <tilted>0</tilted></_>
    <_>
      <rects>
        <_>
          1 2 12 4 -1.</_>
        <_>
          1 4 12 2 2.</_></rects>
      <tilted>0</tilted></_>
    <_>
      <rects>
        <_>
          1 6 15 6 -1.</_>
        <_>
          6 6 5 6 2.</_></rects>
      <tilted>0</tilted></_>
    <_>
      <rects>
        <_>
          1 6 15 7 -1.</_>
        <_>
          6 6 5 7 2.</_></rects>
      <tilted>0</tilted></_>
    <_>
      <rects>
        <_>
          1 9 15 4 -1.</_>
        <_>
          6 9 5 4 2.</_></rects>
      <tilted>0</tilted></_>
    <_>
      <rects>
        <_>
          2 5 5 9 -1.</_>
        <_>
          2 8 5 3 2.</_></rects>
      <tilted>0</tilted></_>
    <_>
      <rects>
        <_>
          2 7 14 5 -1.</_>
        <_>
          9 7 7 5 2.</_></rects>
      <tilted>0</tilted></_>
    <_>
      <rects>
        <_>
          2 8 4 1 -1.</_>
        <_>
          4 8 2 1 2.</_></rects>
      <tilted>0</tilted></_>
    <_>
      <rects>
        <_>
          2 10 2 4 -1.</_>
        <_>
          3 10 1 4 2.</_></rects>
      <tilted>0</tilted></_>
    <_>
      <rects>
        <_>
          3 0 10 4 -1.</_>
        <_>
          3 2 10 2 2.</_></rects>
      <tilted>0</tilted></_>
    <_>
      <rects>
        <_>
          3 6 4 4 -1.</_>
        <_>
          5 6 2 4 2.</_></rects>
      <tilted>0</tilted></_>
    <_>
      <rects>
        <_>
          3 8 4 1 -1.</_>
        <_>
          5 8 2 1 2.</_></rects>
      <tilted>0</tilted></_>
    <_>
      <rects>
        <_>
          3 9 4 2 -1.</_>
        <_>
          5 9 2 2 2.</_></rects>
      <tilted>0</tilted></_>
    <_>
      <rects>
        <_>
          3 10 4 1 -1.</_>
        <_>
          5 10 2 1 2.</_></rects>
      <tilted>0</tilted></_>
    <_>
      <rects>
        <_>
          3 12 12 6 -1.</_>
        <_>
          3 15 12 3 2.</_></rects>
      <tilted>0</tilted></_>
    <_>
      <rects>
        <_>
          4 2 9 4 -1.</_>
        <_>
          4 4 9 2 2.</_></rects>
      <tilted>0</tilted></_>
    <_>
      <rects>
        <_>
          4 3 8 4 -1.</_>
        <_>
          4 5 8 2 2.</_></rects>
      <tilted>0</tilted></_>
    <_>
      <rects>
        <_>
          5 3 6 12 -1.</_>
        <_>
          8 3 3 12 2.</_></rects>
      <tilted>0</tilted></_>
    <_>
      <rects>
        <_>
          5 3 9 12 -1.</_>
        <_>
          5 7 9 4 2.</_></rects>
      <tilted>0</tilted></_>
    <_>
      <rects>
        <_>
          5 4 2 2 -1.</_>
        <_>
          5 5 2 1 2.</_></rects>
      <tilted>0</tilted></_>
    <_>
      <rects>
        <_>
          5 4 8 4 -1.</_>
        <_>
          5 6 8 2 2.</_></rects>
      <tilted>0</tilted></_>
    <_>
      <rects>
        <_>
          5 9 2 4 -1.</_>
        <_>
          5 11 2 2 2.</_></rects>
      <tilted>0</tilted></_>
    <_>
      <rects>
        <_>
          5 10 4 4 -1.</_>
        <_>
          5 12 4 2 2.</_></rects>
      <tilted>0</tilted></_>
    <_>
      <rects>
        <_>
          6 2 5 14 -1.</_>
        <_>
          6 9 5 7 2.</_></rects>
      <tilted>0</tilted></_>
    <_>
      <rects>
        <_>
          6 3 4 12 -1.</_>
        <_>
          6 9 4 6 2.</_></rects>
      <tilted>0</tilted></_>
    <_>
      <rects>
        <_>
          6 5 4 9 -1.</_>
        <_>
          8 5 2 9 2.</_></rects>
      <tilted>0</tilted></_>
    <_>
      <rects>
        <_>
          6 7 10 3 -1.</_>
        <_>
          11 7 5 3 2.</_></rects>
      <tilted>0</tilted></_>
    <_>
      <rects>
        <_>
          6 8 9 1 -1.</_>
        <_>
          9 8 3 1 2.</_></rects>
      <tilted>0</tilted></_>
    <_>
      <rects>
        <_>
          6 10 6 2 -1.</_>
        <_>
          9 10 3 2 2.</_></rects>
      <tilted>0</tilted></_>
    <_>
      <rects>
        <_>
          7 2 3 16 -1.</_>
        <_>
          7 10 3 8 2.</_></rects>
      <tilted>0</tilted></_>
    <_>
      <rects>
        <_>
          7 3 5 4 -1.</_>
        <_>
          7 5 5 2 2.</_></rects>
      <tilted>0</tilted></_>
    <_>
      <rects>
        <_>
          7 11 7 4 -1.</_>
        <_>
          7 13 7 2 2.</_></rects>
      <tilted>0</tilted></_>
    <_>
      <rects>
        <_>
          7 12 4 2 -1.</_>
        <_>
          7 13 4 1 2.</_></rects>
      <tilted>0</tilted></_>
    <_>
      <rects>
        <_>
          8 12 6 6 -1.</_>
        <_>
          8 15 6 3 2.</_></rects>
      <tilted>0</tilted></_>
    <_>
      <rects>
        <_>
          8 12 8 6 -1.</_>
        <_>
          8 15 8 3 2.</_></rects>
      <tilted>0</tilted></_>
    <_>
      <rects>
        <_>
          9 5 3 2 -1.</_>
        <_>
          9 6 3 1 2.</_></rects>
      <tilted>0</tilted></_>
    <_>
      <rects>
        <_>
          9 8 2 4 -1.</_>
        <_>
          9 10 2 2 2.</_></rects>
      <tilted>0</tilted></_>
    <_>
      <rects>
        <_>
          9 8 6 1 -1.</_>
        <_>
          12 8 3 1 2.</_></rects>
      <tilted>0</tilted></_>
    <_>
      <rects>
        <_>
          10 4 4 9 -1.</_>
        <_>
          10 7 4 3 2.</_></rects>
      <tilted>0</tilted></_>
    <_>
      <rects>
        <_>
          10 6 4 7 -1.</_>
        <_>
          12 6 2 7 2.</_></rects>
      <tilted>0</tilted></_>
    <_>
      <rects>
        <_>
          10 8 4 2 -1.</_>
        <_>
          12 8 2 2 2.</_></rects>
      <tilted>0</tilted></_>
    <_>
      <rects>
        <_>
          11 4 3 9 -1.</_>
        <_>
          11 7 3 3 2.</_></rects>
      <tilted>0</tilted></_>
    <_>
      <rects>
        <_>
          11 9 1 4 -1.</_>
        <_>
          11 11 1 2 2.</_></rects>
      <tilted>0</tilted></_>
    <_>
      <rects>
        <_>
          12 9 3 6 -1.</_>
        <_>
          12 12 3 3 2.</_></rects>
      <tilted>0</tilted></_>
    <_>
      <rects>
        <_>
          12 11 3 4 -1.</_>
        <_>
          12 13 3 2 2.</_></rects>
      <tilted>0</tilted></_>
    <_>
      <rects>
        <_>
          13 5 1 9 -1.</_>
        <_>
          13 8 1 3 2.</_></rects>
      <tilted>0</tilted></_>
    <_>
      <rects>
        <_>
          14 0 2 14 -1.</_>
        <_>
          14 7 2 7 2.</_></rects>
      <tilted>0</tilted></_>
    <_>
      <rects>
        <_>
          14 1 4 13 -1.</_>
        <_>
          16 1 2 13 2.</_></rects>
      <tilted>0</tilted></_>
    <_>
      <rects>
        <_>
          14 4 4 10 -1.</_>
        <_>
          16 4 2 10 2.</_></rects>
      <tilted>0</tilted></_>
    <_>
      <rects>
        <_>
          14 8 4 4 -1.</_>
        <_>
          16 8 2 4 2.</_></rects>
      <tilted>0</tilted></_>
    <_>
      <rects>
        <_>
          16 6 2 7 -1.</_>
        <_>
          17 6 1 7 2.</_></rects>
      <tilted>0</tilted></_>
    <_>
      <rects>
        <_>
          16 7 2 5 -1.</_>
        <_>
          17 7 1 5 2.</_></rects>
      <tilted>0</tilted></_></features></cascade>
</opencv_storage>
