<?xml version="1.0"?>
<opencv_storage>
<stage4>
  <maxWeakCount>7</maxWeakCount>
  <stageThreshold>-9.4126224517822266e-01</stageThreshold>
  <weakClassifiers>
    <_>
      <internalNodes>
        0 -1 42464 -6.1794176697731018e-02</internalNodes>
      <leafValues>
        -3.9609643816947937e-01 7.4885547161102295e-01</leafValues></_>
    <_>
      <internalNodes>
        0 -1 51396 6.3839647918939590e-03</internalNodes>
      <leafValues>
        -4.4439619779586792e-01 6.4225560426712036e-01</leafValues></_>
    <_>
      <internalNodes>
        0 -1 27878 -1.0945192538201809e-02</internalNodes>
      <leafValues>
        5.0650173425674438e-01 -5.4240459203720093e-01</leafValues></_>
    <_>
      <internalNodes>
        0 -1 3958 -2.7869962155818939e-02</internalNodes>
      <leafValues>
        5.9387278556823730e-01 -4.0574026107788086e-01</leafValues></_>
    <_>
      <internalNodes>
        0 -1 18965 1.3865774963051081e-03</internalNodes>
      <leafValues>
        -7.5571459531784058e-01 2.6548033952713013e-01</leafValues></_>
    <_>
      <internalNodes>
        0 -1 8686 -2.0267716050148010e-01</internalNodes>
      <leafValues>
        -6.3567864894866943e-01 3.2771366834640503e-01</leafValues></_>
    <_>
      <internalNodes>
        0 -1 40603 -4.5581767335534096e-03</internalNodes>
      <leafValues>
        2.1796058118343353e-01 -8.2630962133407593e-01</leafValues></_></weakClassifiers></stage4>
</opencv_storage>
