<?xml version="1.0"?>
<opencv_storage>
<cascade>
  <stageType>BOOST</stageType>
  <featureType>HAAR</featureType>
  <height>18</height>
  <width>18</width>
  <stageParams>
    <boostType>GAB</boostType>
    <minHitRate>9.9500000476837158e-01</minHitRate>
    <maxFalseAlarm>5.0000000000000000e-01</maxFalseAlarm>
    <weightTrimRate>9.4999999999999996e-01</weightTrimRate>
    <maxDepth>1</maxDepth>
    <maxWeakCount>100</maxWeakCount></stageParams>
  <featureParams>
    <maxCatCount>0</maxCatCount>
    <featSize>1</featSize>
    <mode>BASIC</mode></featureParams>
  <stageNum>9</stageNum>
  <stages>
    <!-- stage 0 -->
    <_>
      <maxWeakCount>2</maxWeakCount>
      <stageThreshold>2.7800466865301132e-02</stageThreshold>
      <weakClassifiers>
        <_>
          <internalNodes>
            0 -1 12 2.1318456158041954e-02</internalNodes>
          <leafValues>
            -7.9677820205688477e-01 9.0583801269531250e-01</leafValues></_>
        <_>
          <internalNodes>
            0 -1 39 -1.0245158337056637e-02</internalNodes>
          <leafValues>
            8.2457864284515381e-01 -8.6448639631271362e-01</leafValues></_></weakClassifiers></_>
    <!-- stage 1 -->
    <_>
      <maxWeakCount>4</maxWeakCount>
      <stageThreshold>-1.3570904731750488e+00</stageThreshold>
      <weakClassifiers>
        <_>
          <internalNodes>
            0 -1 1 -2.5909632444381714e-02</internalNodes>
          <leafValues>
            8.7433153390884399e-01 -5.6194692850112915e-01</leafValues></_>
        <_>
          <internalNodes>
            0 -1 51 6.1794649809598923e-03</internalNodes>
          <leafValues>
            -5.5076456069946289e-01 7.4385434389114380e-01</leafValues></_>
        <_>
          <internalNodes>
            0 -1 26 3.7168387789279222e-03</internalNodes>
          <leafValues>
            -8.1460255384445190e-01 5.1536196470260620e-01</leafValues></_>
        <_>
          <internalNodes>
            0 -1 44 -1.8838762771338224e-03</internalNodes>
          <leafValues>
            4.4594317674636841e-01 -7.5974094867706299e-01</leafValues></_></weakClassifiers></_>
    <!-- stage 2 -->
    <_>
      <maxWeakCount>6</maxWeakCount>
      <stageThreshold>-1.4083942174911499e+00</stageThreshold>
      <weakClassifiers>
        <_>
          <internalNodes>
            0 -1 9 -1.7927972599864006e-02</internalNodes>
          <leafValues>
            -6.6575342416763306e-01 7.7005988359451294e-01</leafValues></_>
        <_>
          <internalNodes>
            0 -1 22 -2.0101484656333923e-01</internalNodes>
          <leafValues>
            -4.8427167534828186e-01 7.3738652467727661e-01</leafValues></_>
        <_>
          <internalNodes>
            0 -1 47 2.4453438818454742e-03</internalNodes>
          <leafValues>
            -6.2308609485626221e-01 5.2369987964630127e-01</leafValues></_>
        <_>
          <internalNodes>
            0 -1 31 8.2268584519624710e-03</internalNodes>
          <leafValues>
            -3.7932828068733215e-01 8.0382353067398071e-01</leafValues></_>
        <_>
          <internalNodes>
            0 -1 10 8.1000015139579773e-02</internalNodes>
          <leafValues>
            -3.2811459898948669e-01 8.7980008125305176e-01</leafValues></_>
        <_>
          <internalNodes>
            0 -1 41 7.2554633952677250e-03</internalNodes>
          <leafValues>
            -3.6365345120429993e-01 7.4709385633468628e-01</leafValues></_></weakClassifiers></_>
    <!-- stage 3 -->
    <_>
      <maxWeakCount>3</maxWeakCount>
      <stageThreshold>-9.7847241163253784e-01</stageThreshold>
      <weakClassifiers>
        <_>
          <internalNodes>
            0 -1 34 -1.6213476657867432e-01</internalNodes>
          <leafValues>
            -9.2706871032714844e-01 8.6603438854217529e-01</leafValues></_>
        <_>
          <internalNodes>
            0 -1 30 -1.7932537198066711e-01</internalNodes>
          <leafValues>
            -6.3035899400711060e-01 6.9897598028182983e-01</leafValues></_>
        <_>
          <internalNodes>
            0 -1 4 -1.9752141088247299e-02</internalNodes>
          <leafValues>
            5.7895529270172119e-01 -6.2028759717941284e-01</leafValues></_></weakClassifiers></_>
    <!-- stage 4 -->
    <_>
      <maxWeakCount>4</maxWeakCount>
      <stageThreshold>-6.0693097114562988e-01</stageThreshold>
      <weakClassifiers>
        <_>
          <internalNodes>
            0 -1 8 -2.2341223061084747e-01</internalNodes>
          <leafValues>
            -8.1657850742340088e-01 6.8903434276580811e-01</leafValues></_>
        <_>
          <internalNodes>
            0 -1 27 -1.8907243385910988e-02</internalNodes>
          <leafValues>
            5.7969927787780762e-01 -6.3420486450195313e-01</leafValues></_>
        <_>
          <internalNodes>
            0 -1 49 8.7406020611524582e-03</internalNodes>
          <leafValues>
            -6.3425326347351074e-01 5.0914949178695679e-01</leafValues></_>
        <_>
          <internalNodes>
            0 -1 23 5.9158675139769912e-04</internalNodes>
          <leafValues>
            -8.1437629461288452e-01 3.3470287919044495e-01</leafValues></_></weakClassifiers></_>
    <!-- stage 5 -->
    <_>
      <maxWeakCount>6</maxWeakCount>
      <stageThreshold>-6.9779819250106812e-01</stageThreshold>
      <weakClassifiers>
        <_>
          <internalNodes>
            0 -1 19 -4.1226968169212341e-03</internalNodes>
          <leafValues>
            6.4039957523345947e-01 -5.9197324514389038e-01</leafValues></_>
        <_>
          <internalNodes>
            0 -1 7 -8.7799906730651855e-02</internalNodes>
          <leafValues>
            7.4758404493331909e-01 -3.9296987652778625e-01</leafValues></_>
        <_>
          <internalNodes>
            0 -1 45 -2.1806117147207260e-03</internalNodes>
          <leafValues>
            3.3332896232604980e-01 -8.2715111970901489e-01</leafValues></_>
        <_>
          <internalNodes>
            0 -1 21 -1.0519951581954956e-01</internalNodes>
          <leafValues>
            -7.9794448614120483e-01 2.6217734813690186e-01</leafValues></_>
        <_>
          <internalNodes>
            0 -1 3 -5.2361279726028442e-02</internalNodes>
          <leafValues>
            4.9637162685394287e-01 -4.5977553725242615e-01</leafValues></_>
        <_>
          <internalNodes>
            0 -1 16 4.2462456622160971e-04</internalNodes>
          <leafValues>
            -7.3027932643890381e-01 2.5538885593414307e-01</leafValues></_></weakClassifiers></_>
    <!-- stage 6 -->
    <_>
      <maxWeakCount>8</maxWeakCount>
      <stageThreshold>-8.3107936382293701e-01</stageThreshold>
      <weakClassifiers>
        <_>
          <internalNodes>
            0 -1 18 -2.6886727660894394e-02</internalNodes>
          <leafValues>
            -4.5374450087547302e-01 6.4514249563217163e-01</leafValues></_>
        <_>
          <internalNodes>
            0 -1 50 6.3642030581831932e-03</internalNodes>
          <leafValues>
            -5.8459985256195068e-01 5.1261276006698608e-01</leafValues></_>
        <_>
          <internalNodes>
            0 -1 14 8.5000649094581604e-02</internalNodes>
          <leafValues>
            -3.8480871915817261e-01 5.9741812944412231e-01</leafValues></_>
        <_>
          <internalNodes>
            0 -1 46 -8.1611908972263336e-03</internalNodes>
          <leafValues>
            3.9554801583290100e-01 -6.2930953502655029e-01</leafValues></_>
        <_>
          <internalNodes>
            0 -1 25 4.4027349213138223e-04</internalNodes>
          <leafValues>
            -9.0022659301757813e-01 2.3597635328769684e-01</leafValues></_>
        <_>
          <internalNodes>
            0 -1 17 2.0477906218729913e-04</internalNodes>
          <leafValues>
            -8.2683587074279785e-01 1.8872305750846863e-01</leafValues></_>
        <_>
          <internalNodes>
            0 -1 33 9.8041212186217308e-03</internalNodes>
          <leafValues>
            -3.5795766115188599e-01 5.9096407890319824e-01</leafValues></_>
        <_>
          <internalNodes>
            0 -1 29 -1.1064144968986511e-01</internalNodes>
          <leafValues>
            -7.2047698497772217e-01 2.3905175924301147e-01</leafValues></_></weakClassifiers></_>
    <!-- stage 7 -->
    <_>
      <maxWeakCount>9</maxWeakCount>
      <stageThreshold>-8.4506356716156006e-01</stageThreshold>
      <weakClassifiers>
        <_>
          <internalNodes>
            0 -1 0 -3.1069163233041763e-02</internalNodes>
          <leafValues>
            6.6216218471527100e-01 -3.6010363698005676e-01</leafValues></_>
        <_>
          <internalNodes>
            0 -1 38 -4.3324038386344910e-02</internalNodes>
          <leafValues>
            -5.1429569721221924e-01 4.6316260099411011e-01</leafValues></_>
        <_>
          <internalNodes>
            0 -1 28 1.8093475955538452e-04</internalNodes>
          <leafValues>
            -9.1573005914688110e-01 2.1417127549648285e-01</leafValues></_>
        <_>
          <internalNodes>
            0 -1 5 -8.1659510731697083e-02</internalNodes>
          <leafValues>
            5.2266913652420044e-01 -3.9408430457115173e-01</leafValues></_>
        <_>
          <internalNodes>
            0 -1 36 -3.0351562425494194e-02</internalNodes>
          <leafValues>
            6.6356933116912842e-01 -2.7456349134445190e-01</leafValues></_>
        <_>
          <internalNodes>
            0 -1 6 8.8243126869201660e-02</internalNodes>
          <leafValues>
            -2.8416725993156433e-01 6.7775243520736694e-01</leafValues></_>
        <_>
          <internalNodes>
            0 -1 24 -6.1160104814916849e-04</internalNodes>
          <leafValues>
            3.1559392809867859e-01 -6.6392338275909424e-01</leafValues></_>
        <_>
          <internalNodes>
            0 -1 40 -6.4051616936922073e-04</internalNodes>
          <leafValues>
            2.2933448851108551e-01 -6.5508610010147095e-01</leafValues></_>
        <_>
          <internalNodes>
            0 -1 48 2.3803524672985077e-03</internalNodes>
          <leafValues>
            -5.4125934839248657e-01 2.9514658451080322e-01</leafValues></_></weakClassifiers></_>
    <!-- stage 8 -->
    <_>
      <maxWeakCount>11</maxWeakCount>
      <stageThreshold>-1.1567834615707397e+00</stageThreshold>
      <weakClassifiers>
        <_>
          <internalNodes>
            0 -1 37 -9.3277613632380962e-04</internalNodes>
          <leafValues>
            -7.1505373716354370e-01 5.2564102411270142e-01</leafValues></_>
        <_>
          <internalNodes>
            0 -1 2 -1.1229395866394043e-02</internalNodes>
          <leafValues>
            4.9531337618827820e-01 -4.6663513779640198e-01</leafValues></_>
        <_>
          <internalNodes>
            0 -1 20 2.6923332363367081e-02</internalNodes>
          <leafValues>
            -3.4215486049652100e-01 5.2280324697494507e-01</leafValues></_>
        <_>
          <internalNodes>
            0 -1 42 -3.6585442721843719e-03</internalNodes>
          <leafValues>
            1.7758101224899292e-01 -8.2697176933288574e-01</leafValues></_>
        <_>
          <internalNodes>
            0 -1 13 -5.7164154946804047e-02</internalNodes>
          <leafValues>
            -3.5026770830154419e-01 4.4698727130889893e-01</leafValues></_>
        <_>
          <internalNodes>
            0 -1 43 8.5688114631921053e-04</internalNodes>
          <leafValues>
            -4.8887249827384949e-01 3.1197834014892578e-01</leafValues></_>
        <_>
          <internalNodes>
            0 -1 35 2.5617646315367892e-05</internalNodes>
          <leafValues>
            -7.0590555667877197e-01 1.5157888829708099e-01</leafValues></_>
        <_>
          <internalNodes>
            0 -1 52 5.6823822669684887e-03</internalNodes>
          <leafValues>
            -5.0491118431091309e-01 2.3748393356800079e-01</leafValues></_>
        <_>
          <internalNodes>
            0 -1 32 4.5609444379806519e-02</internalNodes>
          <leafValues>
            1.3729049265384674e-01 -8.4607452154159546e-01</leafValues></_>
        <_>
          <internalNodes>
            0 -1 15 8.2074694335460663e-02</internalNodes>
          <leafValues>
            1.2838728725910187e-01 -8.3411437273025513e-01</leafValues></_>
        <_>
          <internalNodes>
            0 -1 11 -1.0910397768020630e-01</internalNodes>
          <leafValues>
            -8.6350464820861816e-01 1.1654908955097198e-01</leafValues></_></weakClassifiers></_></stages>
  <features>
    <_>
      <rects>
        <_>
          0 4 4 9 -1.</_>
        <_>
          2 4 2 9 2.</_></rects>
      <tilted>0</tilted></_>
    <_>
      <rects>
        <_>
          0 4 4 10 -1.</_>
        <_>
          2 4 2 10 2.</_></rects>
      <tilted>0</tilted></_>
    <_>
      <rects>
        <_>
          0 5 2 8 -1.</_>
        <_>
          1 5 1 8 2.</_></rects>
      <tilted>0</tilted></_>
    <_>
      <rects>
        <_>
          0 5 4 11 -1.</_>
        <_>
          2 5 2 11 2.</_></rects>
      <tilted>0</tilted></_>
    <_>
      <rects>
        <_>
          0 8 4 6 -1.</_>
        <_>
          2 8 2 6 2.</_></rects>
      <tilted>0</tilted></_>
    <_>
      <rects>
        <_>
          1 0 15 6 -1.</_>
        <_>
          1 3 15 3 2.</_></rects>
      <tilted>0</tilted></_>
    <_>
      <rects>
        <_>
          1 10 16 6 -1.</_>
        <_>
          1 13 16 3 2.</_></rects>
      <tilted>0</tilted></_>
    <_>
      <rects>
        <_>
          2 0 15 6 -1.</_>
        <_>
          2 3 15 3 2.</_></rects>
      <tilted>0</tilted></_>
    <_>
      <rects>
        <_>
          2 5 15 8 -1.</_>
        <_>
          7 5 5 8 2.</_></rects>
      <tilted>0</tilted></_>
    <_>
      <rects>
        <_>
          2 10 15 1 -1.</_>
        <_>
          7 10 5 1 2.</_></rects>
      <tilted>0</tilted></_>
    <_>
      <rects>
        <_>
          2 11 14 6 -1.</_>
        <_>
          2 14 14 3 2.</_></rects>
      <tilted>0</tilted></_>
    <_>
      <rects>
        <_>
          3 5 14 9 -1.</_>
        <_>
          10 5 7 9 2.</_></rects>
      <tilted>0</tilted></_>
    <_>
      <rects>
        <_>
          3 6 6 5 -1.</_>
        <_>
          6 6 3 5 2.</_></rects>
      <tilted>0</tilted></_>
    <_>
      <rects>
        <_>
          3 6 12 6 -1.</_>
        <_>
          7 6 4 6 2.</_></rects>
      <tilted>0</tilted></_>
    <_>
      <rects>
        <_>
          3 12 14 6 -1.</_>
        <_>
          3 15 14 3 2.</_></rects>
      <tilted>0</tilted></_>
    <_>
      <rects>
        <_>
          4 6 12 7 -1.</_>
        <_>
          10 6 6 7 2.</_></rects>
      <tilted>0</tilted></_>
    <_>
      <rects>
        <_>
          4 8 2 1 -1.</_>
        <_>
          5 8 1 1 2.</_></rects>
      <tilted>0</tilted></_>
    <_>
      <rects>
        <_>
          4 9 2 1 -1.</_>
        <_>
          5 9 1 1 2.</_></rects>
      <tilted>0</tilted></_>
    <_>
      <rects>
        <_>
          4 10 12 2 -1.</_>
        <_>
          8 10 4 2 2.</_></rects>
      <tilted>0</tilted></_>
    <_>
      <rects>
        <_>
          4 10 9 2 -1.</_>
        <_>
          4 11 9 1 2.</_></rects>
      <tilted>0</tilted></_>
    <_>
      <rects>
        <_>
          4 14 10 4 -1.</_>
        <_>
          4 16 10 2 2.</_></rects>
      <tilted>0</tilted></_>
    <_>
      <rects>
        <_>
          5 3 9 4 -1.</_>
        <_>
          8 3 3 4 2.</_></rects>
      <tilted>0</tilted></_>
    <_>
      <rects>
        <_>
          5 3 8 12 -1.</_>
        <_>
          5 7 8 4 2.</_></rects>
      <tilted>0</tilted></_>
    <_>
      <rects>
        <_>
          5 8 2 1 -1.</_>
        <_>
          6 8 1 1 2.</_></rects>
      <tilted>0</tilted></_>
    <_>
      <rects>
        <_>
          5 8 1 4 -1.</_>
        <_>
          5 10 1 2 2.</_></rects>
      <tilted>0</tilted></_>
    <_>
      <rects>
        <_>
          5 9 2 1 -1.</_>
        <_>
          6 9 1 1 2.</_></rects>
      <tilted>0</tilted></_>
    <_>
      <rects>
        <_>
          5 10 4 2 -1.</_>
        <_>
          7 10 2 2 2.</_></rects>
      <tilted>0</tilted></_>
    <_>
      <rects>
        <_>
          6 9 7 4 -1.</_>
        <_>
          6 11 7 2 2.</_></rects>
      <tilted>0</tilted></_>
    <_>
      <rects>
        <_>
          6 10 2 1 -1.</_>
        <_>
          7 10 1 1 2.</_></rects>
      <tilted>0</tilted></_>
    <_>
      <rects>
        <_>
          6 11 6 6 -1.</_>
        <_>
          8 11 2 6 2.</_></rects>
      <tilted>0</tilted></_>
    <_>
      <rects>
        <_>
          7 3 6 12 -1.</_>
        <_>
          7 7 6 4 2.</_></rects>
      <tilted>0</tilted></_>
    <_>
      <rects>
        <_>
          7 4 6 2 -1.</_>
        <_>
          7 5 6 1 2.</_></rects>
      <tilted>0</tilted></_>
    <_>
      <rects>
        <_>
          7 4 6 10 -1.</_>
        <_>
          7 9 6 5 2.</_></rects>
      <tilted>0</tilted></_>
    <_>
      <rects>
        <_>
          7 5 6 2 -1.</_>
        <_>
          7 6 6 1 2.</_></rects>
      <tilted>0</tilted></_>
    <_>
      <rects>
        <_>
          7 7 9 6 -1.</_>
        <_>
          10 7 3 6 2.</_></rects>
      <tilted>0</tilted></_>
    <_>
      <rects>
        <_>
          7 11 2 1 -1.</_>
        <_>
          8 11 1 1 2.</_></rects>
      <tilted>0</tilted></_>
    <_>
      <rects>
        <_>
          8 2 10 4 -1.</_>
        <_>
          8 2 5 2 2.</_>
        <_>
          13 4 5 2 2.</_></rects>
      <tilted>0</tilted></_>
    <_>
      <rects>
        <_>
          8 10 2 3 -1.</_>
        <_>
          9 10 1 3 2.</_></rects>
      <tilted>0</tilted></_>
    <_>
      <rects>
        <_>
          11 3 2 12 -1.</_>
        <_>
          11 7 2 4 2.</_></rects>
      <tilted>0</tilted></_>
    <_>
      <rects>
        <_>
          11 7 4 4 -1.</_>
        <_>
          13 7 2 4 2.</_></rects>
      <tilted>0</tilted></_>
    <_>
      <rects>
        <_>
          11 10 1 2 -1.</_>
        <_>
          11 11 1 1 2.</_></rects>
      <tilted>0</tilted></_>
    <_>
      <rects>
        <_>
          12 5 2 4 -1.</_>
        <_>
          12 7 2 2 2.</_></rects>
      <tilted>0</tilted></_>
    <_>
      <rects>
        <_>
          12 6 2 5 -1.</_>
        <_>
          13 6 1 5 2.</_></rects>
      <tilted>0</tilted></_>
    <_>
      <rects>
        <_>
          12 6 2 2 -1.</_>
        <_>
          12 7 2 1 2.</_></rects>
      <tilted>0</tilted></_>
    <_>
      <rects>
        <_>
          12 7 2 2 -1.</_>
        <_>
          13 7 1 2 2.</_></rects>
      <tilted>0</tilted></_>
    <_>
      <rects>
        <_>
          12 8 2 3 -1.</_>
        <_>
          13 8 1 3 2.</_></rects>
      <tilted>0</tilted></_>
    <_>
      <rects>
        <_>
          12 8 4 2 -1.</_>
        <_>
          14 8 2 2 2.</_></rects>
      <tilted>0</tilted></_>
    <_>
      <rects>
        <_>
          15 5 2 5 -1.</_>
        <_>
          16 5 1 5 2.</_></rects>
      <tilted>0</tilted></_>
    <_>
      <rects>
        <_>
          15 6 2 4 -1.</_>
        <_>
          16 6 1 4 2.</_></rects>
      <tilted>0</tilted></_>
    <_>
      <rects>
        <_>
          16 2 2 13 -1.</_>
        <_>
          17 2 1 13 2.</_></rects>
      <tilted>0</tilted></_>
    <_>
      <rects>
        <_>
          16 4 2 7 -1.</_>
        <_>
          17 4 1 7 2.</_></rects>
      <tilted>0</tilted></_>
    <_>
      <rects>
        <_>
          16 4 2 9 -1.</_>
        <_>
          17 4 1 9 2.</_></rects>
      <tilted>0</tilted></_>
    <_>
      <rects>
        <_>
          16 6 2 11 -1.</_>
        <_>
          17 6 1 11 2.</_></rects>
      <tilted>0</tilted></_></features></cascade>
</opencv_storage>
