<?xml version="1.0"?>
<opencv_storage>
<stage5>
  <maxWeakCount>6</maxWeakCount>
  <stageThreshold>-6.9779819250106812e-01</stageThreshold>
  <weakClassifiers>
    <_>
      <internalNodes>
        0 -1 23969 -4.1226968169212341e-03</internalNodes>
      <leafValues>
        6.4039957523345947e-01 -5.9197324514389038e-01</leafValues></_>
    <_>
      <internalNodes>
        0 -1 11305 -8.7799906730651855e-02</internalNodes>
      <leafValues>
        7.4758404493331909e-01 -3.9296987652778625e-01</leafValues></_>
    <_>
      <internalNodes>
        0 -1 47120 -2.1806117147207260e-03</internalNodes>
      <leafValues>
        3.3332896232604980e-01 -8.2715111970901489e-01</leafValues></_>
    <_>
      <internalNodes>
        0 -1 25971 -1.0519951581954956e-01</internalNodes>
      <leafValues>
        -7.9794448614120483e-01 2.6217734813690186e-01</leafValues></_>
    <_>
      <internalNodes>
        0 -1 2781 -5.2361279726028442e-02</internalNodes>
      <leafValues>
        4.9637162685394287e-01 -4.5977553725242615e-01</leafValues></_>
    <_>
      <internalNodes>
        0 -1 23323 4.2462456622160971e-04</internalNodes>
      <leafValues>
        -7.3027932643890381e-01 2.5538885593414307e-01</leafValues></_></weakClassifiers></stage5>
</opencv_storage>
