<?xml version="1.0"?>
<opencv_storage>
<stage7>
  <maxWeakCount>9</maxWeakCount>
  <stageThreshold>-8.4506356716156006e-01</stageThreshold>
  <weakClassifiers>
    <_>
      <internalNodes>
        0 -1 2312 -3.1069163233041763e-02</internalNodes>
      <leafValues>
        6.6216218471527100e-01 -3.6010363698005676e-01</leafValues></_>
    <_>
      <internalNodes>
        0 -1 44472 -4.3324038386344910e-02</internalNodes>
      <leafValues>
        -5.1429569721221924e-01 4.6316260099411011e-01</leafValues></_>
    <_>
      <internalNodes>
        0 -1 31599 1.8093475955538452e-04</internalNodes>
      <leafValues>
        -9.1573005914688110e-01 2.1417127549648285e-01</leafValues></_>
    <_>
      <internalNodes>
        0 -1 6190 -8.1659510731697083e-02</internalNodes>
      <leafValues>
        5.2266913652420044e-01 -3.9408430457115173e-01</leafValues></_>
    <_>
      <internalNodes>
        0 -1 36428 -3.0351562425494194e-02</internalNodes>
      <leafValues>
        6.6356933116912842e-01 -2.7456349134445190e-01</leafValues></_>
    <_>
      <internalNodes>
        0 -1 9994 8.8243126869201660e-02</internalNodes>
      <leafValues>
        -2.8416725993156433e-01 6.7775243520736694e-01</leafValues></_>
    <_>
      <internalNodes>
        0 -1 27361 -6.1160104814916849e-04</internalNodes>
      <leafValues>
        3.1559392809867859e-01 -6.6392338275909424e-01</leafValues></_>
    <_>
      <internalNodes>
        0 -1 45408 -6.4051616936922073e-04</internalNodes>
      <leafValues>
        2.2933448851108551e-01 -6.5508610010147095e-01</leafValues></_>
    <_>
      <internalNodes>
        0 -1 50706 2.3803524672985077e-03</internalNodes>
      <leafValues>
        -5.4125934839248657e-01 2.9514658451080322e-01</leafValues></_></weakClassifiers></stage7>
</opencv_storage>
