<?xml version="1.0"?>
<opencv_storage>
<stage7>
  <maxWeakCount>8</maxWeakCount>
  <stageThreshold>-7.4936038255691528e-01</stageThreshold>
  <weakClassifiers>
    <_>
      <internalNodes>
        0 -1 23333 1.3115556212142110e-03</internalNodes>
      <leafValues>
        -5.3988867998123169e-01 5.8624392747879028e-01</leafValues></_>
    <_>
      <internalNodes>
        0 -1 17135 -5.7241164147853851e-02</internalNodes>
      <leafValues>
        5.0899320840835571e-01 -4.9314057826995850e-01</leafValues></_>
    <_>
      <internalNodes>
        0 -1 45545 -4.8698494210839272e-03</internalNodes>
      <leafValues>
        6.0529601573944092e-01 -4.1778632998466492e-01</leafValues></_>
    <_>
      <internalNodes>
        0 -1 4572 -9.7124129533767700e-03</internalNodes>
      <leafValues>
        4.2015996575355530e-01 -4.3769463896751404e-01</leafValues></_>
    <_>
      <internalNodes>
        0 -1 23669 -3.3686734735965729e-02</internalNodes>
      <leafValues>
        -7.6588696241378784e-01 1.9679743051528931e-01</leafValues></_>
    <_>
      <internalNodes>
        0 -1 38056 -4.8543163575232029e-04</internalNodes>
      <leafValues>
        1.8049961328506470e-01 -7.8219085931777954e-01</leafValues></_>
    <_>
      <internalNodes>
        0 -1 37717 1.3218999374657869e-03</internalNodes>
      <leafValues>
        1.9153529405593872e-01 -7.1608722209930420e-01</leafValues></_>
    <_>
      <internalNodes>
        0 -1 48448 -3.4533310681581497e-03</internalNodes>
      <leafValues>
        5.8064210414886475e-01 -3.1792843341827393e-01</leafValues></_></weakClassifiers></stage7>
</opencv_storage>
