<?xml version="1.0"?>
<opencv_storage>
<stage8>
  <maxWeakCount>12</maxWeakCount>
  <stageThreshold>-1.1227871179580688e+00</stageThreshold>
  <weakClassifiers>
    <_>
      <internalNodes>
        0 -1 30678 9.4941607676446438e-04</internalNodes>
      <leafValues>
        -6.4423078298568726e-01 5.3830647468566895e-01</leafValues></_>
    <_>
      <internalNodes>
        0 -1 24507 1.5812341123819351e-02</internalNodes>
      <leafValues>
        -4.3457758426666260e-01 4.3124485015869141e-01</leafValues></_>
    <_>
      <internalNodes>
        0 -1 27977 -4.2685252265073359e-04</internalNodes>
      <leafValues>
        3.8751813769340515e-01 -4.7854956984519958e-01</leafValues></_>
    <_>
      <internalNodes>
        0 -1 16694 -1.5242743492126465e-01</internalNodes>
      <leafValues>
        5.2283358573913574e-01 -3.6286109685897827e-01</leafValues></_>
    <_>
      <internalNodes>
        0 -1 27463 -7.3976763524115086e-03</internalNodes>
      <leafValues>
        -7.4314004182815552e-01 2.0395781099796295e-01</leafValues></_>
    <_>
      <internalNodes>
        0 -1 50008 -4.9819387495517731e-03</internalNodes>
      <leafValues>
        5.3344756364822388e-01 -2.9059085249900818e-01</leafValues></_>
    <_>
      <internalNodes>
        0 -1 49914 1.7783541232347488e-02</internalNodes>
      <leafValues>
        -3.0174994468688965e-01 4.9643599987030029e-01</leafValues></_>
    <_>
      <internalNodes>
        0 -1 42688 -1.4364620670676231e-02</internalNodes>
      <leafValues>
        1.6608004271984100e-01 -6.9485223293304443e-01</leafValues></_>
    <_>
      <internalNodes>
        0 -1 27589 1.7121016571763903e-04</internalNodes>
      <leafValues>
        -7.2834968566894531e-01 1.6946247220039368e-01</leafValues></_>
    <_>
      <internalNodes>
        0 -1 37068 -3.1426381319761276e-02</internalNodes>
      <leafValues>
        -8.4357672929763794e-01 1.4576300978660583e-01</leafValues></_>
    <_>
      <internalNodes>
        0 -1 13921 -6.4321327954530716e-03</internalNodes>
      <leafValues>
        3.9536052942276001e-01 -3.3286678791046143e-01</leafValues></_>
    <_>
      <internalNodes>
        0 -1 34170 -1.4071946498006582e-03</internalNodes>
      <leafValues>
        -8.6906808614730835e-01 1.4748324453830719e-01</leafValues></_></weakClassifiers></stage8>
</opencv_storage>
