<?xml version="1.0"?>
<opencv_storage>
<stage6>
  <maxWeakCount>9</maxWeakCount>
  <stageThreshold>-9.1381722688674927e-01</stageThreshold>
  <weakClassifiers>
    <_>
      <internalNodes>
        0 -1 26376 -3.7773162126541138e-02</internalNodes>
      <leafValues>
        -7.4316942691802979e-01 5.2704030275344849e-01</leafValues></_>
    <_>
      <internalNodes>
        0 -1 44917 -5.3883846849203110e-03</internalNodes>
      <leafValues>
        3.5406041145324707e-01 -5.5634528398513794e-01</leafValues></_>
    <_>
      <internalNodes>
        0 -1 30489 1.6151333227753639e-02</internalNodes>
      <leafValues>
        2.2099207341670990e-01 -8.8403189182281494e-01</leafValues></_>
    <_>
      <internalNodes>
        0 -1 24647 1.5833692625164986e-02</internalNodes>
      <leafValues>
        -3.1499406695365906e-01 6.0221683979034424e-01</leafValues></_>
    <_>
      <internalNodes>
        0 -1 18180 -9.1162417083978653e-03</internalNodes>
      <leafValues>
        2.1936975419521332e-01 -8.0858689546585083e-01</leafValues></_>
    <_>
      <internalNodes>
        0 -1 33739 -5.2508004009723663e-02</internalNodes>
      <leafValues>
        -8.4633702039718628e-01 1.7303802073001862e-01</leafValues></_>
    <_>
      <internalNodes>
        0 -1 27398 1.4553394168615341e-02</internalNodes>
      <leafValues>
        1.2853537499904633e-01 -9.1542857885360718e-01</leafValues></_>
    <_>
      <internalNodes>
        0 -1 23408 -5.4012588225305080e-03</internalNodes>
      <leafValues>
        -8.3202141523361206e-01 1.1987344175577164e-01</leafValues></_>
    <_>
      <internalNodes>
        0 -1 45225 -4.4487062841653824e-02</internalNodes>
      <leafValues>
        -4.1195183992385864e-01 3.4674665331840515e-01</leafValues></_></weakClassifiers></stage6>
</opencv_storage>
