<?xml version="1.0"?>
<opencv_storage>
<stage8>
  <maxWeakCount>11</maxWeakCount>
  <stageThreshold>-9.2053997516632080e-01</stageThreshold>
  <weakClassifiers>
    <_>
      <internalNodes>
        0 -1 33525 1.4038873836398125e-02</internalNodes>
      <leafValues>
        -2.2157092392444611e-01 6.3930189609527588e-01</leafValues></_>
    <_>
      <internalNodes>
        0 -1 49674 5.5419906973838806e-02</internalNodes>
      <leafValues>
        -2.3774246871471405e-01 6.0343372821807861e-01</leafValues></_>
    <_>
      <internalNodes>
        0 -1 45364 -4.6675326302647591e-03</internalNodes>
      <leafValues>
        2.7796739339828491e-01 -5.8822119235992432e-01</leafValues></_>
    <_>
      <internalNodes>
        0 -1 3943 -2.2079367190599442e-02</internalNodes>
      <leafValues>
        4.6390974521636963e-01 -3.2207366824150085e-01</leafValues></_>
    <_>
      <internalNodes>
        0 -1 31190 -2.1258785855025053e-03</internalNodes>
      <leafValues>
        -9.5264101028442383e-01 1.2675549089908600e-01</leafValues></_>
    <_>
      <internalNodes>
        0 -1 12609 8.6755231022834778e-02</internalNodes>
      <leafValues>
        1.8348523974418640e-01 -6.6891402006149292e-01</leafValues></_>
    <_>
      <internalNodes>
        0 -1 13724 -2.1245315670967102e-01</internalNodes>
      <leafValues>
        -8.4053725004196167e-01 1.0756423324346542e-01</leafValues></_>
    <_>
      <internalNodes>
        0 -1 32243 1.6617789864540100e-02</internalNodes>
      <leafValues>
        -4.5811712741851807e-01 2.4883380532264709e-01</leafValues></_>
    <_>
      <internalNodes>
        0 -1 36428 -4.6148650348186493e-02</internalNodes>
      <leafValues>
        6.9036549329757690e-01 -1.8468427658081055e-01</leafValues></_>
    <_>
      <internalNodes>
        0 -1 33229 -2.9622809961438179e-02</internalNodes>
      <leafValues>
        6.9809687137603760e-01 -1.9735203683376312e-01</leafValues></_>
    <_>
      <internalNodes>
        0 -1 42364 -1.1040361598134041e-02</internalNodes>
      <leafValues>
        -9.2764067649841309e-01 1.5599223971366882e-01</leafValues></_></weakClassifiers></stage8>
</opencv_storage>
