<?xml version="1.0"?>
<opencv_storage>
<stage7>
  <maxWeakCount>12</maxWeakCount>
  <stageThreshold>-1.0101883411407471e+00</stageThreshold>
  <weakClassifiers>
    <_>
      <internalNodes>
        0 -1 22970 -4.3979473412036896e-02</internalNodes>
      <leafValues>
        5.7460659742355347e-01 -4.6499103307723999e-01</leafValues></_>
    <_>
      <internalNodes>
        0 -1 32651 -4.4787704944610596e-02</internalNodes>
      <leafValues>
        6.3846611976623535e-01 -2.7482715249061584e-01</leafValues></_>
    <_>
      <internalNodes>
        0 -1 27240 -2.0481610298156738e-01</internalNodes>
      <leafValues>
        -8.9321494102478027e-01 2.1267011761665344e-01</leafValues></_>
    <_>
      <internalNodes>
        0 -1 41286 1.2026421725749969e-02</internalNodes>
      <leafValues>
        -4.4005036354064941e-01 3.6689653992652893e-01</leafValues></_>
    <_>
      <internalNodes>
        0 -1 43044 -1.3820227468386292e-03</internalNodes>
      <leafValues>
        1.6021800041198730e-01 -7.7366453409194946e-01</leafValues></_>
    <_>
      <internalNodes>
        0 -1 49835 2.9740277677774429e-02</internalNodes>
      <leafValues>
        -3.1162169575691223e-01 4.9781411886215210e-01</leafValues></_>
    <_>
      <internalNodes>
        0 -1 34393 -2.0135836675763130e-03</internalNodes>
      <leafValues>
        -8.8239735364913940e-01 1.1970546096563339e-01</leafValues></_>
    <_>
      <internalNodes>
        0 -1 19251 2.5350046344101429e-03</internalNodes>
      <leafValues>
        -3.9371940493583679e-01 3.2438215613365173e-01</leafValues></_>
    <_>
      <internalNodes>
        0 -1 43092 -4.4890210032463074e-02</internalNodes>
      <leafValues>
        -3.4458634257316589e-01 4.5798707008361816e-01</leafValues></_>
    <_>
      <internalNodes>
        0 -1 22751 1.9477654714137316e-03</internalNodes>
      <leafValues>
        -3.7103334069252014e-01 3.3129239082336426e-01</leafValues></_>
    <_>
      <internalNodes>
        0 -1 5386 -1.7326800152659416e-02</internalNodes>
      <leafValues>
        2.9173648357391357e-01 -4.7273513674736023e-01</leafValues></_>
    <_>
      <internalNodes>
        0 -1 37937 -8.3238948136568069e-03</internalNodes>
      <leafValues>
        -8.5182887315750122e-01 1.2779736518859863e-01</leafValues></_></weakClassifiers></stage7>
</opencv_storage>
