<?xml version="1.0"?>
<opencv_storage>
<cascade>
  <stageType>BOOST</stageType>
  <featureType>HAAR</featureType>
  <height>18</height>
  <width>18</width>
  <stageParams>
    <boostType>GAB</boostType>
    <minHitRate>9.9500000476837158e-01</minHitRate>
    <maxFalseAlarm>5.0000000000000000e-01</maxFalseAlarm>
    <weightTrimRate>9.4999999999999996e-01</weightTrimRate>
    <maxDepth>1</maxDepth>
    <maxWeakCount>100</maxWeakCount></stageParams>
  <featureParams>
    <maxCatCount>0</maxCatCount>
    <featSize>1</featSize>
    <mode>BASIC</mode></featureParams>
  <stageNum>6</stageNum>
  <stages>
    <!-- stage 0 -->
    <_>
      <maxWeakCount>3</maxWeakCount>
      <stageThreshold>-8.5544067621231079e-01</stageThreshold>
      <weakClassifiers>
        <_>
          <internalNodes>
            0 -1 6 1.8865834921598434e-02</internalNodes>
          <leafValues>
            -8.0587482452392578e-01 8.8497215509414673e-01</leafValues></_>
        <_>
          <internalNodes>
            0 -1 18 -1.8969050142914057e-03</internalNodes>
          <leafValues>
            7.8598278760910034e-01 -8.7520647048950195e-01</leafValues></_>
        <_>
          <internalNodes>
            0 -1 0 -1.5140945091843605e-02</internalNodes>
          <leafValues>
            8.2564061880111694e-01 -7.5377160310745239e-01</leafValues></_></weakClassifiers></_>
    <!-- stage 1 -->
    <_>
      <maxWeakCount>2</maxWeakCount>
      <stageThreshold>-8.7431028485298157e-02</stageThreshold>
      <weakClassifiers>
        <_>
          <internalNodes>
            0 -1 15 -5.2059325389564037e-04</internalNodes>
          <leafValues>
            7.2707426548004150e-01 -9.3661969900131226e-01</leafValues></_>
        <_>
          <internalNodes>
            0 -1 20 1.0044652968645096e-02</internalNodes>
          <leafValues>
            -6.1080414056777954e-01 8.4918868541717529e-01</leafValues></_></weakClassifiers></_>
    <!-- stage 2 -->
    <_>
      <maxWeakCount>4</maxWeakCount>
      <stageThreshold>-4.9475157260894775e-01</stageThreshold>
      <weakClassifiers>
        <_>
          <internalNodes>
            0 -1 10 -3.7285494618117809e-03</internalNodes>
          <leafValues>
            7.3431318998336792e-01 -7.9080826044082642e-01</leafValues></_>
        <_>
          <internalNodes>
            0 -1 8 6.3449880108237267e-03</internalNodes>
          <leafValues>
            -8.4480363130569458e-01 4.7104540467262268e-01</leafValues></_>
        <_>
          <internalNodes>
            0 -1 5 6.1192542314529419e-02</internalNodes>
          <leafValues>
            -4.5795857906341553e-01 7.1362423896789551e-01</leafValues></_>
        <_>
          <internalNodes>
            0 -1 17 -9.5320289256051183e-04</internalNodes>
          <leafValues>
            4.2723605036735535e-01 -7.6904672384262085e-01</leafValues></_></weakClassifiers></_>
    <!-- stage 3 -->
    <_>
      <maxWeakCount>2</maxWeakCount>
      <stageThreshold>-3.7677532434463501e-01</stageThreshold>
      <weakClassifiers>
        <_>
          <internalNodes>
            0 -1 1 -4.5597916841506958e-01</internalNodes>
          <leafValues>
            -9.3628811836242676e-01 8.7961858510971069e-01</leafValues></_>
        <_>
          <internalNodes>
            0 -1 11 -3.6981541663408279e-02</internalNodes>
          <leafValues>
            -9.1053879261016846e-01 5.5951273441314697e-01</leafValues></_></weakClassifiers></_>
    <!-- stage 4 -->
    <_>
      <maxWeakCount>4</maxWeakCount>
      <stageThreshold>-4.4288933277130127e-01</stageThreshold>
      <weakClassifiers>
        <_>
          <internalNodes>
            0 -1 4 -3.4090480208396912e-01</internalNodes>
          <leafValues>
            -6.9726246595382690e-01 6.9308602809906006e-01</leafValues></_>
        <_>
          <internalNodes>
            0 -1 0 -3.0195385217666626e-02</internalNodes>
          <leafValues>
            6.6966789960861206e-01 -5.4893356561660767e-01</leafValues></_>
        <_>
          <internalNodes>
            0 -1 14 -1.4901714399456978e-02</internalNodes>
          <leafValues>
            4.4443318247795105e-01 -7.6054227352142334e-01</leafValues></_>
        <_>
          <internalNodes>
            0 -1 12 -3.7436856655403972e-04</internalNodes>
          <leafValues>
            3.5887357592582703e-01 -9.2224353551864624e-01</leafValues></_></weakClassifiers></_>
    <!-- stage 5 -->
    <_>
      <maxWeakCount>8</maxWeakCount>
      <stageThreshold>-9.6300941705703735e-01</stageThreshold>
      <weakClassifiers>
        <_>
          <internalNodes>
            0 -1 9 -1.1321747442707419e-03</internalNodes>
          <leafValues>
            5.9771311283111572e-01 -7.3529410362243652e-01</leafValues></_>
        <_>
          <internalNodes>
            0 -1 3 -8.2526028156280518e-02</internalNodes>
          <leafValues>
            6.9916355609893799e-01 -3.6349195241928101e-01</leafValues></_>
        <_>
          <internalNodes>
            0 -1 19 -1.7134600784629583e-04</internalNodes>
          <leafValues>
            3.8585090637207031e-01 -7.5287884473800659e-01</leafValues></_>
        <_>
          <internalNodes>
            0 -1 7 1.2358658015727997e-02</internalNodes>
          <leafValues>
            -6.4140552282333374e-01 3.5496279597282410e-01</leafValues></_>
        <_>
          <internalNodes>
            0 -1 21 9.7652301192283630e-03</internalNodes>
          <leafValues>
            -4.4273090362548828e-01 5.5036556720733643e-01</leafValues></_>
        <_>
          <internalNodes>
            0 -1 13 -1.7900324892252684e-03</internalNodes>
          <leafValues>
            2.9280406236648560e-01 -7.3405534029006958e-01</leafValues></_>
        <_>
          <internalNodes>
            0 -1 16 -3.1076953746378422e-04</internalNodes>
          <leafValues>
            1.8080578744411469e-01 -8.5112506151199341e-01</leafValues></_>
        <_>
          <internalNodes>
            0 -1 2 -6.9463988766074181e-03</internalNodes>
          <leafValues>
            4.6701765060424805e-01 -4.5063465833663940e-01</leafValues></_></weakClassifiers></_></stages>
  <features>
    <_>
      <rects>
        <_>
          0 4 4 9 -1.</_>
        <_>
          2 4 2 9 2.</_></rects>
      <tilted>0</tilted></_>
    <_>
      <rects>
        <_>
          1 4 15 9 -1.</_>
        <_>
          6 4 5 9 2.</_></rects>
      <tilted>0</tilted></_>
    <_>
      <rects>
        <_>
          1 9 2 4 -1.</_>
        <_>
          2 9 1 4 2.</_></rects>
      <tilted>0</tilted></_>
    <_>
      <rects>
        <_>
          2 0 15 6 -1.</_>
        <_>
          2 3 15 3 2.</_></rects>
      <tilted>0</tilted></_>
    <_>
      <rects>
        <_>
          2 4 15 9 -1.</_>
        <_>
          7 4 5 9 2.</_></rects>
      <tilted>0</tilted></_>
    <_>
      <rects>
        <_>
          2 12 15 6 -1.</_>
        <_>
          2 15 15 3 2.</_></rects>
      <tilted>0</tilted></_>
    <_>
      <rects>
        <_>
          3 5 6 6 -1.</_>
        <_>
          6 5 3 6 2.</_></rects>
      <tilted>0</tilted></_>
    <_>
      <rects>
        <_>
          3 7 4 5 -1.</_>
        <_>
          5 7 2 5 2.</_></rects>
      <tilted>0</tilted></_>
    <_>
      <rects>
        <_>
          4 8 4 3 -1.</_>
        <_>
          6 8 2 3 2.</_></rects>
      <tilted>0</tilted></_>
    <_>
      <rects>
        <_>
          4 9 4 2 -1.</_>
        <_>
          4 10 4 1 2.</_></rects>
      <tilted>0</tilted></_>
    <_>
      <rects>
        <_>
          5 10 8 2 -1.</_>
        <_>
          5 11 8 1 2.</_></rects>
      <tilted>0</tilted></_>
    <_>
      <rects>
        <_>
          6 4 1 9 -1.</_>
        <_>
          6 7 1 3 2.</_></rects>
      <tilted>0</tilted></_>
    <_>
      <rects>
        <_>
          7 10 1 2 -1.</_>
        <_>
          7 11 1 1 2.</_></rects>
      <tilted>0</tilted></_>
    <_>
      <rects>
        <_>
          8 10 3 2 -1.</_>
        <_>
          8 11 3 1 2.</_></rects>
      <tilted>0</tilted></_>
    <_>
      <rects>
        <_>
          12 7 4 4 -1.</_>
        <_>
          14 7 2 4 2.</_></rects>
      <tilted>0</tilted></_>
    <_>
      <rects>
        <_>
          12 9 2 1 -1.</_>
        <_>
          13 9 1 1 2.</_></rects>
      <tilted>0</tilted></_>
    <_>
      <rects>
        <_>
          12 10 2 1 -1.</_>
        <_>
          13 10 1 1 2.</_></rects>
      <tilted>0</tilted></_>
    <_>
      <rects>
        <_>
          13 8 2 1 -1.</_>
        <_>
          14 8 1 1 2.</_></rects>
      <tilted>0</tilted></_>
    <_>
      <rects>
        <_>
          13 8 2 3 -1.</_>
        <_>
          14 8 1 3 2.</_></rects>
      <tilted>0</tilted></_>
    <_>
      <rects>
        <_>
          13 10 1 2 -1.</_>
        <_>
          13 11 1 1 2.</_></rects>
      <tilted>0</tilted></_>
    <_>
      <rects>
        <_>
          16 3 2 11 -1.</_>
        <_>
          17 3 1 11 2.</_></rects>
      <tilted>0</tilted></_>
    <_>
      <rects>
        <_>
          16 7 2 5 -1.</_>
        <_>
          17 7 1 5 2.</_></rects>
      <tilted>0</tilted></_></features></cascade>
</opencv_storage>
