<?xml version="1.0"?>
<opencv_storage>
<stage5>
  <maxWeakCount>8</maxWeakCount>
  <stageThreshold>-9.6300941705703735e-01</stageThreshold>
  <weakClassifiers>
    <_>
      <internalNodes>
        0 -1 23668 -1.1321747442707419e-03</internalNodes>
      <leafValues>
        5.9771311283111572e-01 -7.3529410362243652e-01</leafValues></_>
    <_>
      <internalNodes>
        0 -1 11305 -8.2526028156280518e-02</internalNodes>
      <leafValues>
        6.9916355609893799e-01 -3.6349195241928101e-01</leafValues></_>
    <_>
      <internalNodes>
        0 -1 48771 -1.7134600784629583e-04</internalNodes>
      <leafValues>
        3.8585090637207031e-01 -7.5287884473800659e-01</leafValues></_>
    <_>
      <internalNodes>
        0 -1 18699 1.2358658015727997e-02</internalNodes>
      <leafValues>
        -6.4140552282333374e-01 3.5496279597282410e-01</leafValues></_>
    <_>
      <internalNodes>
        0 -1 51396 9.7652301192283630e-03</internalNodes>
      <leafValues>
        -4.4273090362548828e-01 5.5036556720733643e-01</leafValues></_>
    <_>
      <internalNodes>
        0 -1 38108 -1.7900324892252684e-03</internalNodes>
      <leafValues>
        2.9280406236648560e-01 -7.3405534029006958e-01</leafValues></_>
    <_>
      <internalNodes>
        0 -1 47322 -3.1076953746378422e-04</internalNodes>
      <leafValues>
        1.8080578744411469e-01 -8.5112506151199341e-01</leafValues></_>
    <_>
      <internalNodes>
        0 -1 9511 -6.9463988766074181e-03</internalNodes>
      <leafValues>
        4.6701765060424805e-01 -4.5063465833663940e-01</leafValues></_></weakClassifiers></stage5>
</opencv_storage>
