<?xml version="1.0"?>
<opencv_storage>
<stage5>
  <maxWeakCount>9</maxWeakCount>
  <stageThreshold>-8.9119529724121094e-01</stageThreshold>
  <weakClassifiers>
    <_>
      <internalNodes>
        0 -1 27976 -2.9844281380064785e-04</internalNodes>
      <leafValues>
        -7.9810726642608643e-01 5.0552088022232056e-01</leafValues></_>
    <_>
      <internalNodes>
        0 -1 35259 -1.1331111192703247e-02</internalNodes>
      <leafValues>
        4.7717639803886414e-01 -4.5982909202575684e-01</leafValues></_>
    <_>
      <internalNodes>
        0 -1 2318 -3.3705309033393860e-02</internalNodes>
      <leafValues>
        6.0335260629653931e-01 -3.6094823479652405e-01</leafValues></_>
    <_>
      <internalNodes>
        0 -1 49585 5.0534375011920929e-02</internalNodes>
      <leafValues>
        -2.3201149702072144e-01 7.7494043111801147e-01</leafValues></_>
    <_>
      <internalNodes>
        0 -1 43514 1.0195598006248474e-03</internalNodes>
      <leafValues>
        2.2064134478569031e-01 -8.1182873249053955e-01</leafValues></_>
    <_>
      <internalNodes>
        0 -1 45467 -2.5618184357881546e-02</internalNodes>
      <leafValues>
        5.8722710609436035e-01 -3.0903568863868713e-01</leafValues></_>
    <_>
      <internalNodes>
        0 -1 15033 -3.2357916235923767e-02</internalNodes>
      <leafValues>
        -3.7593433260917664e-01 4.8043259978294373e-01</leafValues></_>
    <_>
      <internalNodes>
        0 -1 35110 -7.7080365736037493e-04</internalNodes>
      <leafValues>
        2.7505397796630859e-01 -6.4463090896606445e-01</leafValues></_>
    <_>
      <internalNodes>
        0 -1 23070 3.0013025389052927e-04</internalNodes>
      <leafValues>
        -6.7169231176376343e-01 2.0622460544109344e-01</leafValues></_></weakClassifiers></stage5>
</opencv_storage>
