<?xml version="1.0"?>
<opencv_storage>
<stage3>
  <maxWeakCount>7</maxWeakCount>
  <stageThreshold>-1.1737077236175537e+00</stageThreshold>
  <weakClassifiers>
    <_>
      <internalNodes>
        0 -1 35230 -6.2334753572940826e-02</internalNodes>
      <leafValues>
        -8.2730925083160400e-01 6.3722395896911621e-01</leafValues></_>
    <_>
      <internalNodes>
        0 -1 35567 1.1320000514388084e-02</internalNodes>
      <leafValues>
        -3.3986446261405945e-01 7.9725241661071777e-01</leafValues></_>
    <_>
      <internalNodes>
        0 -1 24027 5.6718516862019897e-04</internalNodes>
      <leafValues>
        -7.4964261054992676e-01 3.6826211214065552e-01</leafValues></_>
    <_>
      <internalNodes>
        0 -1 24440 4.8820182681083679e-02</internalNodes>
      <leafValues>
        -2.5466695427894592e-01 7.6454490423202515e-01</leafValues></_>
    <_>
      <internalNodes>
        0 -1 24423 -1.0417048819363117e-02</internalNodes>
      <leafValues>
        7.0063948631286621e-01 -3.3190831542015076e-01</leafValues></_>
    <_>
      <internalNodes>
        0 -1 27245 -3.8566030561923981e-02</internalNodes>
      <leafValues>
        -7.9954701662063599e-01 2.8559270501136780e-01</leafValues></_>
    <_>
      <internalNodes>
        0 -1 31357 -5.8151826262474060e-02</internalNodes>
      <leafValues>
        4.9220669269561768e-01 -4.2044213414192200e-01</leafValues></_></weakClassifiers></stage3>
</opencv_storage>
