<?xml version="1.0"?>
<opencv_storage>
<stage6>
  <maxWeakCount>10</maxWeakCount>
  <stageThreshold>-1.1166272163391113e+00</stageThreshold>
  <weakClassifiers>
    <_>
      <internalNodes>
        0 -1 23061 5.1883060950785875e-04</internalNodes>
      <leafValues>
        4.9904760718345642e-01 -8.2666665315628052e-01</leafValues></_>
    <_>
      <internalNodes>
        0 -1 28130 -6.2648282619193196e-04</internalNodes>
      <leafValues>
        3.9876192808151245e-01 -5.1944679021835327e-01</leafValues></_>
    <_>
      <internalNodes>
        0 -1 35397 -4.6539761126041412e-02</internalNodes>
      <leafValues>
        -4.6411222219467163e-01 4.5149183273315430e-01</leafValues></_>
    <_>
      <internalNodes>
        0 -1 47410 -8.9764202130027115e-05</internalNodes>
      <leafValues>
        2.7107316255569458e-01 -5.7592093944549561e-01</leafValues></_>
    <_>
      <internalNodes>
        0 -1 24540 6.0464944690465927e-02</internalNodes>
      <leafValues>
        -2.8797274827957153e-01 5.3596132993698120e-01</leafValues></_>
    <_>
      <internalNodes>
        0 -1 31948 9.9455062299966812e-03</internalNodes>
      <leafValues>
        1.3671866059303284e-01 -8.5646563768386841e-01</leafValues></_>
    <_>
      <internalNodes>
        0 -1 28149 3.4707388840615749e-04</internalNodes>
      <leafValues>
        -5.8566457033157349e-01 1.9958178699016571e-01</leafValues></_>
    <_>
      <internalNodes>
        0 -1 24286 4.0572091937065125e-02</internalNodes>
      <leafValues>
        -1.8916121125221252e-01 7.5745362043380737e-01</leafValues></_>
    <_>
      <internalNodes>
        0 -1 38553 -6.0336515307426453e-03</internalNodes>
      <leafValues>
        5.5443263053894043e-01 -2.6172882318496704e-01</leafValues></_>
    <_>
      <internalNodes>
        0 -1 35245 -7.5969159603118896e-02</internalNodes>
      <leafValues>
        -7.8963249921798706e-01 2.1340513229370117e-01</leafValues></_></weakClassifiers></stage6>
</opencv_storage>
