<?xml version="1.0"?>
<opencv_storage>
<stage9>
  <maxWeakCount>15</maxWeakCount>
  <stageThreshold>-1.1582710742950439e+00</stageThreshold>
  <weakClassifiers>
    <_>
      <internalNodes>
        0 -1 15094 -6.5209791064262390e-02</internalNodes>
      <leafValues>
        -9.2929291725158691e-01 4.4686648249626160e-01</leafValues></_>
    <_>
      <internalNodes>
        0 -1 45670 -1.9837203435599804e-03</internalNodes>
      <leafValues>
        4.7794941067695618e-01 -3.8244792819023132e-01</leafValues></_>
    <_>
      <internalNodes>
        0 -1 23609 1.9862689077854156e-03</internalNodes>
      <leafValues>
        -5.1527130603790283e-01 2.5628897547721863e-01</leafValues></_>
    <_>
      <internalNodes>
        0 -1 27977 -6.2785780755802989e-05</internalNodes>
      <leafValues>
        1.3886095583438873e-01 -7.2940307855606079e-01</leafValues></_>
    <_>
      <internalNodes>
        0 -1 32336 1.9733220338821411e-02</internalNodes>
      <leafValues>
        -2.0431809127330780e-01 6.1655020713806152e-01</leafValues></_>
    <_>
      <internalNodes>
        0 -1 51475 5.2462844178080559e-03</internalNodes>
      <leafValues>
        -2.1834558248519897e-01 6.0781496763229370e-01</leafValues></_>
    <_>
      <internalNodes>
        0 -1 24330 2.8668995946645737e-04</internalNodes>
      <leafValues>
        -2.8702327609062195e-01 3.3962965011596680e-01</leafValues></_>
    <_>
      <internalNodes>
        0 -1 28358 1.4649809338152409e-02</internalNodes>
      <leafValues>
        -1.8671368062496185e-01 7.4110281467437744e-01</leafValues></_>
    <_>
      <internalNodes>
        0 -1 4451 1.9621101021766663e-01</internalNodes>
      <leafValues>
        1.9350481033325195e-01 -7.8554493188858032e-01</leafValues></_>
    <_>
      <internalNodes>
        0 -1 35415 -1.5668952837586403e-03</internalNodes>
      <leafValues>
        4.5338666439056396e-01 -2.2999277710914612e-01</leafValues></_>
    <_>
      <internalNodes>
        0 -1 18321 -4.2185053229331970e-02</internalNodes>
      <leafValues>
        -6.5104949474334717e-01 1.6810475289821625e-01</leafValues></_>
    <_>
      <internalNodes>
        0 -1 23333 2.2513288422487676e-04</internalNodes>
      <leafValues>
        -6.6875386238098145e-01 1.4059391617774963e-01</leafValues></_>
    <_>
      <internalNodes>
        0 -1 23806 -3.2051157904788852e-04</internalNodes>
      <leafValues>
        1.8474785983562469e-01 -5.0774383544921875e-01</leafValues></_>
    <_>
      <internalNodes>
        0 -1 3639 -5.1428824663162231e-02</internalNodes>
      <leafValues>
        5.4317450523376465e-01 -2.2980564832687378e-01</leafValues></_>
    <_>
      <internalNodes>
        0 -1 50003 -2.6395008899271488e-03</internalNodes>
      <leafValues>
        5.3220039606094360e-01 -2.1399672329425812e-01</leafValues></_></weakClassifiers></stage9>
</opencv_storage>
