<?xml version="1.0"?>
<opencv_storage>
<stage4>
  <maxWeakCount>10</maxWeakCount>
  <stageThreshold>-1.3115072250366211e+00</stageThreshold>
  <weakClassifiers>
    <_>
      <internalNodes>
        0 -1 28021 -9.5031893579289317e-04</internalNodes>
      <leafValues>
        5.7442456483840942e-01 -7.2584271430969238e-01</leafValues></_>
    <_>
      <internalNodes>
        0 -1 14883 -9.3173965811729431e-02</internalNodes>
      <leafValues>
        -6.6532629728317261e-01 4.1741043329238892e-01</leafValues></_>
    <_>
      <internalNodes>
        0 -1 43369 -2.0984373986721039e-02</internalNodes>
      <leafValues>
        5.0805389881134033e-01 -4.8150017857551575e-01</leafValues></_>
    <_>
      <internalNodes>
        0 -1 3610 -4.5740619301795959e-02</internalNodes>
      <leafValues>
        6.0699427127838135e-01 -2.7443245053291321e-01</leafValues></_>
    <_>
      <internalNodes>
        0 -1 31600 -2.3828784833312966e-05</internalNodes>
      <leafValues>
        2.7250695228576660e-01 -6.0441553592681885e-01</leafValues></_>
    <_>
      <internalNodes>
        0 -1 35454 -7.6484712772071362e-03</internalNodes>
      <leafValues>
        6.5993863344192505e-01 -2.8944024443626404e-01</leafValues></_>
    <_>
      <internalNodes>
        0 -1 19994 6.0993276536464691e-02</internalNodes>
      <leafValues>
        -3.2959192991256714e-01 6.2382185459136963e-01</leafValues></_>
    <_>
      <internalNodes>
        0 -1 48548 -1.6155779594555497e-03</internalNodes>
      <leafValues>
        3.0150878429412842e-01 -6.5812402963638306e-01</leafValues></_>
    <_>
      <internalNodes>
        0 -1 31949 -6.6408328711986542e-03</internalNodes>
      <leafValues>
        4.1657853126525879e-01 -3.7840488553047180e-01</leafValues></_>
    <_>
      <internalNodes>
        0 -1 45303 -1.8625339493155479e-02</internalNodes>
      <leafValues>
        -9.0140134096145630e-01 1.7627893388271332e-01</leafValues></_></weakClassifiers></stage4>
</opencv_storage>
