<?xml version="1.0"?>
<opencv_storage>
<stage7>
  <maxWeakCount>9</maxWeakCount>
  <stageThreshold>-1.1414526700973511e+00</stageThreshold>
  <weakClassifiers>
    <_>
      <internalNodes>
        0 -1 27364 -1.0140609228983521e-03</internalNodes>
      <leafValues>
        6.2500000000000000e-01 -4.1666665673255920e-01</leafValues></_>
    <_>
      <internalNodes>
        0 -1 14634 -3.7919942289590836e-02</internalNodes>
      <leafValues>
        -6.2039774656295776e-01 4.0923452377319336e-01</leafValues></_>
    <_>
      <internalNodes>
        0 -1 49841 2.7891002595424652e-02</internalNodes>
      <leafValues>
        -3.4309926629066467e-01 6.5735942125320435e-01</leafValues></_>
    <_>
      <internalNodes>
        0 -1 27976 -1.5351150068454444e-04</internalNodes>
      <leafValues>
        -8.3623641729354858e-01 2.4798804521560669e-01</leafValues></_>
    <_>
      <internalNodes>
        0 -1 3956 -2.8532661497592926e-02</internalNodes>
      <leafValues>
        4.6464732289314270e-01 -4.2610919475555420e-01</leafValues></_>
    <_>
      <internalNodes>
        0 -1 47375 -1.0316073894500732e-03</internalNodes>
      <leafValues>
        2.9784053564071655e-01 -6.5177530050277710e-01</leafValues></_>
    <_>
      <internalNodes>
        0 -1 24319 6.2145449221134186e-02</internalNodes>
      <leafValues>
        -3.6198675632476807e-01 4.6708706021308899e-01</leafValues></_>
    <_>
      <internalNodes>
        0 -1 45223 -5.4031293839216232e-03</internalNodes>
      <leafValues>
        2.6534676551818848e-01 -6.7901164293289185e-01</leafValues></_>
    <_>
      <internalNodes>
        0 -1 19207 1.1227090726606548e-04</internalNodes>
      <leafValues>
        -6.0577070713043213e-01 2.3886542022228241e-01</leafValues></_></weakClassifiers></stage7>
</opencv_storage>
