<?xml version="1.0"?>
<opencv_storage>
<stage2>
  <maxWeakCount>5</maxWeakCount>
  <stageThreshold>-1.1605857610702515e+00</stageThreshold>
  <weakClassifiers>
    <_>
      <internalNodes>
        0 -1 27327 -5.2093092352151871e-02</internalNodes>
      <leafValues>
        8.2033687829971313e-01 -6.4617311954498291e-01</leafValues></_>
    <_>
      <internalNodes>
        0 -1 10383 5.1169607788324356e-02</internalNodes>
      <leafValues>
        -4.1369363665580750e-01 7.8601092100143433e-01</leafValues></_>
    <_>
      <internalNodes>
        0 -1 45223 -2.8816913254559040e-03</internalNodes>
      <leafValues>
        4.4918477535247803e-01 -7.9372763633728027e-01</leafValues></_>
    <_>
      <internalNodes>
        0 -1 23673 -5.8280453085899353e-03</internalNodes>
      <leafValues>
        3.9141443371772766e-01 -7.7073019742965698e-01</leafValues></_>
    <_>
      <internalNodes>
        0 -1 23580 4.7926783736329526e-05</internalNodes>
      <leafValues>
        -9.0824329853057861e-01 2.6403436064720154e-01</leafValues></_></weakClassifiers></stage2>
</opencv_storage>
