<?xml version="1.0"?>
<opencv_storage>
<stage5>
  <maxWeakCount>6</maxWeakCount>
  <stageThreshold>-7.9506421089172363e-01</stageThreshold>
  <weakClassifiers>
    <_>
      <internalNodes>
        0 -1 14362 -8.4584847092628479e-02</internalNodes>
      <leafValues>
        -4.9924585223197937e-01 6.5112262964248657e-01</leafValues></_>
    <_>
      <internalNodes>
        0 -1 27077 -5.8474421501159668e-02</internalNodes>
      <leafValues>
        4.1625776886940002e-01 -7.9762631654739380e-01</leafValues></_>
    <_>
      <internalNodes>
        0 -1 20388 -1.7769042402505875e-02</internalNodes>
      <leafValues>
        5.6834304332733154e-01 -4.4019100069999695e-01</leafValues></_>
    <_>
      <internalNodes>
        0 -1 23805 7.0409761974588037e-05</internalNodes>
      <leafValues>
        -8.0718481540679932e-01 2.7879258990287781e-01</leafValues></_>
    <_>
      <internalNodes>
        0 -1 51365 9.3201976269483566e-03</internalNodes>
      <leafValues>
        -4.3095147609710693e-01 4.9031320214271545e-01</leafValues></_>
    <_>
      <internalNodes>
        0 -1 27794 2.1957694116281345e-05</internalNodes>
      <leafValues>
        -8.2288104295730591e-01 2.5033655762672424e-01</leafValues></_></weakClassifiers></stage5>
</opencv_storage>
