<?xml version="1.0"?>
<opencv_storage>
<stage6>
  <maxWeakCount>7</maxWeakCount>
  <stageThreshold>-7.5107538700103760e-01</stageThreshold>
  <weakClassifiers>
    <_>
      <internalNodes>
        0 -1 34706 -2.8932332992553711e-02</internalNodes>
      <leafValues>
        6.2465298175811768e-01 -5.4257094860076904e-01</leafValues></_>
    <_>
      <internalNodes>
        0 -1 26479 -1.4710934460163116e-01</internalNodes>
      <leafValues>
        -4.6312958002090454e-01 6.0791510343551636e-01</leafValues></_>
    <_>
      <internalNodes>
        0 -1 2765 -1.3166138902306557e-02</internalNodes>
      <leafValues>
        4.7224044799804688e-01 -4.9545863270759583e-01</leafValues></_>
    <_>
      <internalNodes>
        0 -1 49935 -1.9619368686107919e-05</internalNodes>
      <leafValues>
        3.0698567628860474e-01 -6.2360364198684692e-01</leafValues></_>
    <_>
      <internalNodes>
        0 -1 24324 8.8109038770198822e-02</internalNodes>
      <leafValues>
        -3.2204124331474304e-01 6.1047059297561646e-01</leafValues></_>
    <_>
      <internalNodes>
        0 -1 35471 -3.7225089035928249e-03</internalNodes>
      <leafValues>
        5.5134636163711548e-01 -3.4396162629127502e-01</leafValues></_>
    <_>
      <internalNodes>
        0 -1 27821 -2.8658396331593394e-04</internalNodes>
      <leafValues>
        2.4018490314483643e-01 -7.5390613079071045e-01</leafValues></_></weakClassifiers></stage6>
</opencv_storage>
