<?xml version="1.0"?>
<opencv_storage>
<stage3>
  <maxWeakCount>5</maxWeakCount>
  <stageThreshold>-7.3328477144241333e-01</stageThreshold>
  <weakClassifiers>
    <_>
      <internalNodes>
        0 -1 23612 -1.7843768000602722e-02</internalNodes>
      <leafValues>
        -8.2591873407363892e-01 6.5161973237991333e-01</leafValues></_>
    <_>
      <internalNodes>
        0 -1 15375 8.5066884756088257e-02</internalNodes>
      <leafValues>
        -4.1516101360321045e-01 7.3527544736862183e-01</leafValues></_>
    <_>
      <internalNodes>
        0 -1 34702 -9.7657274454832077e-03</internalNodes>
      <leafValues>
        4.5334705710411072e-01 -7.7152425050735474e-01</leafValues></_>
    <_>
      <internalNodes>
        0 -1 34088 5.0145480781793594e-03</internalNodes>
      <leafValues>
        -4.2143416404724121e-01 6.9584989547729492e-01</leafValues></_>
    <_>
      <internalNodes>
        0 -1 45434 -3.1478812452405691e-03</internalNodes>
      <leafValues>
        5.5031692981719971e-01 -3.9893049001693726e-01</leafValues></_></weakClassifiers></stage3>
</opencv_storage>
