<?xml version="1.0"?>
<opencv_storage>
<stage6>
  <maxWeakCount>9</maxWeakCount>
  <stageThreshold>-8.1793373823165894e-01</stageThreshold>
  <weakClassifiers>
    <_>
      <internalNodes>
        0 -1 23621 -4.0499188005924225e-02</internalNodes>
      <leafValues>
        -4.3221691250801086e-01 6.0406088829040527e-01</leafValues></_>
    <_>
      <internalNodes>
        0 -1 18017 9.6983872354030609e-03</internalNodes>
      <leafValues>
        -4.1062182188034058e-01 5.1079672574996948e-01</leafValues></_>
    <_>
      <internalNodes>
        0 -1 40677 -1.1647798120975494e-02</internalNodes>
      <leafValues>
        2.6999956369400024e-01 -6.9809722900390625e-01</leafValues></_>
    <_>
      <internalNodes>
        0 -1 32231 5.1261093467473984e-02</internalNodes>
      <leafValues>
        -2.4073526263237000e-01 7.4289512634277344e-01</leafValues></_>
    <_>
      <internalNodes>
        0 -1 45223 -1.8152284901589155e-03</internalNodes>
      <leafValues>
        2.2170121967792511e-01 -6.6511946916580200e-01</leafValues></_>
    <_>
      <internalNodes>
        0 -1 19217 -1.1065087746828794e-03</internalNodes>
      <leafValues>
        3.6665168404579163e-01 -4.2781275510787964e-01</leafValues></_>
    <_>
      <internalNodes>
        0 -1 40743 -1.0854277759790421e-02</internalNodes>
      <leafValues>
        -8.1563842296600342e-01 1.6156904399394989e-01</leafValues></_>
    <_>
      <internalNodes>
        0 -1 40743 1.0917736217379570e-02</internalNodes>
      <leafValues>
        1.3069850206375122e-01 -9.2534142732620239e-01</leafValues></_>
    <_>
      <internalNodes>
        0 -1 14634 -9.3142218887805939e-02</internalNodes>
      <leafValues>
        -8.9266335964202881e-01 9.2227689921855927e-02</leafValues></_></weakClassifiers></stage6>
</opencv_storage>
