<?xml version="1.0"?>
<opencv_storage>
<stage5>
  <maxWeakCount>8</maxWeakCount>
  <stageThreshold>-6.4866262674331665e-01</stageThreshold>
  <weakClassifiers>
    <_>
      <internalNodes>
        0 -1 2821 -5.3760446608066559e-02</internalNodes>
      <leafValues>
        7.1465629339218140e-01 -3.5198134183883667e-01</leafValues></_>
    <_>
      <internalNodes>
        0 -1 14366 -1.3749328255653381e-01</internalNodes>
      <leafValues>
        -5.4492491483688354e-01 5.7700181007385254e-01</leafValues></_>
    <_>
      <internalNodes>
        0 -1 23361 6.8366010673344135e-03</internalNodes>
      <leafValues>
        -6.3685578107833862e-01 3.6668801307678223e-01</leafValues></_>
    <_>
      <internalNodes>
        0 -1 51396 5.5314050987362862e-03</internalNodes>
      <leafValues>
        -4.1943415999412537e-01 5.1762109994888306e-01</leafValues></_>
    <_>
      <internalNodes>
        0 -1 43217 -5.4249744862318039e-03</internalNodes>
      <leafValues>
        3.5401502251625061e-01 -6.2538260221481323e-01</leafValues></_>
    <_>
      <internalNodes>
        0 -1 37760 -8.9789880439639091e-03</internalNodes>
      <leafValues>
        -8.8989883661270142e-01 1.6137623786926270e-01</leafValues></_>
    <_>
      <internalNodes>
        0 -1 27653 -1.2564216740429401e-03</internalNodes>
      <leafValues>
        1.9433321058750153e-01 -6.7001897096633911e-01</leafValues></_>
    <_>
      <internalNodes>
        0 -1 21109 -5.5731266736984253e-02</internalNodes>
      <leafValues>
        5.2415740489959717e-01 -3.3836284279823303e-01</leafValues></_></weakClassifiers></stage5>
</opencv_storage>
